<?xml version="1.0"?>
<opencv_storage>
<stage9>
  <maxWeakCount>51</maxWeakCount>
  <stageThreshold>-7.5102496147155762e-01</stageThreshold>
  <weakClassifiers>
    <_>
      <internalNodes>
        0 -1 685892 -2.4415712687186897e-04</internalNodes>
      <leafValues>
        -1.6666667163372040e-01 3.3233532309532166e-01</leafValues></_>
    <_>
      <internalNodes>
        0 -1 26479 -5.3444337844848633e-01</internalNodes>
      <leafValues>
        6.9700670242309570e-01 -4.7148156911134720e-02</leafValues></_>
    <_>
      <internalNodes>
        0 -1 104342 1.8634548783302307e-01</internalNodes>
      <leafValues>
        -1.5403719246387482e-01 3.9144933223724365e-01</leafValues></_>
    <_>
      <internalNodes>
        0 -1 685892 8.5123069584369659e-04</internalNodes>
      <leafValues>
        6.0994531959295273e-02 -6.2294107675552368e-01</leafValues></_>
    <_>
      <internalNodes>
        0 -1 675300 -1.3709561899304390e-02</internalNodes>
      <leafValues>
        4.7406977415084839e-01 -6.7611321806907654e-02</leafValues></_>
    <_>
      <internalNodes>
        0 -1 630135 2.0731291733682156e-03</internalNodes>
      <leafValues>
        -1.1651370674371719e-01 2.6766511797904968e-01</leafValues></_>
    <_>
      <internalNodes>
        0 -1 261874 -1.8735149642452598e-03</internalNodes>
      <leafValues>
        -5.0705289840698242e-01 6.5636470913887024e-02</leafValues></_>
    <_>
      <internalNodes>
        0 -1 73351 -1.1773553676903248e-02</internalNodes>
      <leafValues>
        2.3658078908920288e-01 -1.2724576890468597e-01</leafValues></_>
    <_>
      <internalNodes>
        0 -1 693500 2.3171942681074142e-02</internalNodes>
      <leafValues>
        -6.2841981649398804e-02 4.1129633784294128e-01</leafValues></_>
    <_>
      <internalNodes>
        0 -1 252715 -2.3182944860309362e-03</internalNodes>
      <leafValues>
        4.3385308980941772e-01 -8.5206627845764160e-02</leafValues></_>
    <_>
      <internalNodes>
        0 -1 697703 1.5811123885214329e-03</internalNodes>
      <leafValues>
        6.3368640840053558e-02 -5.0317603349685669e-01</leafValues></_>
    <_>
      <internalNodes>
        0 -1 438877 1.2472871690988541e-02</internalNodes>
      <leafValues>
        -1.0728436708450317e-01 2.7775758504867554e-01</leafValues></_>
    <_>
      <internalNodes>
        0 -1 566436 -3.4302449785172939e-03</internalNodes>
      <leafValues>
        4.8508572578430176e-01 -6.7483045160770416e-02</leafValues></_>
    <_>
      <internalNodes>
        0 -1 262893 3.1260285526514053e-02</internalNodes>
      <leafValues>
        -5.5398691445589066e-02 4.9985477328300476e-01</leafValues></_>
    <_>
      <internalNodes>
        0 -1 421677 -1.3088274281471968e-03</internalNodes>
      <leafValues>
        4.8394733667373657e-01 -5.6401584297418594e-02</leafValues></_>
    <_>
      <internalNodes>
        0 -1 701590 2.1097476128488779e-03</internalNodes>
      <leafValues>
        1.1000283807516098e-01 -3.0700802803039551e-01</leafValues></_>
    <_>
      <internalNodes>
        0 -1 117065 -1.1193889658898115e-03</internalNodes>
      <leafValues>
        -4.5128470659255981e-01 6.9536082446575165e-02</leafValues></_>
    <_>
      <internalNodes>
        0 -1 551682 -1.2447939254343510e-02</internalNodes>
      <leafValues>
        -5.6821113824844360e-01 4.8863943666219711e-02</leafValues></_>
    <_>
      <internalNodes>
        0 -1 385514 2.8933691792190075e-03</internalNodes>
      <leafValues>
        -9.1584227979183197e-02 3.3767437934875488e-01</leafValues></_>
    <_>
      <internalNodes>
        0 -1 291625 -4.7469502314925194e-03</internalNodes>
      <leafValues>
        3.3430519700050354e-01 -8.5414566099643707e-02</leafValues></_>
    <_>
      <internalNodes>
        0 -1 331780 -7.5245066545903683e-03</internalNodes>
      <leafValues>
        -5.8691209554672241e-01 5.9298660606145859e-02</leafValues></_>
    <_>
      <internalNodes>
        0 -1 23537 -3.5289002116769552e-03</internalNodes>
      <leafValues>
        3.1166025996208191e-01 -9.9503800272941589e-02</leafValues></_>
    <_>
      <internalNodes>
        0 -1 418983 -1.2441288679838181e-02</internalNodes>
      <leafValues>
        -5.0724154710769653e-01 6.1573065817356110e-02</leafValues></_>
    <_>
      <internalNodes>
        0 -1 545354 -4.4304295442998409e-03</internalNodes>
      <leafValues>
        3.8420119881629944e-01 -7.8558862209320068e-02</leafValues></_>
    <_>
      <internalNodes>
        0 -1 517910 -7.1279592812061310e-02</internalNodes>
      <leafValues>
        3.9736068248748779e-01 -6.9918647408485413e-02</leafValues></_>
    <_>
      <internalNodes>
        0 -1 443369 3.2564818859100342e-02</internalNodes>
      <leafValues>
        8.7149441242218018e-02 -3.6337667703628540e-01</leafValues></_>
    <_>
      <internalNodes>
        0 -1 544925 2.6267481734976172e-04</internalNodes>
      <leafValues>
        -1.4564454555511475e-01 2.1286784112453461e-01</leafValues></_>
    <_>
      <internalNodes>
        0 -1 123520 -2.9105148278176785e-03</internalNodes>
      <leafValues>
        -3.9066812396049500e-01 7.9306580126285553e-02</leafValues></_>
    <_>
      <internalNodes>
        0 -1 215122 -9.9331988021731377e-03</internalNodes>
      <leafValues>
        3.9873760938644409e-01 -8.0475531518459320e-02</leafValues></_>
    <_>
      <internalNodes>
        0 -1 55476 -4.8837453126907349e-02</internalNodes>
      <leafValues>
        4.4199094176292419e-01 -6.3843429088592529e-02</leafValues></_>
    <_>
      <internalNodes>
        0 -1 540835 5.2105188369750977e-02</internalNodes>
      <leafValues>
        -7.6017551124095917e-02 4.2280679941177368e-01</leafValues></_>
    <_>
      <internalNodes>
        0 -1 518108 2.2118019405752420e-03</internalNodes>
      <leafValues>
        -7.3894307017326355e-02 4.1378340125083923e-01</leafValues></_>
    <_>
      <internalNodes>
        0 -1 304970 -7.1544423699378967e-03</internalNodes>
      <leafValues>
        -5.6739574670791626e-01 5.6871492415666580e-02</leafValues></_>
    <_>
      <internalNodes>
        0 -1 504950 2.1023005247116089e-03</internalNodes>
      <leafValues>
        -3.8783762603998184e-02 8.3037638664245605e-01</leafValues></_>
    <_>
      <internalNodes>
        0 -1 498349 -1.4038147404789925e-02</internalNodes>
      <leafValues>
        -5.7663869857788086e-01 5.6791946291923523e-02</leafValues></_>
    <_>
      <internalNodes>
        0 -1 527715 -1.0813216213136911e-03</internalNodes>
      <leafValues>
        2.5217464566230774e-01 -1.2595894932746887e-01</leafValues></_>
    <_>
      <internalNodes>
        0 -1 731216 -3.5929488949477673e-03</internalNodes>
      <leafValues>
        -7.8002524375915527e-01 4.1886813938617706e-02</leafValues></_>
    <_>
      <internalNodes>
        0 -1 425070 -2.0372637081891298e-03</internalNodes>
      <leafValues>
        -5.2528017759323120e-01 4.9414593726396561e-02</leafValues></_>
    <_>
      <internalNodes>
        0 -1 701189 7.0257605984807014e-03</internalNodes>
      <leafValues>
        9.3271762132644653e-02 -3.3231824636459351e-01</leafValues></_>
    <_>
      <internalNodes>
        0 -1 477938 7.7042030170559883e-03</internalNodes>
      <leafValues>
        -7.9328559339046478e-02 4.1174140572547913e-01</leafValues></_>
    <_>
      <internalNodes>
        0 -1 416917 2.6949318125844002e-03</internalNodes>
      <leafValues>
        -4.6570651233196259e-02 5.7544010877609253e-01</leafValues></_>
    <_>
      <internalNodes>
        0 -1 492866 -9.5204144716262817e-02</internalNodes>
      <leafValues>
        2.8684371709823608e-01 -9.6142023801803589e-02</leafValues></_>
    <_>
      <internalNodes>
        0 -1 392001 3.5482265055179596e-02</internalNodes>
      <leafValues>
        -1.5383030474185944e-01 2.4705308675765991e-01</leafValues></_>
    <_>
      <internalNodes>
        0 -1 622335 -1.2584997341036797e-02</internalNodes>
      <leafValues>
        -6.1627471446990967e-01 6.0517355799674988e-02</leafValues></_>
    <_>
      <internalNodes>
        0 -1 676304 -5.6334974942728877e-04</internalNodes>
      <leafValues>
        -2.7781474590301514e-01 1.0100998729467392e-01</leafValues></_>
    <_>
      <internalNodes>
        0 -1 254094 -1.6224273713305593e-04</internalNodes>
      <leafValues>
        2.1524511277675629e-01 -1.3073109090328217e-01</leafValues></_>
    <_>
      <internalNodes>
        0 -1 454595 -1.0455232113599777e-03</internalNodes>
      <leafValues>
        3.6008197069168091e-01 -8.6068525910377502e-02</leafValues></_>
    <_>
      <internalNodes>
        0 -1 649905 -1.2414488010108471e-03</internalNodes>
      <leafValues>
        -3.5658666491508484e-01 9.0383008122444153e-02</leafValues></_>
    <_>
      <internalNodes>
        0 -1 196317 -2.7810558676719666e-03</internalNodes>
      <leafValues>
        -6.7678540945053101e-01 4.1276670992374420e-02</leafValues></_>
    <_>
      <internalNodes>
        0 -1 185803 1.7061261460185051e-02</internalNodes>
      <leafValues>
        4.3948516249656677e-02 -6.6829288005828857e-01</leafValues></_>
    <_>
      <internalNodes>
        0 -1 248037 -5.2694142796099186e-03</internalNodes>
      <leafValues>
        2.3369590938091278e-01 -1.3398385047912598e-01</leafValues></_></weakClassifiers></stage9>
</opencv_storage>
