<?xml version="1.0"?>
<opencv_storage>
<stage4>
  <maxWeakCount>46</maxWeakCount>
  <stageThreshold>-1.0821490287780762e+00</stageThreshold>
  <weakClassifiers>
    <_>
      <internalNodes>
        0 -1 722721 3.5108344163745642e-03</internalNodes>
      <leafValues>
        3.2667618989944458e-01 -2.9292929172515869e-01</leafValues></_>
    <_>
      <internalNodes>
        0 -1 635124 -1.1203237809240818e-03</internalNodes>
      <leafValues>
        6.1139672994613647e-01 -6.2515318393707275e-02</leafValues></_>
    <_>
      <internalNodes>
        0 -1 635124 5.7424744591116905e-04</internalNodes>
      <leafValues>
        -1.3842286169528961e-01 4.0050128102302551e-01</leafValues></_>
    <_>
      <internalNodes>
        0 -1 623786 3.9146117866039276e-02</internalNodes>
      <leafValues>
        -8.2580804824829102e-02 4.6902805566787720e-01</leafValues></_>
    <_>
      <internalNodes>
        0 -1 558917 -4.6485703438520432e-02</internalNodes>
      <leafValues>
        4.5279967784881592e-01 -8.9056707918643951e-02</leafValues></_>
    <_>
      <internalNodes>
        0 -1 429936 -1.3443686766549945e-03</internalNodes>
      <leafValues>
        5.1614481210708618e-01 -1.0510558634996414e-01</leafValues></_>
    <_>
      <internalNodes>
        0 -1 250136 -3.6274315789341927e-03</internalNodes>
      <leafValues>
        4.8526445031166077e-01 -8.4301784634590149e-02</leafValues></_>
    <_>
      <internalNodes>
        0 -1 36571 -3.3021833747625351e-02</internalNodes>
      <leafValues>
        3.4355944395065308e-01 -1.3850936293601990e-01</leafValues></_>
    <_>
      <internalNodes>
        0 -1 263426 1.8179079890251160e-01</internalNodes>
      <leafValues>
        9.8782412707805634e-02 -6.0304188728332520e-01</leafValues></_>
    <_>
      <internalNodes>
        0 -1 533251 6.3825637334957719e-04</internalNodes>
      <leafValues>
        -1.5347610414028168e-01 3.0954226851463318e-01</leafValues></_>
    <_>
      <internalNodes>
        0 -1 561075 1.4183418825268745e-03</internalNodes>
      <leafValues>
        -1.1763609945774078e-01 5.0086331367492676e-01</leafValues></_>
    <_>
      <internalNodes>
        0 -1 306227 -2.0545201376080513e-02</internalNodes>
      <leafValues>
        6.3175797462463379e-01 -4.3023712933063507e-02</leafValues></_>
    <_>
      <internalNodes>
        0 -1 592807 4.1942365351133049e-04</internalNodes>
      <leafValues>
        9.7703009843826294e-02 -4.4250807166099548e-01</leafValues></_>
    <_>
      <internalNodes>
        0 -1 603064 9.2313589993864298e-04</internalNodes>
      <leafValues>
        -9.2188127338886261e-02 4.9653246998786926e-01</leafValues></_>
    <_>
      <internalNodes>
        0 -1 440647 2.5326813920401037e-04</internalNodes>
      <leafValues>
        -1.2268322706222534e-01 3.0635690689086914e-01</leafValues></_>
    <_>
      <internalNodes>
        0 -1 721151 -9.1082602739334106e-03</internalNodes>
      <leafValues>
        -3.9597734808921814e-01 9.7432091832160950e-02</leafValues></_>
    <_>
      <internalNodes>
        0 -1 300858 9.8341703414916992e-04</internalNodes>
      <leafValues>
        -6.3563719391822815e-02 6.2888354063034058e-01</leafValues></_>
    <_>
      <internalNodes>
        0 -1 613933 9.5216613262891769e-03</internalNodes>
      <leafValues>
        6.2893263995647430e-02 -6.6179984807968140e-01</leafValues></_>
    <_>
      <internalNodes>
        0 -1 49957 6.4301653765141964e-03</internalNodes>
      <leafValues>
        3.6522179841995239e-02 -8.8563477993011475e-01</leafValues></_>
    <_>
      <internalNodes>
        0 -1 326903 5.9832222759723663e-03</internalNodes>
      <leafValues>
        -9.4973526895046234e-02 4.6407833695411682e-01</leafValues></_>
    <_>
      <internalNodes>
        0 -1 486499 1.1741204652935266e-03</internalNodes>
      <leafValues>
        -9.7787111997604370e-02 3.7580424547195435e-01</leafValues></_>
    <_>
      <internalNodes>
        0 -1 502537 -6.9835624890401959e-04</internalNodes>
      <leafValues>
        4.2327892780303955e-01 -9.9020436406135559e-02</leafValues></_>
    <_>
      <internalNodes>
        0 -1 719671 1.5911275113467127e-04</internalNodes>
      <leafValues>
        1.6888338327407837e-01 -2.6753818988800049e-01</leafValues></_>
    <_>
      <internalNodes>
        0 -1 712598 2.1737257484346628e-03</internalNodes>
      <leafValues>
        6.9366700947284698e-02 -5.9960341453552246e-01</leafValues></_>
    <_>
      <internalNodes>
        0 -1 408776 -3.1459748744964600e-02</internalNodes>
      <leafValues>
        -6.5542769432067871e-01 5.5703036487102509e-02</leafValues></_>
    <_>
      <internalNodes>
        0 -1 615793 -1.7781048081815243e-03</internalNodes>
      <leafValues>
        6.0779130458831787e-01 -7.5566403567790985e-02</leafValues></_>
    <_>
      <internalNodes>
        0 -1 346086 4.6333046630024910e-03</internalNodes>
      <leafValues>
        -5.5058889091014862e-02 6.2637966871261597e-01</leafValues></_>
    <_>
      <internalNodes>
        0 -1 422297 -2.2057566791772842e-02</internalNodes>
      <leafValues>
        -6.0054248571395874e-01 7.2032161056995392e-02</leafValues></_>
    <_>
      <internalNodes>
        0 -1 157729 3.3015571534633636e-03</internalNodes>
      <leafValues>
        6.8918347358703613e-02 -6.0586816072463989e-01</leafValues></_>
    <_>
      <internalNodes>
        0 -1 730020 4.0441630408167839e-03</internalNodes>
      <leafValues>
        7.6574467122554779e-02 -4.9411436915397644e-01</leafValues></_>
    <_>
      <internalNodes>
        0 -1 75104 -8.8090397417545319e-02</internalNodes>
      <leafValues>
        -6.5189582109451294e-01 5.5924396961927414e-02</leafValues></_>
    <_>
      <internalNodes>
        0 -1 370446 -2.1963927894830704e-02</internalNodes>
      <leafValues>
        -3.8922396302223206e-01 1.0334411263465881e-01</leafValues></_>
    <_>
      <internalNodes>
        0 -1 548738 4.9367448082193732e-04</internalNodes>
      <leafValues>
        -1.2881673872470856e-01 3.4924298524856567e-01</leafValues></_>
    <_>
      <internalNodes>
        0 -1 305416 4.5423340052366257e-02</internalNodes>
      <leafValues>
        -9.7929105162620544e-02 3.9421218633651733e-01</leafValues></_>
    <_>
      <internalNodes>
        0 -1 241560 8.4099527448415756e-03</internalNodes>
      <leafValues>
        -7.9328127205371857e-02 5.3135728836059570e-01</leafValues></_>
    <_>
      <internalNodes>
        0 -1 431378 1.1917274678125978e-03</internalNodes>
      <leafValues>
        -5.8847226202487946e-02 5.9457796812057495e-01</leafValues></_>
    <_>
      <internalNodes>
        0 -1 576218 5.0521246157586575e-04</internalNodes>
      <leafValues>
        -1.0772758722305298e-01 3.6462759971618652e-01</leafValues></_>
    <_>
      <internalNodes>
        0 -1 644285 -1.0013249702751637e-03</internalNodes>
      <leafValues>
        2.7606239914894104e-01 -1.4072535932064056e-01</leafValues></_>
    <_>
      <internalNodes>
        0 -1 521047 -1.0985824046656489e-03</internalNodes>
      <leafValues>
        4.4504874944686890e-01 -9.2627845704555511e-02</leafValues></_>
    <_>
      <internalNodes>
        0 -1 726803 3.5475633922033012e-04</internalNodes>
      <leafValues>
        1.4696411788463593e-01 -2.8790909051895142e-01</leafValues></_>
    <_>
      <internalNodes>
        0 -1 413344 9.5351003110408783e-03</internalNodes>
      <leafValues>
        6.3734129071235657e-02 -6.2390542030334473e-01</leafValues></_>
    <_>
      <internalNodes>
        0 -1 648988 -1.3213970232754946e-03</internalNodes>
      <leafValues>
        2.9394870996475220e-01 -1.4850156009197235e-01</leafValues></_>
    <_>
      <internalNodes>
        0 -1 325896 1.5061276499181986e-03</internalNodes>
      <leafValues>
        1.1718349903821945e-01 -3.6796513199806213e-01</leafValues></_>
    <_>
      <internalNodes>
        0 -1 1338 3.2077419757843018e-01</internalNodes>
      <leafValues>
        -8.5595078766345978e-02 5.7580053806304932e-01</leafValues></_>
    <_>
      <internalNodes>
        0 -1 485383 6.0609669890254736e-04</internalNodes>
      <leafValues>
        -1.0329986363649368e-01 3.8038676977157593e-01</leafValues></_>
    <_>
      <internalNodes>
        0 -1 534941 2.5022507179528475e-03</internalNodes>
      <leafValues>
        -9.9019691348075867e-02 4.1004395484924316e-01</leafValues></_></weakClassifiers></stage4>
</opencv_storage>
