<?xml version="1.0"?>
<opencv_storage>
<stage10>
  <maxWeakCount>78</maxWeakCount>
  <stageThreshold>-6.5368771553039551e-01</stageThreshold>
  <weakClassifiers>
    <_>
      <internalNodes>
        0 -1 19039 -4.6438310295343399e-02</internalNodes>
      <leafValues>
        -1.9708029925823212e-01 2.9186603426933289e-01</leafValues></_>
    <_>
      <internalNodes>
        0 -1 104638 -5.4743411019444466e-03</internalNodes>
      <leafValues>
        5.8289843797683716e-01 -3.5875160247087479e-02</leafValues></_>
    <_>
      <internalNodes>
        0 -1 104638 -5.4209325462579727e-03</internalNodes>
      <leafValues>
        -1. 2.7121254242956638e-03</leafValues></_>
    <_>
      <internalNodes>
        0 -1 104638 -5.3976448252797127e-03</internalNodes>
      <leafValues>
        8.1699126958847046e-01 -1.0879957117140293e-03</leafValues></_>
    <_>
      <internalNodes>
        0 -1 103753 -4.7829132527112961e-03</internalNodes>
      <leafValues>
        2.7606564760208130e-01 -8.4867015480995178e-02</leafValues></_>
    <_>
      <internalNodes>
        0 -1 125195 3.4539622720330954e-04</internalNodes>
      <leafValues>
        1.0711302608251572e-01 -1.8469046056270599e-01</leafValues></_>
    <_>
      <internalNodes>
        0 -1 121442 1.5935508999973536e-03</internalNodes>
      <leafValues>
        -7.8044950962066650e-02 2.4189904332160950e-01</leafValues></_>
    <_>
      <internalNodes>
        0 -1 124803 -1.1976633686572313e-03</internalNodes>
      <leafValues>
        -3.2809764146804810e-01 5.3004097193479538e-02</leafValues></_>
    <_>
      <internalNodes>
        0 -1 19571 -8.4838075563311577e-03</internalNodes>
      <leafValues>
        2.3094607889652252e-01 -7.7877908945083618e-02</leafValues></_>
    <_>
      <internalNodes>
        0 -1 90834 4.2459294199943542e-02</internalNodes>
      <leafValues>
        4.2995821684598923e-02 -4.9320110678672791e-01</leafValues></_>
    <_>
      <internalNodes>
        0 -1 72149 2.5084206834435463e-02</internalNodes>
      <leafValues>
        -2.9118470847606659e-02 9.5086032152175903e-01</leafValues></_>
    <_>
      <internalNodes>
        0 -1 70692 -1.0205430909991264e-02</internalNodes>
      <leafValues>
        2.8835874795913696e-01 -7.1101859211921692e-02</leafValues></_>
    <_>
      <internalNodes>
        0 -1 76854 1.2106361100450158e-03</internalNodes>
      <leafValues>
        -1.0870364308357239e-01 1.6234612464904785e-01</leafValues></_>
    <_>
      <internalNodes>
        0 -1 45390 3.8980045355856419e-03</internalNodes>
      <leafValues>
        -4.9325250089168549e-02 3.9134499430656433e-01</leafValues></_>
    <_>
      <internalNodes>
        0 -1 29414 8.0966772511601448e-03</internalNodes>
      <leafValues>
        -7.6488509774208069e-02 2.5058472156524658e-01</leafValues></_>
    <_>
      <internalNodes>
        0 -1 9012 -3.7616115063428879e-02</internalNodes>
      <leafValues>
        -5.8329713344573975e-01 3.4775801002979279e-02</leafValues></_>
    <_>
      <internalNodes>
        0 -1 121951 -8.1695020198822021e-03</internalNodes>
      <leafValues>
        3.7817478179931641e-01 -5.3715322166681290e-02</leafValues></_>
    <_>
      <internalNodes>
        0 -1 99962 1.5717998147010803e-02</internalNodes>
      <leafValues>
        3.9994087070226669e-02 -5.2286422252655029e-01</leafValues></_>
    <_>
      <internalNodes>
        0 -1 108007 8.0680008977651596e-03</internalNodes>
      <leafValues>
        -6.5605036914348602e-02 3.0833056569099426e-01</leafValues></_>
    <_>
      <internalNodes>
        0 -1 95630 -4.3350264430046082e-02</internalNodes>
      <leafValues>
        -6.3150388002395630e-01 3.3452186733484268e-02</leafValues></_>
    <_>
      <internalNodes>
        0 -1 12983 -1.0266978293657303e-01</internalNodes>
      <leafValues>
        2.8066474199295044e-01 -7.6328285038471222e-02</leafValues></_>
    <_>
      <internalNodes>
        0 -1 96411 7.7342011034488678e-02</internalNodes>
      <leafValues>
        -4.1905660182237625e-02 4.6901920437812805e-01</leafValues></_>
    <_>
      <internalNodes>
        0 -1 56425 1.2092246115207672e-01</internalNodes>
      <leafValues>
        -3.0180530622601509e-02 6.4582616090774536e-01</leafValues></_>
    <_>
      <internalNodes>
        0 -1 62608 -2.9051331803202629e-03</internalNodes>
      <leafValues>
        3.3213624358177185e-01 -5.7991385459899902e-02</leafValues></_>
    <_>
      <internalNodes>
        0 -1 120389 2.6728378608822823e-02</internalNodes>
      <leafValues>
        2.8695261105895042e-02 -7.0382475852966309e-01</leafValues></_>
    <_>
      <internalNodes>
        0 -1 48937 1.9826812669634819e-02</internalNodes>
      <leafValues>
        2.9382061213254929e-02 -6.0205078125000000e-01</leafValues></_>
    <_>
      <internalNodes>
        0 -1 53352 -3.0099535360932350e-03</internalNodes>
      <leafValues>
        -2.2473482787609100e-01 8.9794367551803589e-02</leafValues></_>
    <_>
      <internalNodes>
        0 -1 27248 -1.0190986096858978e-02</internalNodes>
      <leafValues>
        3.1704637408256531e-01 -6.1299461871385574e-02</leafValues></_>
    <_>
      <internalNodes>
        0 -1 43349 8.5941143333911896e-03</internalNodes>
      <leafValues>
        -3.0830979347229004e-02 7.0895898342132568e-01</leafValues></_>
    <_>
      <internalNodes>
        0 -1 45808 -7.0258988998830318e-03</internalNodes>
      <leafValues>
        -2.0984697341918945e-01 9.4410978257656097e-02</leafValues></_>
    <_>
      <internalNodes>
        0 -1 54157 9.6463281661272049e-03</internalNodes>
      <leafValues>
        8.8797658681869507e-02 -2.8189760446548462e-01</leafValues></_>
    <_>
      <internalNodes>
        0 -1 8365 9.0855229645967484e-03</internalNodes>
      <leafValues>
        -8.2321032881736755e-02 2.7352374792098999e-01</leafValues></_>
    <_>
      <internalNodes>
        0 -1 78662 2.1730531007051468e-02</internalNodes>
      <leafValues>
        4.2033568024635315e-02 -4.5133689045906067e-01</leafValues></_>
    <_>
      <internalNodes>
        0 -1 37664 -1.6559697687625885e-02</internalNodes>
      <leafValues>
        5.4316693544387817e-01 -3.7449523806571960e-02</leafValues></_>
    <_>
      <internalNodes>
        0 -1 104079 3.6844108253717422e-03</internalNodes>
      <leafValues>
        -6.3006483018398285e-02 2.9856052994728088e-01</leafValues></_>
    <_>
      <internalNodes>
        0 -1 100664 -1.4405969530344009e-02</internalNodes>
      <leafValues>
        -2.4846228957176208e-01 8.3479203283786774e-02</leafValues></_>
    <_>
      <internalNodes>
        0 -1 79840 8.1140533089637756e-02</internalNodes>
      <leafValues>
        3.6662362515926361e-02 -5.9946954250335693e-01</leafValues></_>
    <_>
      <internalNodes>
        0 -1 119594 -1.0450284928083420e-02</internalNodes>
      <leafValues>
        -4.0402686595916748e-01 5.1878113299608231e-02</leafValues></_>
    <_>
      <internalNodes>
        0 -1 114189 -1.5472274273633957e-02</internalNodes>
      <leafValues>
        3.0866613984107971e-01 -6.9864697754383087e-02</leafValues></_>
    <_>
      <internalNodes>
        0 -1 123196 1.9349940121173859e-02</internalNodes>
      <leafValues>
        -4.5371275395154953e-02 4.0380412340164185e-01</leafValues></_>
    <_>
      <internalNodes>
        0 -1 70260 -3.0353679321706295e-03</internalNodes>
      <leafValues>
        2.5423291325569153e-01 -7.3631115257740021e-02</leafValues></_>
    <_>
      <internalNodes>
        0 -1 31460 1.3928683474659920e-02</internalNodes>
      <leafValues>
        -4.5774906873703003e-02 4.0386331081390381e-01</leafValues></_>
    <_>
      <internalNodes>
        0 -1 6976 9.0231478214263916e-02</internalNodes>
      <leafValues>
        3.2068010419607162e-02 -7.1885192394256592e-01</leafValues></_>
    <_>
      <internalNodes>
        0 -1 93846 1.4330395497381687e-02</internalNodes>
      <leafValues>
        4.5038294047117233e-02 -4.1950500011444092e-01</leafValues></_>
    <_>
      <internalNodes>
        0 -1 937 -6.5834105014801025e-02</internalNodes>
      <leafValues>
        3.2318255305290222e-01 -6.9032251834869385e-02</leafValues></_>
    <_>
      <internalNodes>
        0 -1 100885 -4.6872533857822418e-02</internalNodes>
      <leafValues>
        1.9973300397396088e-01 -1.0058473795652390e-01</leafValues></_>
    <_>
      <internalNodes>
        0 -1 28303 3.8623601198196411e-02</internalNodes>
      <leafValues>
        -9.5300540328025818e-02 2.0918828248977661e-01</leafValues></_>
    <_>
      <internalNodes>
        0 -1 8258 -1.3730600476264954e-01</internalNodes>
      <leafValues>
        -7.4871724843978882e-01 3.9785992354154587e-02</leafValues></_>
    <_>
      <internalNodes>
        0 -1 93845 5.3582470864057541e-02</internalNodes>
      <leafValues>
        2.5989474728703499e-02 -5.8850997686386108e-01</leafValues></_>
    <_>
      <internalNodes>
        0 -1 123650 4.5134909451007843e-02</internalNodes>
      <leafValues>
        -3.1677514314651489e-02 6.0402262210845947e-01</leafValues></_>
    <_>
      <internalNodes>
        0 -1 87456 3.3656321465969086e-02</internalNodes>
      <leafValues>
        -2.6239473372697830e-02 6.6977483034133911e-01</leafValues></_>
    <_>
      <internalNodes>
        0 -1 76817 2.9781308025121689e-02</internalNodes>
      <leafValues>
        -5.3444214165210724e-02 3.4100499749183655e-01</leafValues></_>
    <_>
      <internalNodes>
        0 -1 6663 -4.0520191192626953e-02</internalNodes>
      <leafValues>
        -4.4417184591293335e-01 4.2970411479473114e-02</leafValues></_>
    <_>
      <internalNodes>
        0 -1 30643 1.8189355032518506e-03</internalNodes>
      <leafValues>
        -1.0342194139957428e-01 1.9402828812599182e-01</leafValues></_>
    <_>
      <internalNodes>
        0 -1 5818 3.7902534008026123e-02</internalNodes>
      <leafValues>
        7.4866950511932373e-02 -2.5866803526878357e-01</leafValues></_>
    <_>
      <internalNodes>
        0 -1 59561 4.7601144760847092e-03</internalNodes>
      <leafValues>
        -6.8091429769992828e-02 3.0604314804077148e-01</leafValues></_>
    <_>
      <internalNodes>
        0 -1 121334 6.4866524189710617e-03</internalNodes>
      <leafValues>
        7.9777739942073822e-02 -2.8441771864891052e-01</leafValues></_>
    <_>
      <internalNodes>
        0 -1 66428 -8.6382741574198008e-04</internalNodes>
      <leafValues>
        -1.7429180443286896e-01 1.1602132022380829e-01</leafValues></_>
    <_>
      <internalNodes>
        0 -1 18533 -1.1986924335360527e-02</internalNodes>
      <leafValues>
        6.0850387811660767e-01 -3.5588450729846954e-02</leafValues></_>
    <_>
      <internalNodes>
        0 -1 47712 5.3437754511833191e-02</internalNodes>
      <leafValues>
        -3.3976923674345016e-02 5.7620286941528320e-01</leafValues></_>
    <_>
      <internalNodes>
        0 -1 106536 5.4355605971068144e-04</internalNodes>
      <leafValues>
        1.0899288207292557e-01 -2.1099629998207092e-01</leafValues></_>
    <_>
      <internalNodes>
        0 -1 111967 6.3601866364479065e-02</internalNodes>
      <leafValues>
        5.5039547383785248e-02 -4.1229888796806335e-01</leafValues></_>
    <_>
      <internalNodes>
        0 -1 111697 1.1561742576304823e-04</internalNodes>
      <leafValues>
        1.3298302888870239e-01 -1.6740615665912628e-01</leafValues></_>
    <_>
      <internalNodes>
        0 -1 115674 3.6338485777378082e-02</internalNodes>
      <leafValues>
        -3.9762470871210098e-02 5.7279253005981445e-01</leafValues></_>
    <_>
      <internalNodes>
        0 -1 2029 -1.2659586966037750e-02</internalNodes>
      <leafValues>
        2.0031791925430298e-01 -1.0084379464387894e-01</leafValues></_>
    <_>
      <internalNodes>
        0 -1 22888 -4.2263912037014961e-03</internalNodes>
      <leafValues>
        3.0251792073249817e-01 -6.9235444068908691e-02</leafValues></_>
    <_>
      <internalNodes>
        0 -1 5460 -1.8480584025382996e-01</internalNodes>
      <leafValues>
        -3.9653754234313965e-01 5.6048944592475891e-02</leafValues></_>
    <_>
      <internalNodes>
        0 -1 2935 -7.1558868512511253e-03</internalNodes>
      <leafValues>
        2.6042234897613525e-01 -8.2779273390769958e-02</leafValues></_>
    <_>
      <internalNodes>
        0 -1 124227 -1.4390316791832447e-02</internalNodes>
      <leafValues>
        -7.0041620731353760e-01 3.1955409795045853e-02</leafValues></_>
    <_>
      <internalNodes>
        0 -1 123186 -4.0228813886642456e-02</internalNodes>
      <leafValues>
        -5.0662279129028320e-01 3.7619646638631821e-02</leafValues></_>
    <_>
      <internalNodes>
        0 -1 117036 -3.1035084277391434e-02</internalNodes>
      <leafValues>
        8.2255953550338745e-01 -2.9459502547979355e-02</leafValues></_>
    <_>
      <internalNodes>
        0 -1 65341 5.3559243679046631e-02</internalNodes>
      <leafValues>
        4.4671926647424698e-02 -5.9952038526535034e-01</leafValues></_>
    <_>
      <internalNodes>
        0 -1 110875 1.7297251150012016e-02</internalNodes>
      <leafValues>
        -4.4950719922780991e-02 5.5230265855789185e-01</leafValues></_>
    <_>
      <internalNodes>
        0 -1 106604 3.0062809586524963e-02</internalNodes>
      <leafValues>
        -4.6623371541500092e-02 4.2789909243583679e-01</leafValues></_>
    <_>
      <internalNodes>
        0 -1 52349 -2.7185177896171808e-03</internalNodes>
      <leafValues>
        1.9383905827999115e-01 -1.1326125264167786e-01</leafValues></_>
    <_>
      <internalNodes>
        0 -1 3623 3.6171674728393555e-02</internalNodes>
      <leafValues>
        3.5182025283575058e-02 -7.5464415550231934e-01</leafValues></_>
    <_>
      <internalNodes>
        0 -1 29604 3.7074856460094452e-02</internalNodes>
      <leafValues>
        2.6848075911402702e-02 -7.6846504211425781e-01</leafValues></_>
    <_>
      <internalNodes>
        0 -1 66197 -4.7552350908517838e-02</internalNodes>
      <leafValues>
        -6.0428696870803833e-01 3.3178951591253281e-02</leafValues></_></weakClassifiers></stage10>
</opencv_storage>
