<?xml version="1.0"?>
<opencv_storage>
<stage14>
  <maxWeakCount>62</maxWeakCount>
  <stageThreshold>-7.2652608156204224e-01</stageThreshold>
  <weakClassifiers>
    <_>
      <internalNodes>
        0 -1 90068 -9.1335754841566086e-03</internalNodes>
      <leafValues>
        -8.3333331346511841e-01 2.7493605017662048e-01</leafValues></_>
    <_>
      <internalNodes>
        0 -1 522728 2.2415360435843468e-03</internalNodes>
      <leafValues>
        -3.9863489568233490e-02 6.2097978591918945e-01</leafValues></_>
    <_>
      <internalNodes>
        0 -1 522728 2.2378743160516024e-03</internalNodes>
      <leafValues>
        8.8878232054412365e-04 -1.</leafValues></_>
    <_>
      <internalNodes>
        0 -1 522728 2.1936418488621712e-03</internalNodes>
      <leafValues>
        -1.7072858754545450e-03 8.0547899007797241e-01</leafValues></_>
    <_>
      <internalNodes>
        0 -1 660919 1.7012165859341621e-02</internalNodes>
      <leafValues>
        -1.1410036683082581e-01 3.3216708898544312e-01</leafValues></_>
    <_>
      <internalNodes>
        0 -1 522728 2.1795718930661678e-03</internalNodes>
      <leafValues>
        2.7380000799894333e-02 -1.</leafValues></_>
    <_>
      <internalNodes>
        0 -1 522728 2.1519791334867477e-03</internalNodes>
      <leafValues>
        -6.2391080427914858e-04 8.7794548273086548e-01</leafValues></_>
    <_>
      <internalNodes>
        0 -1 401108 -7.6567777432501316e-04</internalNodes>
      <leafValues>
        3.8858476281166077e-01 -5.2428953349590302e-02</leafValues></_>
    <_>
      <internalNodes>
        0 -1 401108 4.9686885904520750e-04</internalNodes>
      <leafValues>
        -1.2451672554016113e-01 2.7533432841300964e-01</leafValues></_>
    <_>
      <internalNodes>
        0 -1 646616 -7.6709035784006119e-04</internalNodes>
      <leafValues>
        2.0505020022392273e-01 -1.7312675714492798e-01</leafValues></_>
    <_>
      <internalNodes>
        0 -1 652752 -2.4331046734005213e-03</internalNodes>
      <leafValues>
        3.5758587718009949e-01 -6.4609959721565247e-02</leafValues></_>
    <_>
      <internalNodes>
        0 -1 57582 -1.8685418367385864e-01</internalNodes>
      <leafValues>
        4.9068319797515869e-01 -6.4431481063365936e-02</leafValues></_>
    <_>
      <internalNodes>
        0 -1 385878 -1.6914315521717072e-02</internalNodes>
      <leafValues>
        3.7912651896476746e-01 -8.1748209893703461e-02</leafValues></_>
    <_>
      <internalNodes>
        0 -1 451555 -7.2543468559160829e-04</internalNodes>
      <leafValues>
        3.1075942516326904e-01 -8.9203976094722748e-02</leafValues></_>
    <_>
      <internalNodes>
        0 -1 409148 -1.1093854904174805e-02</internalNodes>
      <leafValues>
        4.1404995322227478e-01 -6.1661597341299057e-02</leafValues></_>
    <_>
      <internalNodes>
        0 -1 628034 3.2766726799309254e-03</internalNodes>
      <leafValues>
        -6.9417536258697510e-02 3.7323907017707825e-01</leafValues></_>
    <_>
      <internalNodes>
        0 -1 677345 2.1234342057141475e-05</internalNodes>
      <leafValues>
        1.7530997097492218e-01 -1.6294626891613007e-01</leafValues></_>
    <_>
      <internalNodes>
        0 -1 464155 7.0424154400825500e-03</internalNodes>
      <leafValues>
        -5.6119013577699661e-02 4.8900696635246277e-01</leafValues></_>
    <_>
      <internalNodes>
        0 -1 601907 -9.4514607917517424e-04</internalNodes>
      <leafValues>
        3.9395838975906372e-01 -7.2893656790256500e-02</leafValues></_>
    <_>
      <internalNodes>
        0 -1 246376 -1.8065014854073524e-02</internalNodes>
      <leafValues>
        4.7189402580261230e-01 -5.8295976370573044e-02</leafValues></_>
    <_>
      <internalNodes>
        0 -1 678661 -1.0434733703732491e-03</internalNodes>
      <leafValues>
        -3.9248406887054443e-01 7.9303890466690063e-02</leafValues></_>
    <_>
      <internalNodes>
        0 -1 329118 -1.0286311805248260e-01</internalNodes>
      <leafValues>
        -4.2353433370590210e-01 6.4837135374546051e-02</leafValues></_>
    <_>
      <internalNodes>
        0 -1 451029 4.1061218827962875e-02</internalNodes>
      <leafValues>
        5.0344254821538925e-02 -5.5334746837615967e-01</leafValues></_>
    <_>
      <internalNodes>
        0 -1 659025 6.1159022152423859e-04</internalNodes>
      <leafValues>
        -8.3482496440410614e-02 3.2706063985824585e-01</leafValues></_>
    <_>
      <internalNodes>
        0 -1 261874 9.9286914337426424e-04</internalNodes>
      <leafValues>
        7.7147178351879120e-02 -3.6074969172477722e-01</leafValues></_>
    <_>
      <internalNodes>
        0 -1 296252 3.2910420559346676e-03</internalNodes>
      <leafValues>
        -3.9239678531885147e-02 6.7543762922286987e-01</leafValues></_>
    <_>
      <internalNodes>
        0 -1 563977 -4.8474158393219113e-04</internalNodes>
      <leafValues>
        2.6830777525901794e-01 -1.0209749639034271e-01</leafValues></_>
    <_>
      <internalNodes>
        0 -1 517353 9.0976906940340996e-03</internalNodes>
      <leafValues>
        4.9024514853954315e-02 -6.3771647214889526e-01</leafValues></_>
    <_>
      <internalNodes>
        0 -1 452751 -1.7885097768157721e-03</internalNodes>
      <leafValues>
        2.8885528445243835e-01 -1.1573693901300430e-01</leafValues></_>
    <_>
      <internalNodes>
        0 -1 74589 2.9561881092377007e-04</internalNodes>
      <leafValues>
        7.3502600193023682e-02 -4.1089344024658203e-01</leafValues></_>
    <_>
      <internalNodes>
        0 -1 624080 3.6795833148062229e-04</internalNodes>
      <leafValues>
        -1.4102660119533539e-01 2.2658134996891022e-01</leafValues></_>
    <_>
      <internalNodes>
        0 -1 676351 -4.8207910731434822e-03</internalNodes>
      <leafValues>
        4.0390989184379578e-01 -8.2625024020671844e-02</leafValues></_>
    <_>
      <internalNodes>
        0 -1 228798 -7.1255508810281754e-03</internalNodes>
      <leafValues>
        -6.8312782049179077e-01 4.8254534602165222e-02</leafValues></_>
    <_>
      <internalNodes>
        0 -1 103452 7.0482859155163169e-04</internalNodes>
      <leafValues>
        -1.3878923654556274e-01 2.1643602848052979e-01</leafValues></_>
    <_>
      <internalNodes>
        0 -1 367082 -5.1525272428989410e-02</internalNodes>
      <leafValues>
        5.7364952564239502e-01 -4.5172099024057388e-02</leafValues></_>
    <_>
      <internalNodes>
        0 -1 578559 2.0125629089307040e-04</internalNodes>
      <leafValues>
        -1.3693362474441528e-01 2.1294559538364410e-01</leafValues></_>
    <_>
      <internalNodes>
        0 -1 150229 6.7455121316015720e-03</internalNodes>
      <leafValues>
        -5.0290960818529129e-02 6.0809564590454102e-01</leafValues></_>
    <_>
      <internalNodes>
        0 -1 682966 -1.3140056980773807e-03</internalNodes>
      <leafValues>
        -3.5400736331939697e-01 9.3429401516914368e-02</leafValues></_>
    <_>
      <internalNodes>
        0 -1 590193 -2.8903612401336432e-03</internalNodes>
      <leafValues>
        3.7371042370796204e-01 -8.1820420920848846e-02</leafValues></_>
    <_>
      <internalNodes>
        0 -1 474790 4.4058667845092714e-04</internalNodes>
      <leafValues>
        -1.0343190282583237e-01 2.8806519508361816e-01</leafValues></_>
    <_>
      <internalNodes>
        0 -1 538265 2.8136130422353745e-03</internalNodes>
      <leafValues>
        5.9818428009748459e-02 -4.9682930111885071e-01</leafValues></_>
    <_>
      <internalNodes>
        0 -1 537039 -1.0504322126507759e-02</internalNodes>
      <leafValues>
        -3.0056929588317871e-01 9.6670247614383698e-02</leafValues></_>
    <_>
      <internalNodes>
        0 -1 97841 -3.3764252439141273e-03</internalNodes>
      <leafValues>
        -5.0411146879196167e-01 6.1696909368038177e-02</leafValues></_>
    <_>
      <internalNodes>
        0 -1 39817 -3.2125110737979412e-04</internalNodes>
      <leafValues>
        1.7425192892551422e-01 -1.5902189910411835e-01</leafValues></_>
    <_>
      <internalNodes>
        0 -1 535405 -1.8164105131290853e-04</internalNodes>
      <leafValues>
        2.3578198254108429e-01 -1.2848037481307983e-01</leafValues></_>
    <_>
      <internalNodes>
        0 -1 236330 -2.4681277573108673e-02</internalNodes>
      <leafValues>
        4.1788244247436523e-01 -6.9394975900650024e-02</leafValues></_>
    <_>
      <internalNodes>
        0 -1 477684 9.3772128224372864e-02</internalNodes>
      <leafValues>
        3.5007625818252563e-02 -9.3327331542968750e-01</leafValues></_>
    <_>
      <internalNodes>
        0 -1 121856 3.9316527545452118e-02</internalNodes>
      <leafValues>
        -9.4826273620128632e-02 3.6616298556327820e-01</leafValues></_>
    <_>
      <internalNodes>
        0 -1 499462 4.3526483932510018e-04</internalNodes>
      <leafValues>
        -1.4208045601844788e-01 2.2235798835754395e-01</leafValues></_>
    <_>
      <internalNodes>
        0 -1 656639 -7.2454131441190839e-04</internalNodes>
      <leafValues>
        2.3222835361957550e-01 -1.3259802758693695e-01</leafValues></_>
    <_>
      <internalNodes>
        0 -1 714911 9.5662078820168972e-04</internalNodes>
      <leafValues>
        1.1903453618288040e-01 -2.6516938209533691e-01</leafValues></_>
    <_>
      <internalNodes>
        0 -1 518990 -1.2818174436688423e-03</internalNodes>
      <leafValues>
        5.1349234580993652e-01 -5.9617929160594940e-02</leafValues></_>
    <_>
      <internalNodes>
        0 -1 636118 1.1842738837003708e-02</internalNodes>
      <leafValues>
        -7.6235078275203705e-02 3.7148362398147583e-01</leafValues></_>
    <_>
      <internalNodes>
        0 -1 545173 1.0643629357218742e-03</internalNodes>
      <leafValues>
        -1.6252601146697998e-01 2.0560467243194580e-01</leafValues></_>
    <_>
      <internalNodes>
        0 -1 695726 1.0164707782678306e-04</internalNodes>
      <leafValues>
        -1.3000723719596863e-01 2.4646699428558350e-01</leafValues></_>
    <_>
      <internalNodes>
        0 -1 257856 -5.0370595417916775e-03</internalNodes>
      <leafValues>
        -5.2447515726089478e-01 5.6250564754009247e-02</leafValues></_>
    <_>
      <internalNodes>
        0 -1 489755 -4.4602137058973312e-03</internalNodes>
      <leafValues>
        3.4422793984413147e-01 -8.9690588414669037e-02</leafValues></_>
    <_>
      <internalNodes>
        0 -1 6316 -5.5289275944232941e-02</internalNodes>
      <leafValues>
        4.3008211255073547e-01 -6.5854057669639587e-02</leafValues></_>
    <_>
      <internalNodes>
        0 -1 548738 -7.4101553764194250e-04</internalNodes>
      <leafValues>
        3.3900040388107300e-01 -8.4787227213382721e-02</leafValues></_>
    <_>
      <internalNodes>
        0 -1 704623 1.4468957670032978e-03</internalNodes>
      <leafValues>
        8.9040145277976990e-02 -3.3988240361213684e-01</leafValues></_>
    <_>
      <internalNodes>
        0 -1 184481 -3.1176138669252396e-02</internalNodes>
      <leafValues>
        -5.1590907573699951e-01 4.9650702625513077e-02</leafValues></_>
    <_>
      <internalNodes>
        0 -1 237969 1.6820494085550308e-02</internalNodes>
      <leafValues>
        -1.0326354205608368e-01 2.9090377688407898e-01</leafValues></_></weakClassifiers></stage14>
</opencv_storage>
