<?xml version="1.0"?>
<opencv_storage>
<stage13>
  <maxWeakCount>71</maxWeakCount>
  <stageThreshold>-5.8075827360153198e-01</stageThreshold>
  <weakClassifiers>
    <_>
      <internalNodes>
        0 -1 123649 -2.0618584007024765e-02</internalNodes>
      <leafValues>
        5.7575756311416626e-01 1.9503286480903625e-01</leafValues></_>
    <_>
      <internalNodes>
        0 -1 124918 1.1063816491514444e-03</internalNodes>
      <leafValues>
        9.3958251178264618e-02 -2.5301840901374817e-01</leafValues></_>
    <_>
      <internalNodes>
        0 -1 93588 -4.9896642565727234e-02</internalNodes>
      <leafValues>
        7.0325750112533569e-01 -8.1946976482868195e-02</leafValues></_>
    <_>
      <internalNodes>
        0 -1 79991 1.8649310804903507e-03</internalNodes>
      <leafValues>
        -7.3345296084880829e-02 2.1615001559257507e-01</leafValues></_>
    <_>
      <internalNodes>
        0 -1 90080 2.0651184022426605e-02</internalNodes>
      <leafValues>
        -6.5004169940948486e-02 3.2657754421234131e-01</leafValues></_>
    <_>
      <internalNodes>
        0 -1 21186 -3.1046252697706223e-03</internalNodes>
      <leafValues>
        2.4950532615184784e-01 -9.1240875422954559e-02</leafValues></_>
    <_>
      <internalNodes>
        0 -1 115198 -5.1239527761936188e-02</internalNodes>
      <leafValues>
        4.2026522755622864e-01 -4.5992523431777954e-02</leafValues></_>
    <_>
      <internalNodes>
        0 -1 9083 -1.9921418279409409e-02</internalNodes>
      <leafValues>
        2.7597022056579590e-01 -5.9929817914962769e-02</leafValues></_>
    <_>
      <internalNodes>
        0 -1 125194 7.6227597892284393e-03</internalNodes>
      <leafValues>
        3.0603474006056786e-02 -5.0373548269271851e-01</leafValues></_>
    <_>
      <internalNodes>
        0 -1 36223 -3.8298207800835371e-03</internalNodes>
      <leafValues>
        2.1170556545257568e-01 -8.5846483707427979e-02</leafValues></_>
    <_>
      <internalNodes>
        0 -1 93506 1.5009720809757710e-03</internalNodes>
      <leafValues>
        8.7581433355808258e-02 -2.0459426939487457e-01</leafValues></_>
    <_>
      <internalNodes>
        0 -1 124038 1.1268604546785355e-02</internalNodes>
      <leafValues>
        -3.1554292887449265e-02 5.3482800722122192e-01</leafValues></_>
    <_>
      <internalNodes>
        0 -1 98844 -2.2716179490089417e-02</internalNodes>
      <leafValues>
        5.3527724742889404e-01 -2.7653090655803680e-02</leafValues></_>
    <_>
      <internalNodes>
        0 -1 115072 7.8115807846188545e-03</internalNodes>
      <leafValues>
        -2.8843058273196220e-02 5.7597380876541138e-01</leafValues></_>
    <_>
      <internalNodes>
        0 -1 123552 -1.9466746598482132e-03</internalNodes>
      <leafValues>
        -3.2616922259330750e-01 5.7104405015707016e-02</leafValues></_>
    <_>
      <internalNodes>
        0 -1 79843 3.3046058379113674e-03</internalNodes>
      <leafValues>
        -8.8835716247558594e-02 1.9988352060317993e-01</leafValues></_>
    <_>
      <internalNodes>
        0 -1 63961 -2.2004440426826477e-02</internalNodes>
      <leafValues>
        6.2174010276794434e-01 -2.6388272643089294e-02</leafValues></_>
    <_>
      <internalNodes>
        0 -1 119837 -6.9222589954733849e-03</internalNodes>
      <leafValues>
        4.0330439805984497e-01 -4.5505348592996597e-02</leafValues></_>
    <_>
      <internalNodes>
        0 -1 7575 -6.9521129131317139e-02</internalNodes>
      <leafValues>
        -8.2801830768585205e-01 2.4928003549575806e-02</leafValues></_>
    <_>
      <internalNodes>
        0 -1 123348 1.5836849343031645e-04</internalNodes>
      <leafValues>
        1.1650805920362473e-01 -1.4713029563426971e-01</leafValues></_>
    <_>
      <internalNodes>
        0 -1 59997 -3.8779713213443756e-02</internalNodes>
      <leafValues>
        -3.6663398146629333e-01 5.2900146692991257e-02</leafValues></_>
    <_>
      <internalNodes>
        0 -1 62751 -5.9957221150398254e-02</internalNodes>
      <leafValues>
        8.3616071939468384e-01 -2.5842936709523201e-02</leafValues></_>
    <_>
      <internalNodes>
        0 -1 46926 1.0820278525352478e-01</internalNodes>
      <leafValues>
        4.2797930538654327e-02 -5.0455915927886963e-01</leafValues></_>
    <_>
      <internalNodes>
        0 -1 37789 1.9244164228439331e-02</internalNodes>
      <leafValues>
        3.0398834496736526e-02 -5.7424080371856689e-01</leafValues></_>
    <_>
      <internalNodes>
        0 -1 43319 1.8041286617517471e-02</internalNodes>
      <leafValues>
        5.0477050244808197e-02 -4.0999495983123779e-01</leafValues></_>
    <_>
      <internalNodes>
        0 -1 40798 -5.9081830084323883e-02</internalNodes>
      <leafValues>
        8.4454894065856934e-01 -2.5767687708139420e-02</leafValues></_>
    <_>
      <internalNodes>
        0 -1 87297 1.3396015763282776e-01</internalNodes>
      <leafValues>
        4.5446954667568207e-02 -5.5617332458496094e-01</leafValues></_>
    <_>
      <internalNodes>
        0 -1 11206 -1.1539166420698166e-01</internalNodes>
      <leafValues>
        6.7563211917877197e-01 -3.3529806882143021e-02</leafValues></_>
    <_>
      <internalNodes>
        0 -1 110693 -1.4950182288885117e-02</internalNodes>
      <leafValues>
        2.4388195574283600e-01 -7.8451298177242279e-02</leafValues></_>
    <_>
      <internalNodes>
        0 -1 99491 3.9256289601325989e-03</internalNodes>
      <leafValues>
        -8.3278506994247437e-02 2.4165569245815277e-01</leafValues></_>
    <_>
      <internalNodes>
        0 -1 124636 -8.3063507918268442e-04</internalNodes>
      <leafValues>
        -1.5650790929794312e-01 1.3145442306995392e-01</leafValues></_>
    <_>
      <internalNodes>
        0 -1 25482 -2.0067957229912281e-03</internalNodes>
      <leafValues>
        2.7111610770225525e-01 -7.2853624820709229e-02</leafValues></_>
    <_>
      <internalNodes>
        0 -1 116064 -1.3213173486292362e-02</internalNodes>
      <leafValues>
        -2.0175874233245850e-01 1.0205506533384323e-01</leafValues></_>
    <_>
      <internalNodes>
        0 -1 100158 -6.5662875771522522e-02</internalNodes>
      <leafValues>
        -6.8753969669342041e-01 3.2339967787265778e-02</leafValues></_>
    <_>
      <internalNodes>
        0 -1 77829 5.5809468030929565e-03</internalNodes>
      <leafValues>
        -5.5354811251163483e-02 3.6390298604965210e-01</leafValues></_>
    <_>
      <internalNodes>
        0 -1 122312 -1.1774759739637375e-02</internalNodes>
      <leafValues>
        5.5557101964950562e-01 -3.1369753181934357e-02</leafValues></_>
    <_>
      <internalNodes>
        0 -1 6358 6.0483196284621954e-04</internalNodes>
      <leafValues>
        1.0353002697229385e-01 -1.9014601409435272e-01</leafValues></_>
    <_>
      <internalNodes>
        0 -1 45660 -1.6333162784576416e-02</internalNodes>
      <leafValues>
        4.2381972074508667e-01 -4.8391375690698624e-02</leafValues></_>
    <_>
      <internalNodes>
        0 -1 8639 -1.1115076020359993e-02</internalNodes>
      <leafValues>
        3.6598759889602661e-01 -5.5523637682199478e-02</leafValues></_>
    <_>
      <internalNodes>
        0 -1 76302 -1.7248293384909630e-02</internalNodes>
      <leafValues>
        -6.7018556594848633e-01 3.5322431474924088e-02</leafValues></_>
    <_>
      <internalNodes>
        0 -1 61804 1.6804452985525131e-02</internalNodes>
      <leafValues>
        3.6665942519903183e-02 -4.5329070091247559e-01</leafValues></_>
    <_>
      <internalNodes>
        0 -1 56024 -4.4896014034748077e-02</internalNodes>
      <leafValues>
        -7.6807677745819092e-01 2.2089952602982521e-02</leafValues></_>
    <_>
      <internalNodes>
        0 -1 88429 -1.3702930882573128e-02</internalNodes>
      <leafValues>
        3.0707228183746338e-01 -6.0910571366548538e-02</leafValues></_>
    <_>
      <internalNodes>
        0 -1 29139 4.0315754711627960e-02</internalNodes>
      <leafValues>
        3.5293851047754288e-02 -6.0427588224411011e-01</leafValues></_>
    <_>
      <internalNodes>
        0 -1 111585 1.0138639807701111e-01</internalNodes>
      <leafValues>
        3.1795609742403030e-02 -5.8860039710998535e-01</leafValues></_>
    <_>
      <internalNodes>
        0 -1 50985 -2.2519224882125854e-01</internalNodes>
      <leafValues>
        -3.8829335570335388e-01 5.3532332181930542e-02</leafValues></_>
    <_>
      <internalNodes>
        0 -1 30717 3.8371165283024311e-03</internalNodes>
      <leafValues>
        5.7279918342828751e-02 -3.2478627562522888e-01</leafValues></_>
    <_>
      <internalNodes>
        0 -1 22625 1.6965109109878540e-01</internalNodes>
      <leafValues>
        -4.2348153889179230e-02 4.9836617708206177e-01</leafValues></_>
    <_>
      <internalNodes>
        0 -1 750 -2.6603808999061584e-01</internalNodes>
      <leafValues>
        -7.5410032272338867e-01 3.1076295301318169e-02</leafValues></_>
    <_>
      <internalNodes>
        0 -1 26993 1.0427922941744328e-02</internalNodes>
      <leafValues>
        -2.9538908973336220e-02 8.0249333381652832e-01</leafValues></_>
    <_>
      <internalNodes>
        0 -1 85093 -2.7620144188404083e-02</internalNodes>
      <leafValues>
        -9.6227049827575684e-01 2.4853961542248726e-02</leafValues></_>
    <_>
      <internalNodes>
        0 -1 106979 -6.5950015559792519e-03</internalNodes>
      <leafValues>
        7.6176518201828003e-01 -2.7960244566202164e-02</leafValues></_>
    <_>
      <internalNodes>
        0 -1 96118 -4.6386804431676865e-02</internalNodes>
      <leafValues>
        -7.3643493652343750e-01 3.2002683728933334e-02</leafValues></_>
    <_>
      <internalNodes>
        0 -1 119820 -5.3047772962599993e-04</internalNodes>
      <leafValues>
        -1.6642786562442780e-01 1.1359013617038727e-01</leafValues></_>
    <_>
      <internalNodes>
        0 -1 108953 1.6577973961830139e-02</internalNodes>
      <leafValues>
        -8.9163593947887421e-02 2.4044442176818848e-01</leafValues></_>
    <_>
      <internalNodes>
        0 -1 77083 -8.2640610635280609e-02</internalNodes>
      <leafValues>
        -8.4777730703353882e-01 2.7439698576927185e-02</leafValues></_>
    <_>
      <internalNodes>
        0 -1 92766 6.7412838339805603e-02</internalNodes>
      <leafValues>
        -2.7709808200597763e-02 8.8822656869888306e-01</leafValues></_>
    <_>
      <internalNodes>
        0 -1 70340 2.3770644329488277e-03</internalNodes>
      <leafValues>
        -1.0442640632390976e-01 1.9063691794872284e-01</leafValues></_>
    <_>
      <internalNodes>
        0 -1 16941 8.4972009062767029e-02</internalNodes>
      <leafValues>
        -4.0824797004461288e-02 5.1754099130630493e-01</leafValues></_>
    <_>
      <internalNodes>
        0 -1 8761 -5.9134059119969606e-04</internalNodes>
      <leafValues>
        1.7462451756000519e-01 -1.1338228732347488e-01</leafValues></_>
    <_>
      <internalNodes>
        0 -1 71961 -4.4835973531007767e-03</internalNodes>
      <leafValues>
        5.5461907386779785e-01 -3.8529157638549805e-02</leafValues></_>
    <_>
      <internalNodes>
        0 -1 81380 -2.0151264965534210e-02</internalNodes>
      <leafValues>
        5.0514322519302368e-01 -3.7108052521944046e-02</leafValues></_>
    <_>
      <internalNodes>
        0 -1 91870 -7.1017919108271599e-03</internalNodes>
      <leafValues>
        4.7902983427047729e-01 -4.1365824639797211e-02</leafValues></_>
    <_>
      <internalNodes>
        0 -1 124883 -1.3833232223987579e-03</internalNodes>
      <leafValues>
        -2.2032928466796875e-01 9.4197034835815430e-02</leafValues></_>
    <_>
      <internalNodes>
        0 -1 97898 -1.8528662621974945e-02</internalNodes>
      <leafValues>
        -5.4509574174880981e-01 4.1633751243352890e-02</leafValues></_>
    <_>
      <internalNodes>
        0 -1 10252 -1.0779954493045807e-02</internalNodes>
      <leafValues>
        2.8414049744606018e-01 -7.6439514756202698e-02</leafValues></_>
    <_>
      <internalNodes>
        0 -1 113427 2.7056694962084293e-03</internalNodes>
      <leafValues>
        -6.1752788722515106e-02 3.0778673291206360e-01</leafValues></_>
    <_>
      <internalNodes>
        0 -1 118968 1.7530141398310661e-02</internalNodes>
      <leafValues>
        -7.8409895300865173e-02 2.3707680404186249e-01</leafValues></_>
    <_>
      <internalNodes>
        0 -1 3888 3.7073737476021051e-03</internalNodes>
      <leafValues>
        -1.2971000373363495e-01 1.6300977766513824e-01</leafValues></_>
    <_>
      <internalNodes>
        0 -1 123748 1.3503061607480049e-02</internalNodes>
      <leafValues>
        8.9810326695442200e-02 -2.3891492187976837e-01</leafValues></_>
    <_>
      <internalNodes>
        0 -1 110907 -2.5925483554601669e-02</internalNodes>
      <leafValues>
        -4.1204357147216797e-01 5.2481964230537415e-02</leafValues></_></weakClassifiers></stage13>
</opencv_storage>
