<?xml version="1.0"?>
<opencv_storage>
<stage6>
  <maxWeakCount>61</maxWeakCount>
  <stageThreshold>-7.2058135271072388e-01</stageThreshold>
  <weakClassifiers>
    <_>
      <internalNodes>
        0 -1 12376 2.1236234903335571e-01</internalNodes>
      <leafValues>
        3.1349781155586243e-01 -1.4414414763450623e-01</leafValues></_>
    <_>
      <internalNodes>
        0 -1 10851 -1.7269155010581017e-02</internalNodes>
      <leafValues>
        3.3774414658546448e-01 -7.0601068437099457e-02</leafValues></_>
    <_>
      <internalNodes>
        0 -1 76850 -2.5863545015454292e-03</internalNodes>
      <leafValues>
        3.4201455116271973e-01 -7.7419981360435486e-02</leafValues></_>
    <_>
      <internalNodes>
        0 -1 102047 -2.4639801122248173e-03</internalNodes>
      <leafValues>
        3.8215574622154236e-01 -7.8989915549755096e-02</leafValues></_>
    <_>
      <internalNodes>
        0 -1 83686 2.3502325639128685e-03</internalNodes>
      <leafValues>
        -1.0323291271924973e-01 3.0048522353172302e-01</leafValues></_>
    <_>
      <internalNodes>
        0 -1 46226 -1.3592221774160862e-02</internalNodes>
      <leafValues>
        2.4892218410968781e-01 -1.0408508777618408e-01</leafValues></_>
    <_>
      <internalNodes>
        0 -1 79329 9.5284320414066315e-03</internalNodes>
      <leafValues>
        -6.9408059120178223e-02 4.0116679668426514e-01</leafValues></_>
    <_>
      <internalNodes>
        0 -1 119145 4.3619833886623383e-03</internalNodes>
      <leafValues>
        -7.3668688535690308e-02 3.4562569856643677e-01</leafValues></_>
    <_>
      <internalNodes>
        0 -1 122365 1.4046661555767059e-02</internalNodes>
      <leafValues>
        -8.0040723085403442e-02 3.5574367642402649e-01</leafValues></_>
    <_>
      <internalNodes>
        0 -1 123550 1.2500484008342028e-03</internalNodes>
      <leafValues>
        7.8939981758594513e-02 -3.0328446626663208e-01</leafValues></_>
    <_>
      <internalNodes>
        0 -1 78673 6.4771794714033604e-03</internalNodes>
      <leafValues>
        -5.8357823640108109e-02 4.1274720430374146e-01</leafValues></_>
    <_>
      <internalNodes>
        0 -1 101885 -2.5651833042502403e-02</internalNodes>
      <leafValues>
        3.4215262532234192e-01 -6.9376692175865173e-02</leafValues></_>
    <_>
      <internalNodes>
        0 -1 30028 -4.1023842990398407e-02</internalNodes>
      <leafValues>
        -4.6188539266586304e-01 6.1677340418100357e-02</leafValues></_>
    <_>
      <internalNodes>
        0 -1 39005 4.8645559698343277e-02</internalNodes>
      <leafValues>
        -4.5857787132263184e-02 5.8005344867706299e-01</leafValues></_>
    <_>
      <internalNodes>
        0 -1 45150 -1.1058231815695763e-02</internalNodes>
      <leafValues>
        2.2164949774742126e-01 -1.0327930748462677e-01</leafValues></_>
    <_>
      <internalNodes>
        0 -1 56388 -8.0939888954162598e-02</internalNodes>
      <leafValues>
        3.4822207689285278e-01 -7.0891514420509338e-02</leafValues></_>
    <_>
      <internalNodes>
        0 -1 83394 -5.5439107120037079e-02</internalNodes>
      <leafValues>
        -7.9874461889266968e-01 3.3099021762609482e-02</leafValues></_>
    <_>
      <internalNodes>
        0 -1 97836 -3.7504197098314762e-03</internalNodes>
      <leafValues>
        3.1394246220588684e-01 -8.3524882793426514e-02</leafValues></_>
    <_>
      <internalNodes>
        0 -1 104853 3.5079050809144974e-02</internalNodes>
      <leafValues>
        3.4353591501712799e-02 -8.4813827276229858e-01</leafValues></_>
    <_>
      <internalNodes>
        0 -1 91462 3.8369288668036461e-03</internalNodes>
      <leafValues>
        -6.8399406969547272e-02 4.1627195477485657e-01</leafValues></_>
    <_>
      <internalNodes>
        0 -1 24 1.6029803082346916e-03</internalNodes>
      <leafValues>
        -9.9750377237796783e-02 2.3903690278530121e-01</leafValues></_>
    <_>
      <internalNodes>
        0 -1 61780 -5.6283310987055302e-03</internalNodes>
      <leafValues>
        4.3698891997337341e-01 -6.4566656947135925e-02</leafValues></_>
    <_>
      <internalNodes>
        0 -1 62953 -2.8741969726979733e-03</internalNodes>
      <leafValues>
        4.4653797149658203e-01 -5.0603628158569336e-02</leafValues></_>
    <_>
      <internalNodes>
        0 -1 38167 1.0072726756334305e-02</internalNodes>
      <leafValues>
        -4.5061644166707993e-02 5.0537383556365967e-01</leafValues></_>
    <_>
      <internalNodes>
        0 -1 12583 -1.3758208602666855e-02</internalNodes>
      <leafValues>
        -7.3877733945846558e-01 3.7288386374711990e-02</leafValues></_>
    <_>
      <internalNodes>
        0 -1 21174 -6.1067282222211361e-03</internalNodes>
      <leafValues>
        7.4844944477081299e-01 -3.7006776779890060e-02</leafValues></_>
    <_>
      <internalNodes>
        0 -1 99902 -9.1034434735774994e-03</internalNodes>
      <leafValues>
        -5.7879579067230225e-01 5.1617980003356934e-02</leafValues></_>
    <_>
      <internalNodes>
        0 -1 73272 -1.2500930577516556e-02</internalNodes>
      <leafValues>
        2.8891250491142273e-01 -8.6578145623207092e-02</leafValues></_>
    <_>
      <internalNodes>
        0 -1 118221 -3.5852715373039246e-03</internalNodes>
      <leafValues>
        4.7675192356109619e-01 -5.0962507724761963e-02</leafValues></_>
    <_>
      <internalNodes>
        0 -1 103085 -1.7887845635414124e-02</internalNodes>
      <leafValues>
        -7.1784639358520508e-01 3.6741133779287338e-02</leafValues></_>
    <_>
      <internalNodes>
        0 -1 16264 -1.2704124674201012e-02</internalNodes>
      <leafValues>
        -4.8841449618339539e-01 4.5940443873405457e-02</leafValues></_>
    <_>
      <internalNodes>
        0 -1 24919 -2.0660245791077614e-03</internalNodes>
      <leafValues>
        1.9537582993507385e-01 -1.2269409000873566e-01</leafValues></_>
    <_>
      <internalNodes>
        0 -1 53335 2.1156581118702888e-02</internalNodes>
      <leafValues>
        3.5724133253097534e-02 -6.9958209991455078e-01</leafValues></_>
    <_>
      <internalNodes>
        0 -1 36964 -1.2678302824497223e-02</internalNodes>
      <leafValues>
        7.4020218849182129e-01 -3.7796527147293091e-02</leafValues></_>
    <_>
      <internalNodes>
        0 -1 124304 -4.3935701251029968e-03</internalNodes>
      <leafValues>
        5.5056375265121460e-01 -3.7803240120410919e-02</leafValues></_>
    <_>
      <internalNodes>
        0 -1 62820 1.7843490466475487e-02</internalNodes>
      <leafValues>
        4.5688778162002563e-02 -5.7620483636856079e-01</leafValues></_>
    <_>
      <internalNodes>
        0 -1 27572 -1.1279963888227940e-02</internalNodes>
      <leafValues>
        2.6331314444541931e-01 -1.1018122732639313e-01</leafValues></_>
    <_>
      <internalNodes>
        0 -1 114328 -3.6646202206611633e-03</internalNodes>
      <leafValues>
        4.4285821914672852e-01 -6.1700798571109772e-02</leafValues></_>
    <_>
      <internalNodes>
        0 -1 27549 -7.3527127504348755e-02</internalNodes>
      <leafValues>
        -5.4113459587097168e-01 4.9650166183710098e-02</leafValues></_>
    <_>
      <internalNodes>
        0 -1 99366 -5.5205419659614563e-02</internalNodes>
      <leafValues>
        -6.5051096677780151e-01 3.5667620599269867e-02</leafValues></_>
    <_>
      <internalNodes>
        0 -1 67085 4.4431416317820549e-03</internalNodes>
      <leafValues>
        -5.7553414255380630e-02 4.2573833465576172e-01</leafValues></_>
    <_>
      <internalNodes>
        0 -1 34566 -3.0167115852236748e-02</internalNodes>
      <leafValues>
        -7.1395796537399292e-01 3.8697190582752228e-02</leafValues></_>
    <_>
      <internalNodes>
        0 -1 37601 -8.0579761415719986e-03</internalNodes>
      <leafValues>
        9.0050214529037476e-01 -3.1850509345531464e-02</leafValues></_>
    <_>
      <internalNodes>
        0 -1 25577 3.5143632441759109e-02</internalNodes>
      <leafValues>
        5.3268156945705414e-02 -6.0130739212036133e-01</leafValues></_>
    <_>
      <internalNodes>
        0 -1 97 -9.8448265343904495e-03</internalNodes>
      <leafValues>
        -7.1694052219390869e-01 3.1419444829225540e-02</leafValues></_>
    <_>
      <internalNodes>
        0 -1 38480 -1.8722008913755417e-02</internalNodes>
      <leafValues>
        5.3210347890853882e-01 -5.0746001303195953e-02</leafValues></_>
    <_>
      <internalNodes>
        0 -1 26052 4.2247911915183067e-03</internalNodes>
      <leafValues>
        -4.3919946998357773e-02 5.0445854663848877e-01</leafValues></_>
    <_>
      <internalNodes>
        0 -1 57106 5.4837822914123535e-02</internalNodes>
      <leafValues>
        -3.0698178336024284e-02 6.9037199020385742e-01</leafValues></_>
    <_>
      <internalNodes>
        0 -1 29034 -2.7929015457630157e-02</internalNodes>
      <leafValues>
        3.2772651314735413e-01 -7.2514429688453674e-02</leafValues></_>
    <_>
      <internalNodes>
        0 -1 91022 3.1475932337343693e-03</internalNodes>
      <leafValues>
        -7.0678934454917908e-02 3.3931690454483032e-01</leafValues></_>
    <_>
      <internalNodes>
        0 -1 57247 -8.6873114109039307e-02</internalNodes>
      <leafValues>
        -4.6143025159835815e-01 5.6006871163845062e-02</leafValues></_>
    <_>
      <internalNodes>
        0 -1 83965 -5.6643951684236526e-03</internalNodes>
      <leafValues>
        2.0187582075595856e-01 -1.3592523336410522e-01</leafValues></_>
    <_>
      <internalNodes>
        0 -1 109349 6.1081796884536743e-03</internalNodes>
      <leafValues>
        -3.9878010749816895e-02 6.0079586505889893e-01</leafValues></_>
    <_>
      <internalNodes>
        0 -1 71686 -6.9286162033677101e-03</internalNodes>
      <leafValues>
        6.8650704622268677e-01 -2.7395682409405708e-02</leafValues></_>
    <_>
      <internalNodes>
        0 -1 100198 -1.3104496523737907e-02</internalNodes>
      <leafValues>
        2.9191997647285461e-01 -7.9427309334278107e-02</leafValues></_>
    <_>
      <internalNodes>
        0 -1 100751 1.5339285135269165e-02</internalNodes>
      <leafValues>
        6.3968092203140259e-02 -3.9118501543998718e-01</leafValues></_>
    <_>
      <internalNodes>
        0 -1 87997 -7.3286951519548893e-03</internalNodes>
      <leafValues>
        2.0307980477809906e-01 -1.3254961371421814e-01</leafValues></_>
    <_>
      <internalNodes>
        0 -1 95790 -2.3460563272237778e-02</internalNodes>
      <leafValues>
        -2.4776749312877655e-01 1.0605008155107498e-01</leafValues></_>
    <_>
      <internalNodes>
        0 -1 52586 -5.0304219126701355e-02</internalNodes>
      <leafValues>
        -5.8212280273437500e-01 4.4101960957050323e-02</leafValues></_>
    <_>
      <internalNodes>
        0 -1 103841 -5.1811616867780685e-03</internalNodes>
      <leafValues>
        2.2186647355556488e-01 -1.2231271713972092e-01</leafValues></_>
    <_>
      <internalNodes>
        0 -1 124720 -7.7993404120206833e-03</internalNodes>
      <leafValues>
        -3.6683750152587891e-01 6.3600517809391022e-02</leafValues></_></weakClassifiers></stage6>
</opencv_storage>
