<?xml version="1.0"?>
<opencv_storage>
<stage14>
  <maxWeakCount>80</maxWeakCount>
  <stageThreshold>-5.7277023792266846e-01</stageThreshold>
  <weakClassifiers>
    <_>
      <internalNodes>
        0 -1 117539 2.0191460847854614e-02</internalNodes>
      <leafValues>
        3.0071941018104553e-01 -8.5714288055896759e-02</leafValues></_>
    <_>
      <internalNodes>
        0 -1 25482 5.2822902798652649e-03</internalNodes>
      <leafValues>
        -2.7633825317025185e-02 5.8029699325561523e-01</leafValues></_>
    <_>
      <internalNodes>
        0 -1 25482 5.2136750891804695e-03</internalNodes>
      <leafValues>
        1.5238125342875719e-03 -1.</leafValues></_>
    <_>
      <internalNodes>
        0 -1 25482 5.1686568185687065e-03</internalNodes>
      <leafValues>
        -5.2738707745447755e-04 8.5025221109390259e-01</leafValues></_>
    <_>
      <internalNodes>
        0 -1 25482 5.1438920199871063e-03</internalNodes>
      <leafValues>
        9.1373611940070987e-04 -1.</leafValues></_>
    <_>
      <internalNodes>
        0 -1 25482 5.1148608326911926e-03</internalNodes>
      <leafValues>
        -1.0564477415755391e-03 8.8807374238967896e-01</leafValues></_>
    <_>
      <internalNodes>
        0 -1 93557 -8.1597380340099335e-03</internalNodes>
      <leafValues>
        3.2097774744033813e-01 -7.6721101999282837e-02</leafValues></_>
    <_>
      <internalNodes>
        0 -1 118177 -6.8434858694672585e-03</internalNodes>
      <leafValues>
        4.7159379720687866e-01 -1.3836686499416828e-02</leafValues></_>
    <_>
      <internalNodes>
        0 -1 118177 -6.7559294402599335e-03</internalNodes>
      <leafValues>
        -8.2505404949188232e-01 4.5669903047382832e-03</leafValues></_>
    <_>
      <internalNodes>
        0 -1 118177 -6.7441477440297604e-03</internalNodes>
      <leafValues>
        6.9018697738647461e-01 -6.0897663934156299e-04</leafValues></_>
    <_>
      <internalNodes>
        0 -1 68330 9.5915663987398148e-03</internalNodes>
      <leafValues>
        -7.1345791220664978e-02 2.3822630941867828e-01</leafValues></_>
    <_>
      <internalNodes>
        0 -1 28650 -4.1077304631471634e-02</internalNodes>
      <leafValues>
        4.0160453319549561e-01 -6.6395588219165802e-02</leafValues></_>
    <_>
      <internalNodes>
        0 -1 93599 -1.7137859016656876e-02</internalNodes>
      <leafValues>
        -3.6532163619995117e-01 4.6775069087743759e-02</leafValues></_>
    <_>
      <internalNodes>
        0 -1 45894 2.7527619153261185e-02</internalNodes>
      <leafValues>
        -2.7946716174483299e-02 5.0209307670593262e-01</leafValues></_>
    <_>
      <internalNodes>
        0 -1 20590 -1.4570878818631172e-02</internalNodes>
      <leafValues>
        6.3606894016265869e-01 -3.2952781766653061e-02</leafValues></_>
    <_>
      <internalNodes>
        0 -1 82114 -5.3431419655680656e-03</internalNodes>
      <leafValues>
        3.5066920518875122e-01 -4.2799733579158783e-02</leafValues></_>
    <_>
      <internalNodes>
        0 -1 20000 -1.3926878571510315e-02</internalNodes>
      <leafValues>
        1.8854598701000214e-01 -9.9937312304973602e-02</leafValues></_>
    <_>
      <internalNodes>
        0 -1 100451 1.6567923128604889e-01</internalNodes>
      <leafValues>
        -3.7654973566532135e-02 5.9973829984664917e-01</leafValues></_>
    <_>
      <internalNodes>
        0 -1 69584 3.2546866685152054e-02</internalNodes>
      <leafValues>
        -6.3536643981933594e-02 3.3306697010993958e-01</leafValues></_>
    <_>
      <internalNodes>
        0 -1 100540 -2.3059984669089317e-02</internalNodes>
      <leafValues>
        -3.2674080133438110e-01 6.2640793621540070e-02</leafValues></_>
    <_>
      <internalNodes>
        0 -1 62205 -3.1361621804535389e-03</internalNodes>
      <leafValues>
        2.6370164752006531e-01 -6.6921047866344452e-02</leafValues></_>
    <_>
      <internalNodes>
        0 -1 61342 -2.4170856922864914e-02</internalNodes>
      <leafValues>
        -6.9777399301528931e-01 2.6144186034798622e-02</leafValues></_>
    <_>
      <internalNodes>
        0 -1 10562 9.2617329210042953e-03</internalNodes>
      <leafValues>
        -7.9755574464797974e-02 2.5005573034286499e-01</leafValues></_>
    <_>
      <internalNodes>
        0 -1 117440 -2.2871217224746943e-03</internalNodes>
      <leafValues>
        1.8750341236591339e-01 -1.0989209264516830e-01</leafValues></_>
    <_>
      <internalNodes>
        0 -1 5126 1.0036697611212730e-02</internalNodes>
      <leafValues>
        -8.4936901926994324e-02 2.2502642869949341e-01</leafValues></_>
    <_>
      <internalNodes>
        0 -1 48366 -5.4240562021732330e-02</internalNodes>
      <leafValues>
        8.1388479471206665e-01 -1.3540141284465790e-02</leafValues></_>
    <_>
      <internalNodes>
        0 -1 55624 7.3618040187284350e-04</internalNodes>
      <leafValues>
        1.1549221724271774e-01 -1.6065554320812225e-01</leafValues></_>
    <_>
      <internalNodes>
        0 -1 52522 1.8271986395120621e-02</internalNodes>
      <leafValues>
        4.6620268374681473e-02 -4.6249336004257202e-01</leafValues></_>
    <_>
      <internalNodes>
        0 -1 21482 4.1143540292978287e-02</internalNodes>
      <leafValues>
        3.6650788038969040e-02 -4.4450533390045166e-01</leafValues></_>
    <_>
      <internalNodes>
        0 -1 124853 1.7455775290727615e-02</internalNodes>
      <leafValues>
        -4.2672663927078247e-02 4.6395382285118103e-01</leafValues></_>
    <_>
      <internalNodes>
        0 -1 79831 -1.0428916662931442e-02</internalNodes>
      <leafValues>
        4.1466486454010010e-01 -4.4078707695007324e-02</leafValues></_>
    <_>
      <internalNodes>
        0 -1 65038 -2.1576546132564545e-02</internalNodes>
      <leafValues>
        4.0340566635131836e-01 -4.5919913798570633e-02</leafValues></_>
    <_>
      <internalNodes>
        0 -1 123262 -4.6619283966720104e-03</internalNodes>
      <leafValues>
        2.7791589498519897e-01 -6.9820344448089600e-02</leafValues></_>
    <_>
      <internalNodes>
        0 -1 79469 4.1831899434328079e-03</internalNodes>
      <leafValues>
        -7.5526341795921326e-02 2.6600801944732666e-01</leafValues></_>
    <_>
      <internalNodes>
        0 -1 71485 -5.9818699955940247e-03</internalNodes>
      <leafValues>
        5.7424926757812500e-01 -3.2168459147214890e-02</leafValues></_>
    <_>
      <internalNodes>
        0 -1 124918 -5.4253498092293739e-04</internalNodes>
      <leafValues>
        -1.9753533601760864e-01 1.0712119936943054e-01</leafValues></_>
    <_>
      <internalNodes>
        0 -1 119604 1.4599796384572983e-02</internalNodes>
      <leafValues>
        -4.6792749315500259e-02 4.4958516955375671e-01</leafValues></_>
    <_>
      <internalNodes>
        0 -1 28064 -8.9703053236007690e-03</internalNodes>
      <leafValues>
        4.0298506617546082e-01 -4.6212628483772278e-02</leafValues></_>
    <_>
      <internalNodes>
        0 -1 118355 1.3884346932172775e-02</internalNodes>
      <leafValues>
        2.7926130220293999e-02 -7.6421737670898438e-01</leafValues></_>
    <_>
      <internalNodes>
        0 -1 108894 2.7424504980444908e-02</internalNodes>
      <leafValues>
        5.4562602192163467e-02 -3.3982485532760620e-01</leafValues></_>
    <_>
      <internalNodes>
        0 -1 115647 -3.9433673024177551e-02</internalNodes>
      <leafValues>
        -6.6164928674697876e-01 3.3174440264701843e-02</leafValues></_>
    <_>
      <internalNodes>
        0 -1 18965 -2.7694856747984886e-02</internalNodes>
      <leafValues>
        -5.6226491928100586e-01 3.3767085522413254e-02</leafValues></_>
    <_>
      <internalNodes>
        0 -1 37935 3.9470178307965398e-04</internalNodes>
      <leafValues>
        9.3852981925010681e-02 -2.1083636581897736e-01</leafValues></_>
    <_>
      <internalNodes>
        0 -1 9300 -3.7674397230148315e-02</internalNodes>
      <leafValues>
        -5.4648333787918091e-01 3.5568512976169586e-02</leafValues></_>
    <_>
      <internalNodes>
        0 -1 27070 3.2229542732238770e-02</internalNodes>
      <leafValues>
        4.6791002154350281e-02 -3.9716675877571106e-01</leafValues></_>
    <_>
      <internalNodes>
        0 -1 104582 6.1716251075267792e-03</internalNodes>
      <leafValues>
        -8.4976673126220703e-02 2.3519717156887054e-01</leafValues></_>
    <_>
      <internalNodes>
        0 -1 107937 -1.3291670940816402e-02</internalNodes>
      <leafValues>
        2.2737585008144379e-01 -8.5273243486881256e-02</leafValues></_>
    <_>
      <internalNodes>
        0 -1 3862 -1.1334722489118576e-01</internalNodes>
      <leafValues>
        -4.8308318853378296e-01 4.6342749148607254e-02</leafValues></_>
    <_>
      <internalNodes>
        0 -1 125145 2.5134705356322229e-04</internalNodes>
      <leafValues>
        1.1727275699377060e-01 -1.7172244191169739e-01</leafValues></_>
    <_>
      <internalNodes>
        0 -1 24245 -1.5591392293572426e-03</internalNodes>
      <leafValues>
        -1.9039601087570190e-01 1.1346480995416641e-01</leafValues></_>
    <_>
      <internalNodes>
        0 -1 41800 2.2749636322259903e-02</internalNodes>
      <leafValues>
        -3.7205755710601807e-02 5.5548554658889771e-01</leafValues></_>
    <_>
      <internalNodes>
        0 -1 28102 -3.3968225121498108e-02</internalNodes>
      <leafValues>
        -7.1166312694549561e-01 3.0969591811299324e-02</leafValues></_>
    <_>
      <internalNodes>
        0 -1 97839 3.1428900547325611e-03</internalNodes>
      <leafValues>
        -6.8924330174922943e-02 2.8583702445030212e-01</leafValues></_>
    <_>
      <internalNodes>
        0 -1 97449 -8.8246297091245651e-03</internalNodes>
      <leafValues>
        5.1135593652725220e-01 -4.3370034545660019e-02</leafValues></_>
    <_>
      <internalNodes>
        0 -1 87738 2.1915510296821594e-03</internalNodes>
      <leafValues>
        9.1226756572723389e-02 -2.3144026100635529e-01</leafValues></_>
    <_>
      <internalNodes>
        0 -1 121396 1.2908089905977249e-02</internalNodes>
      <leafValues>
        3.2012727111577988e-02 -5.7285857200622559e-01</leafValues></_>
    <_>
      <internalNodes>
        0 -1 18560 8.3727212622761726e-03</internalNodes>
      <leafValues>
        -8.4695301949977875e-02 2.3443992435932159e-01</leafValues></_>
    <_>
      <internalNodes>
        0 -1 46462 1.0037724860012531e-02</internalNodes>
      <leafValues>
        -9.0042822062969208e-02 2.3775543272495270e-01</leafValues></_>
    <_>
      <internalNodes>
        0 -1 32566 -9.2130213975906372e-02</internalNodes>
      <leafValues>
        -4.7474136948585510e-01 4.4795472174882889e-02</leafValues></_>
    <_>
      <internalNodes>
        0 -1 114469 1.3184215873479843e-02</internalNodes>
      <leafValues>
        -8.9733958244323730e-02 2.2042779624462128e-01</leafValues></_>
    <_>
      <internalNodes>
        0 -1 74596 -7.9090502113103867e-03</internalNodes>
      <leafValues>
        -2.8121185302734375e-01 6.8920865654945374e-02</leafValues></_>
    <_>
      <internalNodes>
        0 -1 9554 -3.4352845977991819e-04</internalNodes>
      <leafValues>
        -1.6018019616603851e-01 1.2050116062164307e-01</leafValues></_>
    <_>
      <internalNodes>
        0 -1 76073 4.1760746389627457e-03</internalNodes>
      <leafValues>
        -9.1136403381824493e-02 2.3187918961048126e-01</leafValues></_>
    <_>
      <internalNodes>
        0 -1 22203 -2.7631498873233795e-02</internalNodes>
      <leafValues>
        -6.3107168674468994e-01 3.5725824534893036e-02</leafValues></_>
    <_>
      <internalNodes>
        0 -1 119223 -1.8652997910976410e-02</internalNodes>
      <leafValues>
        6.1429208517074585e-01 -3.5551305860280991e-02</leafValues></_>
    <_>
      <internalNodes>
        0 -1 62762 -4.5317932963371277e-02</internalNodes>
      <leafValues>
        -5.8060830831527710e-01 3.9622880518436432e-02</leafValues></_>
    <_>
      <internalNodes>
        0 -1 34721 2.6719630695879459e-03</internalNodes>
      <leafValues>
        -5.6958172470331192e-02 3.7342032790184021e-01</leafValues></_>
    <_>
      <internalNodes>
        0 -1 93392 -1.0633477009832859e-02</internalNodes>
      <leafValues>
        8.1460046768188477e-01 -2.1936045959591866e-02</leafValues></_>
    <_>
      <internalNodes>
        0 -1 9344 -1.0024940595030785e-02</internalNodes>
      <leafValues>
        -6.9093006849288940e-01 3.4233003854751587e-02</leafValues></_>
    <_>
      <internalNodes>
        0 -1 19597 6.2592729926109314e-02</internalNodes>
      <leafValues>
        -4.4882260262966156e-02 4.7470161318778992e-01</leafValues></_>
    <_>
      <internalNodes>
        0 -1 35743 -2.3256529122591019e-02</internalNodes>
      <leafValues>
        -7.8187888860702515e-01 3.1794123351573944e-02</leafValues></_>
    <_>
      <internalNodes>
        0 -1 100468 -3.9809290319681168e-04</internalNodes>
      <leafValues>
        -1.9463476538658142e-01 1.0835369676351547e-01</leafValues></_>
    <_>
      <internalNodes>
        0 -1 48464 -6.3832715153694153e-02</internalNodes>
      <leafValues>
        2.1253357827663422e-01 -1.0151991993188858e-01</leafValues></_>
    <_>
      <internalNodes>
        0 -1 73260 7.5536500662565231e-03</internalNodes>
      <leafValues>
        -6.7523531615734100e-02 3.2327184081077576e-01</leafValues></_>
    <_>
      <internalNodes>
        0 -1 47766 -2.8349786996841431e-02</internalNodes>
      <leafValues>
        -7.5911670923233032e-01 3.0030969530344009e-02</leafValues></_>
    <_>
      <internalNodes>
        0 -1 94257 -4.9549095332622528e-02</internalNodes>
      <leafValues>
        -8.3013945817947388e-01 2.3507688194513321e-02</leafValues></_>
    <_>
      <internalNodes>
        0 -1 5210 8.6496323347091675e-03</internalNodes>
      <leafValues>
        -6.1050876975059509e-02 3.7200078368186951e-01</leafValues></_>
    <_>
      <internalNodes>
        0 -1 95984 -1.6376152634620667e-02</internalNodes>
      <leafValues>
        -2.0364589989185333e-01 1.0454548895359039e-01</leafValues></_>
    <_>
      <internalNodes>
        0 -1 46186 -7.9025365412235260e-02</internalNodes>
      <leafValues>
        -5.0876182317733765e-01 4.4010233134031296e-02</leafValues></_>
    <_>
      <internalNodes>
        0 -1 26993 -3.5399426706135273e-03</internalNodes>
      <leafValues>
        2.8673201799392700e-01 -7.6660320162773132e-02</leafValues></_></weakClassifiers></stage14>
</opencv_storage>
