<?xml version="1.0"?>
<opencv_storage>
<stage7>
  <maxWeakCount>72</maxWeakCount>
  <stageThreshold>-7.1693485975265503e-01</stageThreshold>
  <weakClassifiers>
    <_>
      <internalNodes>
        0 -1 100428 -2.0501540973782539e-02</internalNodes>
      <leafValues>
        8.9552238583564758e-02 4.1206029057502747e-01</leafValues></_>
    <_>
      <internalNodes>
        0 -1 124900 -2.6670880615711212e-02</internalNodes>
      <leafValues>
        8.9146727323532104e-01 -1.1345596052706242e-02</leafValues></_>
    <_>
      <internalNodes>
        0 -1 61778 3.3196634612977505e-03</internalNodes>
      <leafValues>
        -5.6362137198448181e-02 3.7814405560493469e-01</leafValues></_>
    <_>
      <internalNodes>
        0 -1 73733 -3.0774701386690140e-02</internalNodes>
      <leafValues>
        -5.4487258195877075e-01 1.2262829579412937e-02</leafValues></_>
    <_>
      <internalNodes>
        0 -1 8941 -2.7529720216989517e-02</internalNodes>
      <leafValues>
        -5.7935112714767456e-01 3.6093719303607941e-02</leafValues></_>
    <_>
      <internalNodes>
        0 -1 94898 -5.6455750018358231e-04</internalNodes>
      <leafValues>
        -2.0068268477916718e-01 1.0110846906900406e-01</leafValues></_>
    <_>
      <internalNodes>
        0 -1 73655 -5.7430090382695198e-03</internalNodes>
      <leafValues>
        3.8079270720481873e-01 -5.6202735751867294e-02</leafValues></_>
    <_>
      <internalNodes>
        0 -1 113726 1.0766074061393738e-02</internalNodes>
      <leafValues>
        -5.2423540502786636e-02 4.3407997488975525e-01</leafValues></_>
    <_>
      <internalNodes>
        0 -1 29009 -6.4179264008998871e-03</internalNodes>
      <leafValues>
        2.4854442477226257e-01 -7.8922100365161896e-02</leafValues></_>
    <_>
      <internalNodes>
        0 -1 86827 -3.7708500167354941e-04</internalNodes>
      <leafValues>
        1.4801029860973358e-01 -1.3386909663677216e-01</leafValues></_>
    <_>
      <internalNodes>
        0 -1 61216 -7.0271611213684082e-02</internalNodes>
      <leafValues>
        2.9637140035629272e-01 -6.4542934298515320e-02</leafValues></_>
    <_>
      <internalNodes>
        0 -1 89260 6.1938501894474030e-02</internalNodes>
      <leafValues>
        9.2839263379573822e-02 -2.4976456165313721e-01</leafValues></_>
    <_>
      <internalNodes>
        0 -1 85477 4.4248346239328384e-03</internalNodes>
      <leafValues>
        -6.2075700610876083e-02 3.3159455657005310e-01</leafValues></_>
    <_>
      <internalNodes>
        0 -1 27749 3.6813814193010330e-02</internalNodes>
      <leafValues>
        6.3996411859989166e-02 -3.2307305932044983e-01</leafValues></_>
    <_>
      <internalNodes>
        0 -1 28479 1.2270203791558743e-02</internalNodes>
      <leafValues>
        -7.0012293756008148e-02 3.1135347485542297e-01</leafValues></_>
    <_>
      <internalNodes>
        0 -1 46152 -8.0763027071952820e-03</internalNodes>
      <leafValues>
        -2.4064905941486359e-01 1.0126987099647522e-01</leafValues></_>
    <_>
      <internalNodes>
        0 -1 45386 -7.3804599232971668e-03</internalNodes>
      <leafValues>
        5.0156080722808838e-01 -4.1966497898101807e-02</leafValues></_>
    <_>
      <internalNodes>
        0 -1 99816 -1.2904020026326180e-02</internalNodes>
      <leafValues>
        -3.0782970786094666e-01 7.1687430143356323e-02</leafValues></_>
    <_>
      <internalNodes>
        0 -1 106114 -4.4342590263113379e-04</internalNodes>
      <leafValues>
        1.7378413677215576e-01 -1.2897175550460815e-01</leafValues></_>
    <_>
      <internalNodes>
        0 -1 106551 7.4895359575748444e-03</internalNodes>
      <leafValues>
        6.2651947140693665e-02 -4.1965505480766296e-01</leafValues></_>
    <_>
      <internalNodes>
        0 -1 93497 -4.9487967044115067e-03</internalNodes>
      <leafValues>
        3.9511224627494812e-01 -5.5512811988592148e-02</leafValues></_>
    <_>
      <internalNodes>
        0 -1 121522 1.9455652218312025e-03</internalNodes>
      <leafValues>
        8.0020651221275330e-02 -2.5696915388107300e-01</leafValues></_>
    <_>
      <internalNodes>
        0 -1 109390 -2.3237802088260651e-02</internalNodes>
      <leafValues>
        4.8067644238471985e-01 -4.0908053517341614e-02</leafValues></_>
    <_>
      <internalNodes>
        0 -1 124085 2.3845791816711426e-02</internalNodes>
      <leafValues>
        6.5827548503875732e-02 -3.4088221192359924e-01</leafValues></_>
    <_>
      <internalNodes>
        0 -1 85176 -4.2800292372703552e-02</internalNodes>
      <leafValues>
        -8.0623894929885864e-01 2.6967385783791542e-02</leafValues></_>
    <_>
      <internalNodes>
        0 -1 67584 6.1214827001094818e-02</internalNodes>
      <leafValues>
        3.6499183624982834e-02 -5.5260384082794189e-01</leafValues></_>
    <_>
      <internalNodes>
        0 -1 9927 3.7893850822001696e-03</internalNodes>
      <leafValues>
        3.7310548126697540e-02 -5.0025141239166260e-01</leafValues></_>
    <_>
      <internalNodes>
        0 -1 103739 -4.7223707661032677e-03</internalNodes>
      <leafValues>
        4.4860398769378662e-01 -4.7824487090110779e-02</leafValues></_>
    <_>
      <internalNodes>
        0 -1 111604 1.6947992146015167e-02</internalNodes>
      <leafValues>
        -6.0642588883638382e-02 3.3205103874206543e-01</leafValues></_>
    <_>
      <internalNodes>
        0 -1 69861 3.1745671294629574e-03</internalNodes>
      <leafValues>
        -5.6835122406482697e-02 3.4170910716056824e-01</leafValues></_>
    <_>
      <internalNodes>
        0 -1 7602 -1.3608500361442566e-02</internalNodes>
      <leafValues>
        -4.8246976733207703e-01 4.6609599143266678e-02</leafValues></_>
    <_>
      <internalNodes>
        0 -1 63789 9.5948502421379089e-03</internalNodes>
      <leafValues>
        7.4912056326866150e-02 -2.8601324558258057e-01</leafValues></_>
    <_>
      <internalNodes>
        0 -1 62209 -3.0851936899125576e-03</internalNodes>
      <leafValues>
        3.5211679339408875e-01 -6.9390416145324707e-02</leafValues></_>
    <_>
      <internalNodes>
        0 -1 13615 -3.1689834594726562e-01</internalNodes>
      <leafValues>
        4.9485823512077332e-01 -4.2591694742441177e-02</leafValues></_>
    <_>
      <internalNodes>
        0 -1 95496 -1.5659801661968231e-02</internalNodes>
      <leafValues>
        -3.2703131437301636e-01 7.3174394667148590e-02</leafValues></_>
    <_>
      <internalNodes>
        0 -1 53252 3.6842763423919678e-02</internalNodes>
      <leafValues>
        3.6780532449483871e-02 -6.0934096574783325e-01</leafValues></_>
    <_>
      <internalNodes>
        0 -1 98213 -5.4151453077793121e-03</internalNodes>
      <leafValues>
        3.6832910776138306e-01 -6.3349045813083649e-02</leafValues></_>
    <_>
      <internalNodes>
        0 -1 42179 -2.1597120910882950e-02</internalNodes>
      <leafValues>
        3.0612328648567200e-01 -7.0401951670646667e-02</leafValues></_>
    <_>
      <internalNodes>
        0 -1 114139 2.3286701180040836e-03</internalNodes>
      <leafValues>
        -8.4183216094970703e-02 2.6318496465682983e-01</leafValues></_>
    <_>
      <internalNodes>
        0 -1 1061 -1.0529680177569389e-02</internalNodes>
      <leafValues>
        2.8413006663322449e-01 -7.6931715011596680e-02</leafValues></_>
    <_>
      <internalNodes>
        0 -1 3 -3.7756422534584999e-04</internalNodes>
      <leafValues>
        -1.8385818600654602e-01 1.1711174994707108e-01</leafValues></_>
    <_>
      <internalNodes>
        0 -1 36975 1.0662747919559479e-01</internalNodes>
      <leafValues>
        4.6995215117931366e-02 -4.9163955450057983e-01</leafValues></_>
    <_>
      <internalNodes>
        0 -1 63549 5.5873114615678787e-03</internalNodes>
      <leafValues>
        -6.6972009837627411e-02 3.5865631699562073e-01</leafValues></_>
    <_>
      <internalNodes>
        0 -1 1 1.0865043150261045e-03</internalNodes>
      <leafValues>
        7.7919647097587585e-02 -2.8457972407341003e-01</leafValues></_>
    <_>
      <internalNodes>
        0 -1 124408 -1.8077183514833450e-02</internalNodes>
      <leafValues>
        6.5805280208587646e-01 -3.4240126609802246e-02</leafValues></_>
    <_>
      <internalNodes>
        0 -1 106541 -3.6915927194058895e-03</internalNodes>
      <leafValues>
        4.5579034090042114e-01 -3.9416030049324036e-02</leafValues></_>
    <_>
      <internalNodes>
        0 -1 104973 -5.9979234356433153e-04</internalNodes>
      <leafValues>
        1.6850334405899048e-01 -1.2558746337890625e-01</leafValues></_>
    <_>
      <internalNodes>
        0 -1 121094 -2.2114327177405357e-02</internalNodes>
      <leafValues>
        -5.7324004173278809e-01 3.7683214992284775e-02</leafValues></_>
    <_>
      <internalNodes>
        0 -1 11186 9.8553165793418884e-02</internalNodes>
      <leafValues>
        -2.7044039219617844e-02 7.6203256845474243e-01</leafValues></_>
    <_>
      <internalNodes>
        0 -1 68689 7.0220589637756348e-02</internalNodes>
      <leafValues>
        -2.4052767083048820e-02 7.2897195816040039e-01</leafValues></_>
    <_>
      <internalNodes>
        0 -1 56032 -5.5144056677818298e-02</internalNodes>
      <leafValues>
        -5.9084481000900269e-01 3.9058689028024673e-02</leafValues></_>
    <_>
      <internalNodes>
        0 -1 10664 2.6328779757022858e-02</internalNodes>
      <leafValues>
        -5.9806242585182190e-02 4.2089569568634033e-01</leafValues></_>
    <_>
      <internalNodes>
        0 -1 3051 6.2960252165794373e-02</internalNodes>
      <leafValues>
        -4.4280514121055603e-02 4.2912963032722473e-01</leafValues></_>
    <_>
      <internalNodes>
        0 -1 5957 -1.7999398708343506e-01</internalNodes>
      <leafValues>
        3.3378344774246216e-01 -7.1346335113048553e-02</leafValues></_>
    <_>
      <internalNodes>
        0 -1 121090 -1.1906401254236698e-02</internalNodes>
      <leafValues>
        -4.0330162644386292e-01 5.6937851011753082e-02</leafValues></_>
    <_>
      <internalNodes>
        0 -1 92532 4.9514127895236015e-03</internalNodes>
      <leafValues>
        -5.5864356458187103e-02 4.3478375673294067e-01</leafValues></_>
    <_>
      <internalNodes>
        0 -1 55767 -6.2928273109719157e-05</internalNodes>
      <leafValues>
        -1.5399767458438873e-01 1.4796093106269836e-01</leafValues></_>
    <_>
      <internalNodes>
        0 -1 48684 2.3500993847846985e-02</internalNodes>
      <leafValues>
        6.9088861346244812e-02 -3.2395213842391968e-01</leafValues></_>
    <_>
      <internalNodes>
        0 -1 56844 -1.2214990332722664e-02</internalNodes>
      <leafValues>
        -3.0391234159469604e-01 7.2714895009994507e-02</leafValues></_>
    <_>
      <internalNodes>
        0 -1 11747 8.6924508213996887e-03</internalNodes>
      <leafValues>
        -3.9406321942806244e-02 6.0955178737640381e-01</leafValues></_>
    <_>
      <internalNodes>
        0 -1 31519 3.0930455774068832e-02</internalNodes>
      <leafValues>
        5.6776948273181915e-02 -4.0471211075782776e-01</leafValues></_>
    <_>
      <internalNodes>
        0 -1 27160 5.3064268082380295e-02</internalNodes>
      <leafValues>
        6.4797356724739075e-02 -3.5516351461410522e-01</leafValues></_>
    <_>
      <internalNodes>
        0 -1 9442 1.4584187418222427e-02</internalNodes>
      <leafValues>
        -1.0703216493129730e-01 2.1107642352581024e-01</leafValues></_>
    <_>
      <internalNodes>
        0 -1 79437 6.2760021537542343e-03</internalNodes>
      <leafValues>
        4.9906864762306213e-02 -4.0041747689247131e-01</leafValues></_>
    <_>
      <internalNodes>
        0 -1 62235 -1.0325628332793713e-02</internalNodes>
      <leafValues>
        4.5473441481590271e-01 -4.7110222280025482e-02</leafValues></_>
    <_>
      <internalNodes>
        0 -1 97000 -8.3925742655992508e-03</internalNodes>
      <leafValues>
        3.3193930983543396e-01 -6.3004590570926666e-02</leafValues></_>
    <_>
      <internalNodes>
        0 -1 90648 -7.4461242184042931e-03</internalNodes>
      <leafValues>
        4.6698427200317383e-01 -4.6904105693101883e-02</leafValues></_>
    <_>
      <internalNodes>
        0 -1 105583 -3.0566164059564471e-04</internalNodes>
      <leafValues>
        -1.5857766568660736e-01 1.3957703113555908e-01</leafValues></_>
    <_>
      <internalNodes>
        0 -1 24889 -6.6617112606763840e-03</internalNodes>
      <leafValues>
        7.8601270914077759e-01 -2.6453515514731407e-02</leafValues></_>
    <_>
      <internalNodes>
        0 -1 123954 2.8618186712265015e-02</internalNodes>
      <leafValues>
        3.1618945300579071e-02 -8.0581569671630859e-01</leafValues></_>
    <_>
      <internalNodes>
        0 -1 106982 5.4665179923176765e-03</internalNodes>
      <leafValues>
        -5.9013172984123230e-02 3.9908972382545471e-01</leafValues></_>
    <_>
      <internalNodes>
        0 -1 81526 -3.4355431795120239e-02</internalNodes>
      <leafValues>
        -6.4622890949249268e-01 4.0390655398368835e-02</leafValues></_></weakClassifiers></stage7>
</opencv_storage>
