<?xml version="1.0"?>
<opencv_storage>
<stage18>
  <maxWeakCount>49</maxWeakCount>
  <stageThreshold>-7.6330989599227905e-01</stageThreshold>
  <weakClassifiers>
    <_>
      <internalNodes>
        0 -1 17572 -7.9203862696886063e-03</internalNodes>
      <leafValues>
        -2.9078012704849243e-01 3.0226182937622070e-01</leafValues></_>
    <_>
      <internalNodes>
        0 -1 613855 -1.1774266604334116e-03</internalNodes>
      <leafValues>
        5.3491973876953125e-01 -5.4255284368991852e-02</leafValues></_>
    <_>
      <internalNodes>
        0 -1 217142 -1.8838394316844642e-04</internalNodes>
      <leafValues>
        -3.1341683864593506e-01 7.8698664903640747e-02</leafValues></_>
    <_>
      <internalNodes>
        0 -1 502534 1.1941296979784966e-03</internalNodes>
      <leafValues>
        -6.0665503144264221e-02 4.4895142316818237e-01</leafValues></_>
    <_>
      <internalNodes>
        0 -1 458571 3.9737693441566080e-05</internalNodes>
      <leafValues>
        1.4049759507179260e-01 -2.0853748917579651e-01</leafValues></_>
    <_>
      <internalNodes>
        0 -1 566394 3.3692845609039068e-03</internalNodes>
      <leafValues>
        -1.0538554936647415e-01 3.0283370614051819e-01</leafValues></_>
    <_>
      <internalNodes>
        0 -1 157654 -5.7424521073698997e-03</internalNodes>
      <leafValues>
        -4.2718538641929626e-01 7.9910561442375183e-02</leafValues></_>
    <_>
      <internalNodes>
        0 -1 49277 -1.9931753631681204e-03</internalNodes>
      <leafValues>
        -3.6514303088188171e-01 8.6890935897827148e-02</leafValues></_>
    <_>
      <internalNodes>
        0 -1 475988 -1.5572049887850881e-03</internalNodes>
      <leafValues>
        2.9706451296806335e-01 -1.1235290765762329e-01</leafValues></_>
    <_>
      <internalNodes>
        0 -1 166097 2.5581684894859791e-04</internalNodes>
      <leafValues>
        1.4373530447483063e-01 -2.1214480698108673e-01</leafValues></_>
    <_>
      <internalNodes>
        0 -1 18890 1.5221755893435329e-04</internalNodes>
      <leafValues>
        -2.0482651889324188e-01 1.5696966648101807e-01</leafValues></_>
    <_>
      <internalNodes>
        0 -1 488943 -5.9409718960523605e-04</internalNodes>
      <leafValues>
        2.5219658017158508e-01 -1.1577454954385757e-01</leafValues></_>
    <_>
      <internalNodes>
        0 -1 488966 1.3324319152161479e-03</internalNodes>
      <leafValues>
        -1.1619552969932556e-01 2.7908134460449219e-01</leafValues></_>
    <_>
      <internalNodes>
        0 -1 122878 6.5164081752300262e-03</internalNodes>
      <leafValues>
        9.3651093542575836e-02 -3.2389631867408752e-01</leafValues></_>
    <_>
      <internalNodes>
        0 -1 457224 6.1957957223057747e-03</internalNodes>
      <leafValues>
        6.8992540240287781e-02 -4.6688690781593323e-01</leafValues></_>
    <_>
      <internalNodes>
        0 -1 356237 -1.6726145148277283e-01</internalNodes>
      <leafValues>
        -7.6486861705780029e-01 3.2831642776727676e-02</leafValues></_>
    <_>
      <internalNodes>
        0 -1 530385 2.1058386191725731e-03</internalNodes>
      <leafValues>
        -8.3581939339637756e-02 3.9795789122581482e-01</leafValues></_>
    <_>
      <internalNodes>
        0 -1 2459 2.7746724663302302e-04</internalNodes>
      <leafValues>
        1.0011699050664902e-01 -3.2369294762611389e-01</leafValues></_>
    <_>
      <internalNodes>
        0 -1 494296 -5.0538722425699234e-03</internalNodes>
      <leafValues>
        1.9699598848819733e-01 -1.6364821791648865e-01</leafValues></_>
    <_>
      <internalNodes>
        0 -1 15113 7.0737980306148529e-02</internalNodes>
      <leafValues>
        -9.7548522055149078e-02 3.8399726152420044e-01</leafValues></_>
    <_>
      <internalNodes>
        0 -1 706690 1.1636449489742517e-03</internalNodes>
      <leafValues>
        -4.9385391175746918e-02 5.7436913251876831e-01</leafValues></_>
    <_>
      <internalNodes>
        0 -1 347757 2.7190413326025009e-02</internalNodes>
      <leafValues>
        -7.6780810952186584e-02 4.1613689064979553e-01</leafValues></_>
    <_>
      <internalNodes>
        0 -1 664618 1.1368361301720142e-03</internalNodes>
      <leafValues>
        -9.1992571949958801e-02 3.4469968080520630e-01</leafValues></_>
    <_>
      <internalNodes>
        0 -1 628504 -1.0999618098139763e-02</internalNodes>
      <leafValues>
        -4.4632646441459656e-01 7.3038049042224884e-02</leafValues></_>
    <_>
      <internalNodes>
        0 -1 296811 -6.5461252816021442e-03</internalNodes>
      <leafValues>
        3.8552805781364441e-01 -8.5272774100303650e-02</leafValues></_>
    <_>
      <internalNodes>
        0 -1 177281 -2.1055556135252118e-04</internalNodes>
      <leafValues>
        -3.0297097563743591e-01 1.1212629824876785e-01</leafValues></_>
    <_>
      <internalNodes>
        0 -1 688775 -8.9854380348697305e-04</internalNodes>
      <leafValues>
        3.3961665630340576e-01 -1.0218212008476257e-01</leafValues></_>
    <_>
      <internalNodes>
        0 -1 535415 -1.3639049138873816e-03</internalNodes>
      <leafValues>
        3.1575003266334534e-01 -1.0740908980369568e-01</leafValues></_>
    <_>
      <internalNodes>
        0 -1 558368 -2.0829737186431885e-02</internalNodes>
      <leafValues>
        -5.8665782213211060e-01 5.8733176440000534e-02</leafValues></_>
    <_>
      <internalNodes>
        0 -1 500500 9.3582348199561238e-04</internalNodes>
      <leafValues>
        -1.4185151457786560e-01 2.5142908096313477e-01</leafValues></_>
    <_>
      <internalNodes>
        0 -1 161255 2.9419306665658951e-03</internalNodes>
      <leafValues>
        8.3471752703189850e-02 -4.7147512435913086e-01</leafValues></_>
    <_>
      <internalNodes>
        0 -1 695080 9.2063593911007047e-05</internalNodes>
      <leafValues>
        1.5817534923553467e-01 -2.0998179912567139e-01</leafValues></_>
    <_>
      <internalNodes>
        0 -1 284880 2.3140335083007812e-01</internalNodes>
      <leafValues>
        -4.1190974414348602e-02 8.1353038549423218e-01</leafValues></_>
    <_>
      <internalNodes>
        0 -1 506588 2.2358098067343235e-03</internalNodes>
      <leafValues>
        -4.2958546429872513e-02 6.0381591320037842e-01</leafValues></_>
    <_>
      <internalNodes>
        0 -1 125072 -2.4002695456147194e-02</internalNodes>
      <leafValues>
        3.7800601124763489e-01 -8.6168095469474792e-02</leafValues></_>
    <_>
      <internalNodes>
        0 -1 624773 1.0293625527992845e-03</internalNodes>
      <leafValues>
        -6.4471259713172913e-02 4.5107686519622803e-01</leafValues></_>
    <_>
      <internalNodes>
        0 -1 664495 2.8385573532432318e-03</internalNodes>
      <leafValues>
        -1.1627162247896194e-01 2.6950690150260925e-01</leafValues></_>
    <_>
      <internalNodes>
        0 -1 123068 3.7547806277871132e-03</internalNodes>
      <leafValues>
        4.0839087218046188e-02 -8.8337123394012451e-01</leafValues></_>
    <_>
      <internalNodes>
        0 -1 340556 -7.5639481656253338e-04</internalNodes>
      <leafValues>
        3.7937188148498535e-01 -8.7681740522384644e-02</leafValues></_>
    <_>
      <internalNodes>
        0 -1 340556 9.2436803970485926e-04</internalNodes>
      <leafValues>
        -6.5665595233440399e-02 4.6031740307807922e-01</leafValues></_>
    <_>
      <internalNodes>
        0 -1 530773 3.2570458948612213e-02</internalNodes>
      <leafValues>
        6.3282355666160583e-02 -5.1945304870605469e-01</leafValues></_>
    <_>
      <internalNodes>
        0 -1 706492 1.3497162610292435e-02</internalNodes>
      <leafValues>
        -3.4011017531156540e-02 1.</leafValues></_>
    <_>
      <internalNodes>
        0 -1 153717 2.5015296414494514e-03</internalNodes>
      <leafValues>
        6.3060730695724487e-02 -6.2531638145446777e-01</leafValues></_>
    <_>
      <internalNodes>
        0 -1 423053 3.2987194135785103e-03</internalNodes>
      <leafValues>
        -8.6763575673103333e-02 4.1893985867500305e-01</leafValues></_>
    <_>
      <internalNodes>
        0 -1 23501 9.6244504675269127e-04</internalNodes>
      <leafValues>
        4.8497386276721954e-02 -6.9542628526687622e-01</leafValues></_>
    <_>
      <internalNodes>
        0 -1 425003 1.4847526326775551e-02</internalNodes>
      <leafValues>
        -9.1880939900875092e-02 3.7458732724189758e-01</leafValues></_>
    <_>
      <internalNodes>
        0 -1 143764 -1.3385922648012638e-02</internalNodes>
      <leafValues>
        2.1229884028434753e-01 -1.8149942159652710e-01</leafValues></_>
    <_>
      <internalNodes>
        0 -1 569993 -2.3535646498203278e-02</internalNodes>
      <leafValues>
        3.3787119388580322e-01 -1.0635852813720703e-01</leafValues></_>
    <_>
      <internalNodes>
        0 -1 636575 -2.2558994591236115e-02</internalNodes>
      <leafValues>
        -8.2520437240600586e-01 4.8842720687389374e-02</leafValues></_></weakClassifiers></stage18>
</opencv_storage>
