<?xml version="1.0"?>
<opencv_storage>
<stage8>
  <maxWeakCount>77</maxWeakCount>
  <stageThreshold>-6.4010798931121826e-01</stageThreshold>
  <weakClassifiers>
    <_>
      <internalNodes>
        0 -1 75596 1.8821725388988853e-03</internalNodes>
      <leafValues>
        1.8529412150382996e-01 4.8358207941055298e-01</leafValues></_>
    <_>
      <internalNodes>
        0 -1 33452 -2.0235432311892509e-03</internalNodes>
      <leafValues>
        2.4142701923847198e-01 -8.9265063405036926e-02</leafValues></_>
    <_>
      <internalNodes>
        0 -1 49780 -1.0145211126655340e-03</internalNodes>
      <leafValues>
        1.6010120511054993e-01 -1.3119272887706757e-01</leafValues></_>
    <_>
      <internalNodes>
        0 -1 75833 -3.4205859992653131e-03</internalNodes>
      <leafValues>
        1.2160265445709229e-01 -1.6262996196746826e-01</leafValues></_>
    <_>
      <internalNodes>
        0 -1 65999 1.8531352281570435e-02</internalNodes>
      <leafValues>
        -7.8367814421653748e-02 2.7083352208137512e-01</leafValues></_>
    <_>
      <internalNodes>
        0 -1 65520 1.1067803716287017e-03</internalNodes>
      <leafValues>
        1.0552834719419479e-01 -1.8664342164993286e-01</leafValues></_>
    <_>
      <internalNodes>
        0 -1 78022 -3.1197064090520144e-03</internalNodes>
      <leafValues>
        1.3094660639762878e-01 -1.6278187930583954e-01</leafValues></_>
    <_>
      <internalNodes>
        0 -1 77551 -2.1172040142118931e-03</internalNodes>
      <leafValues>
        1.6982921957969666e-01 -1.2619270384311676e-01</leafValues></_>
    <_>
      <internalNodes>
        0 -1 12191 -5.4118223488330841e-03</internalNodes>
      <leafValues>
        2.5900509953498840e-01 -8.3649791777133942e-02</leafValues></_>
    <_>
      <internalNodes>
        0 -1 49188 -1.1984065640717745e-03</internalNodes>
      <leafValues>
        2.0178036391735077e-01 -9.7743555903434753e-02</leafValues></_>
    <_>
      <internalNodes>
        0 -1 77000 -7.6921563595533371e-03</internalNodes>
      <leafValues>
        4.0743905305862427e-01 -4.4855467975139618e-02</leafValues></_>
    <_>
      <internalNodes>
        0 -1 74114 1.1018773075193167e-03</internalNodes>
      <leafValues>
        -1.0229723155498505e-01 2.0248205959796906e-01</leafValues></_>
    <_>
      <internalNodes>
        0 -1 35730 -3.8941390812397003e-03</internalNodes>
      <leafValues>
        1.3333927094936371e-01 -1.5577250719070435e-01</leafValues></_>
    <_>
      <internalNodes>
        0 -1 5740 4.3721380643546581e-03</internalNodes>
      <leafValues>
        -1.2567342817783356e-01 1.6105574369430542e-01</leafValues></_>
    <_>
      <internalNodes>
        0 -1 42801 6.1373431235551834e-02</internalNodes>
      <leafValues>
        -7.0727340877056122e-02 3.2578492164611816e-01</leafValues></_>
    <_>
      <internalNodes>
        0 -1 22726 -7.0077583193778992e-02</internalNodes>
      <leafValues>
        -3.8301360607147217e-01 5.5340070277452469e-02</leafValues></_>
    <_>
      <internalNodes>
        0 -1 32638 -1.1337904725223780e-03</internalNodes>
      <leafValues>
        1.8921609222888947e-01 -1.0072852671146393e-01</leafValues></_>
    <_>
      <internalNodes>
        0 -1 18788 4.8517048708163202e-04</internalNodes>
      <leafValues>
        -1.1141242086887360e-01 1.7571765184402466e-01</leafValues></_>
    <_>
      <internalNodes>
        0 -1 27060 8.0314110964536667e-03</internalNodes>
      <leafValues>
        3.3224210143089294e-02 -5.6125158071517944e-01</leafValues></_>
    <_>
      <internalNodes>
        0 -1 18327 -2.5702100247144699e-03</internalNodes>
      <leafValues>
        2.1911573410034180e-01 -9.6670471131801605e-02</leafValues></_>
    <_>
      <internalNodes>
        0 -1 60788 4.7974172048270702e-03</internalNodes>
      <leafValues>
        2.7792548760771751e-02 -7.3659312725067139e-01</leafValues></_>
    <_>
      <internalNodes>
        0 -1 52195 -4.5652571134269238e-03</internalNodes>
      <leafValues>
        -2.0255436003208160e-01 1.0093640536069870e-01</leafValues></_>
    <_>
      <internalNodes>
        0 -1 76416 4.2266322998329997e-04</internalNodes>
      <leafValues>
        -1.1109455674886703e-01 1.6775314509868622e-01</leafValues></_>
    <_>
      <internalNodes>
        0 -1 59913 -1.0208601504564285e-01</internalNodes>
      <leafValues>
        4.2582818865776062e-01 -4.3585665524005890e-02</leafValues></_>
    <_>
      <internalNodes>
        0 -1 32638 7.0690282154828310e-04</internalNodes>
      <leafValues>
        -9.5847263932228088e-02 1.8667352199554443e-01</leafValues></_>
    <_>
      <internalNodes>
        0 -1 18314 -1.8580719188321382e-04</internalNodes>
      <leafValues>
        1.4856466650962830e-01 -1.2823750078678131e-01</leafValues></_>
    <_>
      <internalNodes>
        0 -1 77182 1.3934321701526642e-02</internalNodes>
      <leafValues>
        -6.3497260212898254e-02 2.8887230157852173e-01</leafValues></_>
    <_>
      <internalNodes>
        0 -1 76788 -9.1990372166037560e-03</internalNodes>
      <leafValues>
        3.6855196952819824e-01 -5.4731972515583038e-02</leafValues></_>
    <_>
      <internalNodes>
        0 -1 77024 -1.5667855739593506e-02</internalNodes>
      <leafValues>
        -5.9508764743804932e-01 3.4189570695161819e-02</leafValues></_>
    <_>
      <internalNodes>
        0 -1 77439 -9.1465022414922714e-03</internalNodes>
      <leafValues>
        -8.9018672704696655e-01 1.9525047391653061e-02</leafValues></_>
    <_>
      <internalNodes>
        0 -1 69621 -1.4405151596292853e-03</internalNodes>
      <leafValues>
        1.4484603703022003e-01 -1.3293901085853577e-01</leafValues></_>
    <_>
      <internalNodes>
        0 -1 77016 -6.2753609381616116e-03</internalNodes>
      <leafValues>
        -6.5897601842880249e-01 3.1484294682741165e-02</leafValues></_>
    <_>
      <internalNodes>
        0 -1 49390 -1.1176142143085599e-03</internalNodes>
      <leafValues>
        1.6504666209220886e-01 -1.0689114034175873e-01</leafValues></_>
    <_>
      <internalNodes>
        0 -1 40620 4.8298556357622147e-03</internalNodes>
      <leafValues>
        -7.8386068344116211e-02 2.1473726630210876e-01</leafValues></_>
    <_>
      <internalNodes>
        0 -1 20115 -3.7665955722332001e-02</internalNodes>
      <leafValues>
        6.5752959251403809e-01 -2.6238447055220604e-02</leafValues></_>
    <_>
      <internalNodes>
        0 -1 20672 -1.0773923248052597e-02</internalNodes>
      <leafValues>
        -6.3590711355209351e-01 3.4221425652503967e-02</leafValues></_>
    <_>
      <internalNodes>
        0 -1 13311 -1.0628094896674156e-03</internalNodes>
      <leafValues>
        1.4452652633190155e-01 -1.2161590158939362e-01</leafValues></_>
    <_>
      <internalNodes>
        0 -1 75157 -6.0335686430335045e-03</internalNodes>
      <leafValues>
        -8.8163679838180542e-01 2.2318163886666298e-02</leafValues></_>
    <_>
      <internalNodes>
        0 -1 68709 5.5127590894699097e-03</internalNodes>
      <leafValues>
        -6.1945755034685135e-02 3.1045871973037720e-01</leafValues></_>
    <_>
      <internalNodes>
        0 -1 71009 8.3365465980023146e-04</internalNodes>
      <leafValues>
        -1.3416858017444611e-01 1.4795397222042084e-01</leafValues></_>
    <_>
      <internalNodes>
        0 -1 78296 5.0049379933625460e-04</internalNodes>
      <leafValues>
        1.0493851453065872e-01 -1.7577290534973145e-01</leafValues></_>
    <_>
      <internalNodes>
        0 -1 73598 3.5306671634316444e-03</internalNodes>
      <leafValues>
        -1.1224820464849472e-01 1.6525022685527802e-01</leafValues></_>
    <_>
      <internalNodes>
        0 -1 43843 -2.5730712804943323e-03</internalNodes>
      <leafValues>
        2.2641314566135406e-01 -7.8629881143569946e-02</leafValues></_>
    <_>
      <internalNodes>
        0 -1 43991 1.1696349829435349e-02</internalNodes>
      <leafValues>
        8.7168104946613312e-02 -2.1863228082656860e-01</leafValues></_>
    <_>
      <internalNodes>
        0 -1 54360 2.0795367658138275e-02</internalNodes>
      <leafValues>
        3.0042007565498352e-02 -6.1879014968872070e-01</leafValues></_>
    <_>
      <internalNodes>
        0 -1 46871 -1.0352493263781071e-03</internalNodes>
      <leafValues>
        2.1051283180713654e-01 -8.6334407329559326e-02</leafValues></_>
    <_>
      <internalNodes>
        0 -1 72083 2.6046575512737036e-03</internalNodes>
      <leafValues>
        6.0386780649423599e-02 -2.9310527443885803e-01</leafValues></_>
    <_>
      <internalNodes>
        0 -1 73991 -1.4406112022697926e-03</internalNodes>
      <leafValues>
        1.7836448550224304e-01 -1.0848440974950790e-01</leafValues></_>
    <_>
      <internalNodes>
        0 -1 26471 2.3407198023051023e-03</internalNodes>
      <leafValues>
        -9.3812987208366394e-02 1.8702390789985657e-01</leafValues></_>
    <_>
      <internalNodes>
        0 -1 20917 -6.8656010553240776e-03</internalNodes>
      <leafValues>
        1.9353191554546356e-01 -9.6450425684452057e-02</leafValues></_>
    <_>
      <internalNodes>
        0 -1 20925 -8.5262097418308258e-03</internalNodes>
      <leafValues>
        -3.1007257103919983e-01 6.5195545554161072e-02</leafValues></_>
    <_>
      <internalNodes>
        0 -1 50966 -1.2972038239240646e-02</internalNodes>
      <leafValues>
        5.4583811759948730e-01 -3.5956311970949173e-02</leafValues></_>
    <_>
      <internalNodes>
        0 -1 59029 -5.7527162134647369e-03</internalNodes>
      <leafValues>
        2.6130133867263794e-01 -6.9414995610713959e-02</leafValues></_>
    <_>
      <internalNodes>
        0 -1 43843 1.6517520416527987e-03</internalNodes>
      <leafValues>
        -1.0206752270460129e-01 1.8070566654205322e-01</leafValues></_>
    <_>
      <internalNodes>
        0 -1 77537 -3.5345531068742275e-03</internalNodes>
      <leafValues>
        -5.3316360712051392e-01 3.6296024918556213e-02</leafValues></_>
    <_>
      <internalNodes>
        0 -1 19671 8.5488520562648773e-03</internalNodes>
      <leafValues>
        4.8789385706186295e-02 -3.4560495615005493e-01</leafValues></_>
    <_>
      <internalNodes>
        0 -1 75516 -1.7726849764585495e-02</internalNodes>
      <leafValues>
        6.3045769929885864e-01 -3.3088989555835724e-02</leafValues></_>
    <_>
      <internalNodes>
        0 -1 74517 3.2988442108035088e-03</internalNodes>
      <leafValues>
        -6.5699450671672821e-02 2.5557318329811096e-01</leafValues></_>
    <_>
      <internalNodes>
        0 -1 62539 -1.8725331872701645e-02</internalNodes>
      <leafValues>
        -4.3608948588371277e-01 4.2269557714462280e-02</leafValues></_>
    <_>
      <internalNodes>
        0 -1 76796 1.1592603288590908e-02</internalNodes>
      <leafValues>
        -9.6564896404743195e-02 2.0166960358619690e-01</leafValues></_>
    <_>
      <internalNodes>
        0 -1 34568 3.0374046415090561e-02</internalNodes>
      <leafValues>
        2.2680478170514107e-02 -7.1605432033538818e-01</leafValues></_>
    <_>
      <internalNodes>
        0 -1 43225 2.1882691362407058e-04</internalNodes>
      <leafValues>
        -1.3230042159557343e-01 1.3645918667316437e-01</leafValues></_>
    <_>
      <internalNodes>
        0 -1 33804 -5.6540919467806816e-04</internalNodes>
      <leafValues>
        1.9012326002120972e-01 -9.3816816806793213e-02</leafValues></_>
    <_>
      <internalNodes>
        0 -1 34841 3.7744589149951935e-02</internalNodes>
      <leafValues>
        -6.5196864306926727e-02 2.8949069976806641e-01</leafValues></_>
    <_>
      <internalNodes>
        0 -1 74790 -1.7176480032503605e-03</internalNodes>
      <leafValues>
        2.0402055978775024e-01 -9.7261004149913788e-02</leafValues></_>
    <_>
      <internalNodes>
        0 -1 72765 -1.6476770862936974e-02</internalNodes>
      <leafValues>
        -3.2714352011680603e-01 5.7878110557794571e-02</leafValues></_>
    <_>
      <internalNodes>
        0 -1 33625 -5.2691274322569370e-04</internalNodes>
      <leafValues>
        2.0548838376998901e-01 -9.0245760977268219e-02</leafValues></_>
    <_>
      <internalNodes>
        0 -1 77995 1.2205421924591064e-02</internalNodes>
      <leafValues>
        4.5982006937265396e-02 -4.0859889984130859e-01</leafValues></_>
    <_>
      <internalNodes>
        0 -1 71322 -9.1148659586906433e-02</internalNodes>
      <leafValues>
        -3.9646220207214355e-01 4.6563845127820969e-02</leafValues></_>
    <_>
      <internalNodes>
        0 -1 51260 1.0666131274774671e-03</internalNodes>
      <leafValues>
        -7.9234786331653595e-02 2.4285206198692322e-01</leafValues></_>
    <_>
      <internalNodes>
        0 -1 75170 -2.9301090398803353e-04</internalNodes>
      <leafValues>
        -1.7282886803150177e-01 1.0943778604269028e-01</leafValues></_>
    <_>
      <internalNodes>
        0 -1 59534 -1.1496328748762608e-02</internalNodes>
      <leafValues>
        2.9388901591300964e-01 -7.5827144086360931e-02</leafValues></_>
    <_>
      <internalNodes>
        0 -1 78079 3.1279628165066242e-03</internalNodes>
      <leafValues>
        -9.3560822308063507e-02 2.0701275765895844e-01</leafValues></_>
    <_>
      <internalNodes>
        0 -1 78088 8.7543129920959473e-03</internalNodes>
      <leafValues>
        -7.8117266297340393e-02 2.4923583865165710e-01</leafValues></_>
    <_>
      <internalNodes>
        0 -1 44660 -5.9771733358502388e-03</internalNodes>
      <leafValues>
        -6.1949849128723145e-01 3.0036840587854385e-02</leafValues></_>
    <_>
      <internalNodes>
        0 -1 73506 6.9217998534440994e-03</internalNodes>
      <leafValues>
        -5.2414111793041229e-02 3.5751804709434509e-01</leafValues></_>
    <_>
      <internalNodes>
        0 -1 74708 -2.6636705733835697e-03</internalNodes>
      <leafValues>
        2.7703717350959778e-01 -6.4640142023563385e-02</leafValues></_></weakClassifiers></stage8>
</opencv_storage>
