<?xml version="1.0"?>
<opencv_storage>
<stage9>
  <maxWeakCount>64</maxWeakCount>
  <stageThreshold>-6.4023375511169434e-01</stageThreshold>
  <weakClassifiers>
    <_>
      <internalNodes>
        0 -1 76867 7.0193605497479439e-03</internalNodes>
      <leafValues>
        2.0361445844173431e-01 5.4038459062576294e-01</leafValues></_>
    <_>
      <internalNodes>
        0 -1 78233 2.5447714142501354e-03</internalNodes>
      <leafValues>
        -1.2695305049419403e-01 2.2835470736026764e-01</leafValues></_>
    <_>
      <internalNodes>
        0 -1 75705 2.6877219788730145e-03</internalNodes>
      <leafValues>
        -1.1159139871597290e-01 2.5090020895004272e-01</leafValues></_>
    <_>
      <internalNodes>
        0 -1 27040 8.2278558984398842e-03</internalNodes>
      <leafValues>
        -6.6703595221042633e-02 5.5623883008956909e-01</leafValues></_>
    <_>
      <internalNodes>
        0 -1 32872 -5.5776439607143402e-02</internalNodes>
      <leafValues>
        -5.5660253763198853e-01 2.6036536321043968e-02</leafValues></_>
    <_>
      <internalNodes>
        0 -1 27294 -7.2913332842290401e-03</internalNodes>
      <leafValues>
        -5.7403779029846191e-01 4.2740941047668457e-02</leafValues></_>
    <_>
      <internalNodes>
        0 -1 65436 -4.9907299689948559e-03</internalNodes>
      <leafValues>
        -6.0929322242736816e-01 3.5209275782108307e-02</leafValues></_>
    <_>
      <internalNodes>
        0 -1 33844 -5.1482361741364002e-03</internalNodes>
      <leafValues>
        1.8147732317447662e-01 -1.1708280444145203e-01</leafValues></_>
    <_>
      <internalNodes>
        0 -1 42983 4.4188469648361206e-02</internalNodes>
      <leafValues>
        -7.2592154145240784e-02 3.3135554194450378e-01</leafValues></_>
    <_>
      <internalNodes>
        0 -1 66549 -1.7507611482869834e-04</internalNodes>
      <leafValues>
        1.0681008547544479e-01 -1.9518128037452698e-01</leafValues></_>
    <_>
      <internalNodes>
        0 -1 73107 8.4732230752706528e-03</internalNodes>
      <leafValues>
        4.3964862823486328e-02 -5.2833002805709839e-01</leafValues></_>
    <_>
      <internalNodes>
        0 -1 54190 5.1105278544127941e-04</internalNodes>
      <leafValues>
        -1.2060981243848801e-01 1.6913288831710815e-01</leafValues></_>
    <_>
      <internalNodes>
        0 -1 18834 -1.9565887749195099e-02</internalNodes>
      <leafValues>
        -5.0763684511184692e-01 3.8197964429855347e-02</leafValues></_>
    <_>
      <internalNodes>
        0 -1 54691 -8.7020248174667358e-03</internalNodes>
      <leafValues>
        -4.7256231307983398e-01 4.3956536799669266e-02</leafValues></_>
    <_>
      <internalNodes>
        0 -1 58796 5.9505775570869446e-03</internalNodes>
      <leafValues>
        -9.6575863659381866e-02 2.3948387801647186e-01</leafValues></_>
    <_>
      <internalNodes>
        0 -1 59537 1.1822758242487907e-02</internalNodes>
      <leafValues>
        -7.5946934521198273e-02 3.2476824522018433e-01</leafValues></_>
    <_>
      <internalNodes>
        0 -1 77134 2.2549297660589218e-02</internalNodes>
      <leafValues>
        -6.5328121185302734e-02 3.3562704920768738e-01</leafValues></_>
    <_>
      <internalNodes>
        0 -1 71432 -2.2960249334573746e-03</internalNodes>
      <leafValues>
        2.2480669617652893e-01 -9.7654253244400024e-02</leafValues></_>
    <_>
      <internalNodes>
        0 -1 76193 1.0554388165473938e-02</internalNodes>
      <leafValues>
        5.1311392337083817e-02 -3.8797351717948914e-01</leafValues></_>
    <_>
      <internalNodes>
        0 -1 77044 -1.0414749383926392e-02</internalNodes>
      <leafValues>
        3.3888903260231018e-01 -6.5633982419967651e-02</leafValues></_>
    <_>
      <internalNodes>
        0 -1 2727 -1.7130596097558737e-03</internalNodes>
      <leafValues>
        -2.6014879345893860e-01 8.4634311497211456e-02</leafValues></_>
    <_>
      <internalNodes>
        0 -1 33891 -2.1855631843209267e-02</internalNodes>
      <leafValues>
        -6.0632532835006714e-01 3.8786575198173523e-02</leafValues></_>
    <_>
      <internalNodes>
        0 -1 13901 5.0316921260673553e-05</internalNodes>
      <leafValues>
        1.4018000662326813e-01 -1.4882564544677734e-01</leafValues></_>
    <_>
      <internalNodes>
        0 -1 19981 2.4456805549561977e-03</internalNodes>
      <leafValues>
        -6.5036267042160034e-02 3.7173473834991455e-01</leafValues></_>
    <_>
      <internalNodes>
        0 -1 55134 2.5933306664228439e-02</internalNodes>
      <leafValues>
        -4.4532094150781631e-02 4.6315050125122070e-01</leafValues></_>
    <_>
      <internalNodes>
        0 -1 7170 -1.3878308236598969e-03</internalNodes>
      <leafValues>
        1.8205170333385468e-01 -1.1500733345746994e-01</leafValues></_>
    <_>
      <internalNodes>
        0 -1 58348 7.8751385444775224e-04</internalNodes>
      <leafValues>
        -1.0653066635131836e-01 2.0140510797500610e-01</leafValues></_>
    <_>
      <internalNodes>
        0 -1 1154 3.6528420448303223e-01</internalNodes>
      <leafValues>
        -2.7347754687070847e-02 7.1340239048004150e-01</leafValues></_>
    <_>
      <internalNodes>
        0 -1 2127 3.1470926478505135e-03</internalNodes>
      <leafValues>
        -8.3226531744003296e-02 2.3424394428730011e-01</leafValues></_>
    <_>
      <internalNodes>
        0 -1 77175 5.6033707223832607e-03</internalNodes>
      <leafValues>
        -1.0109234601259232e-01 2.0808443427085876e-01</leafValues></_>
    <_>
      <internalNodes>
        0 -1 77669 9.3844596995040774e-04</internalNodes>
      <leafValues>
        9.9539197981357574e-02 -1.9761930406093597e-01</leafValues></_>
    <_>
      <internalNodes>
        0 -1 74757 4.3099356116726995e-04</internalNodes>
      <leafValues>
        -1.1712231487035751e-01 1.6991461813449860e-01</leafValues></_>
    <_>
      <internalNodes>
        0 -1 77173 -1.7727574333548546e-02</internalNodes>
      <leafValues>
        -9.2695260047912598e-01 2.4036614224314690e-02</leafValues></_>
    <_>
      <internalNodes>
        0 -1 39539 -2.6326016522943974e-03</internalNodes>
      <leafValues>
        1.5707440674304962e-01 -1.3578784465789795e-01</leafValues></_>
    <_>
      <internalNodes>
        0 -1 76380 -9.9069019779562950e-03</internalNodes>
      <leafValues>
        -6.5246909856796265e-01 2.8429692611098289e-02</leafValues></_>
    <_>
      <internalNodes>
        0 -1 71182 5.8769108727574348e-03</internalNodes>
      <leafValues>
        -7.3934756219387054e-02 2.6035958528518677e-01</leafValues></_>
    <_>
      <internalNodes>
        0 -1 39800 3.8679132703691721e-03</internalNodes>
      <leafValues>
        3.6599244922399521e-02 -5.7270771265029907e-01</leafValues></_>
    <_>
      <internalNodes>
        0 -1 4419 -1.4654075726866722e-02</internalNodes>
      <leafValues>
        3.1242045760154724e-01 -6.5938957035541534e-02</leafValues></_>
    <_>
      <internalNodes>
        0 -1 44071 9.8355568479746580e-04</internalNodes>
      <leafValues>
        -1.1529842764139175e-01 1.6874812543392181e-01</leafValues></_>
    <_>
      <internalNodes>
        0 -1 25772 9.3794744461774826e-03</internalNodes>
      <leafValues>
        4.7888237982988358e-02 -4.0749865770339966e-01</leafValues></_>
    <_>
      <internalNodes>
        0 -1 13056 -3.4314910881221294e-03</internalNodes>
      <leafValues>
        2.0574817061424255e-01 -1.0087700188159943e-01</leafValues></_>
    <_>
      <internalNodes>
        0 -1 10751 -2.2802772000432014e-03</internalNodes>
      <leafValues>
        1.6186559200286865e-01 -1.1745914071798325e-01</leafValues></_>
    <_>
      <internalNodes>
        0 -1 49187 7.0683698868378997e-04</internalNodes>
      <leafValues>
        -1.1359355598688126e-01 1.7232571542263031e-01</leafValues></_>
    <_>
      <internalNodes>
        0 -1 47251 7.1940349880605936e-04</internalNodes>
      <leafValues>
        -1.0236444324254990e-01 2.0015867054462433e-01</leafValues></_>
    <_>
      <internalNodes>
        0 -1 46396 -8.5246279835700989e-02</internalNodes>
      <leafValues>
        -7.6538026332855225e-01 3.0838670209050179e-02</leafValues></_>
    <_>
      <internalNodes>
        0 -1 50033 2.6393881998956203e-03</internalNodes>
      <leafValues>
        6.3263431191444397e-02 -2.8131055831909180e-01</leafValues></_>
    <_>
      <internalNodes>
        0 -1 67252 -4.8853491898626089e-04</internalNodes>
      <leafValues>
        1.6612569987773895e-01 -1.1355193704366684e-01</leafValues></_>
    <_>
      <internalNodes>
        0 -1 25796 -1.7311513423919678e-02</internalNodes>
      <leafValues>
        -4.3895360827445984e-01 4.3991036713123322e-02</leafValues></_>
    <_>
      <internalNodes>
        0 -1 72084 -1.9655354321002960e-02</internalNodes>
      <leafValues>
        -6.7961490154266357e-01 2.7309872210025787e-02</leafValues></_>
    <_>
      <internalNodes>
        0 -1 67620 4.0669523878023028e-04</internalNodes>
      <leafValues>
        1.1624059826135635e-01 -1.5831957757472992e-01</leafValues></_>
    <_>
      <internalNodes>
        0 -1 67472 1.0453762486577034e-02</internalNodes>
      <leafValues>
        -4.3116346001625061e-02 4.7558808326721191e-01</leafValues></_>
    <_>
      <internalNodes>
        0 -1 31230 2.5234268978238106e-03</internalNodes>
      <leafValues>
        -1.2984281778335571e-01 1.5121352672576904e-01</leafValues></_>
    <_>
      <internalNodes>
        0 -1 22235 7.5652850791811943e-03</internalNodes>
      <leafValues>
        -8.9148208498954773e-02 2.2584199905395508e-01</leafValues></_>
    <_>
      <internalNodes>
        0 -1 65755 1.2924632057547569e-02</internalNodes>
      <leafValues>
        5.7893853634595871e-02 -3.5558506846427917e-01</leafValues></_>
    <_>
      <internalNodes>
        0 -1 42122 -2.3106967564672232e-03</internalNodes>
      <leafValues>
        1.4247131347656250e-01 -1.4017219841480255e-01</leafValues></_>
    <_>
      <internalNodes>
        0 -1 59472 -1.0858699679374695e-01</internalNodes>
      <leafValues>
        4.5609200000762939e-01 -4.4294036924839020e-02</leafValues></_>
    <_>
      <internalNodes>
        0 -1 41961 -1.5144040808081627e-02</internalNodes>
      <leafValues>
        -4.3535056710243225e-01 4.7746591269969940e-02</leafValues></_>
    <_>
      <internalNodes>
        0 -1 27273 -7.9352955799549818e-04</internalNodes>
      <leafValues>
        1.9566516578197479e-01 -1.0025639086961746e-01</leafValues></_>
    <_>
      <internalNodes>
        0 -1 27269 -9.4635423738509417e-04</internalNodes>
      <leafValues>
        1.9695879518985748e-01 -1.1353860050439835e-01</leafValues></_>
    <_>
      <internalNodes>
        0 -1 5694 1.2380579719319940e-03</internalNodes>
      <leafValues>
        8.2382798194885254e-02 -2.5565946102142334e-01</leafValues></_>
    <_>
      <internalNodes>
        0 -1 78186 -1.6640956164337695e-04</internalNodes>
      <leafValues>
        -1.6996081173419952e-01 1.1614099889993668e-01</leafValues></_>
    <_>
      <internalNodes>
        0 -1 8501 -8.3544373046606779e-04</internalNodes>
      <leafValues>
        1.6320842504501343e-01 -1.1344826221466064e-01</leafValues></_>
    <_>
      <internalNodes>
        0 -1 36296 -5.4533801972866058e-02</internalNodes>
      <leafValues>
        -6.8319857120513916e-01 2.9114367440342903e-02</leafValues></_>
    <_>
      <internalNodes>
        0 -1 46058 5.3297332488000393e-04</internalNodes>
      <leafValues>
        -1.1056971549987793e-01 1.8392726778984070e-01</leafValues></_></weakClassifiers></stage9>
</opencv_storage>
