<?xml version="1.0"?>
<opencv_storage>
<stage1>
  <maxWeakCount>35</maxWeakCount>
  <stageThreshold>-8.2898682355880737e-01</stageThreshold>
  <weakClassifiers>
    <_>
      <internalNodes>
        0 -1 68916 6.4614741131663322e-03</internalNodes>
      <leafValues>
        1.4061625301837921e-01 7.0928961038589478e-01</leafValues></_>
    <_>
      <internalNodes>
        0 -1 77028 4.9905083142220974e-03</internalNodes>
      <leafValues>
        -1.8662419915199280e-01 4.3492096662521362e-01</leafValues></_>
    <_>
      <internalNodes>
        0 -1 66204 2.6676371693611145e-02</internalNodes>
      <leafValues>
        -1.3856987655162811e-01 6.5894579887390137e-01</leafValues></_>
    <_>
      <internalNodes>
        0 -1 73952 -3.2128142192959785e-03</internalNodes>
      <leafValues>
        3.0638369917869568e-01 -1.9861344993114471e-01</leafValues></_>
    <_>
      <internalNodes>
        0 -1 68601 2.3793322034180164e-03</internalNodes>
      <leafValues>
        -1.6143731772899628e-01 3.0651929974555969e-01</leafValues></_>
    <_>
      <internalNodes>
        0 -1 77978 -5.8896625414490700e-03</internalNodes>
      <leafValues>
        2.3765628039836884e-01 -2.1658639609813690e-01</leafValues></_>
    <_>
      <internalNodes>
        0 -1 49778 -4.9050216330215335e-04</internalNodes>
      <leafValues>
        2.5046303868293762e-01 -2.0969146490097046e-01</leafValues></_>
    <_>
      <internalNodes>
        0 -1 17817 -8.9762912830337882e-04</internalNodes>
      <leafValues>
        2.6339051127433777e-01 -1.7607681453227997e-01</leafValues></_>
    <_>
      <internalNodes>
        0 -1 64734 -1.4408382121473551e-03</internalNodes>
      <leafValues>
        2.9018622636795044e-01 -1.6002707183361053e-01</leafValues></_>
    <_>
      <internalNodes>
        0 -1 19987 7.9767161514610052e-04</internalNodes>
      <leafValues>
        -1.7563392221927643e-01 2.6739194989204407e-01</leafValues></_>
    <_>
      <internalNodes>
        0 -1 32669 -8.3975127199664712e-04</internalNodes>
      <leafValues>
        2.7110815048217773e-01 -1.5773893892765045e-01</leafValues></_>
    <_>
      <internalNodes>
        0 -1 35153 -1.0117212310433388e-02</internalNodes>
      <leafValues>
        2.3969548940658569e-01 -1.7423844337463379e-01</leafValues></_>
    <_>
      <internalNodes>
        0 -1 50689 -7.2228029370307922e-02</internalNodes>
      <leafValues>
        4.3004384636878967e-01 -9.6799336373806000e-02</leafValues></_>
    <_>
      <internalNodes>
        0 -1 77790 1.2091677635908127e-02</internalNodes>
      <leafValues>
        -6.4527899026870728e-02 5.8298581838607788e-01</leafValues></_>
    <_>
      <internalNodes>
        0 -1 77667 1.2032754719257355e-02</internalNodes>
      <leafValues>
        -7.0015877485275269e-02 6.4551359415054321e-01</leafValues></_>
    <_>
      <internalNodes>
        0 -1 27294 7.7832315582782030e-04</internalNodes>
      <leafValues>
        -1.6868795454502106e-01 2.3058100044727325e-01</leafValues></_>
    <_>
      <internalNodes>
        0 -1 72185 -1.5886293258517981e-03</internalNodes>
      <leafValues>
        2.0765304565429688e-01 -1.6118091344833374e-01</leafValues></_>
    <_>
      <internalNodes>
        0 -1 44909 1.9352344796061516e-02</internalNodes>
      <leafValues>
        -9.7061514854431152e-02 3.6876487731933594e-01</leafValues></_>
    <_>
      <internalNodes>
        0 -1 68596 -5.6854239664971828e-04</internalNodes>
      <leafValues>
        2.4511943757534027e-01 -1.4187566936016083e-01</leafValues></_>
    <_>
      <internalNodes>
        0 -1 77359 3.7491526454687119e-03</internalNodes>
      <leafValues>
        5.2808329463005066e-02 -7.3039120435714722e-01</leafValues></_>
    <_>
      <internalNodes>
        0 -1 65983 1.6433510929346085e-02</internalNodes>
      <leafValues>
        -8.6792655289173126e-02 4.7342655062675476e-01</leafValues></_>
    <_>
      <internalNodes>
        0 -1 55313 -4.9318358302116394e-02</internalNodes>
      <leafValues>
        -5.5665469169616699e-01 6.9978058338165283e-02</leafValues></_>
    <_>
      <internalNodes>
        0 -1 62168 -5.4215416312217712e-03</internalNodes>
      <leafValues>
        -8.2260733842849731e-01 3.4812785685062408e-02</leafValues></_>
    <_>
      <internalNodes>
        0 -1 20329 -7.9168216325342655e-04</internalNodes>
      <leafValues>
        2.1603558957576752e-01 -1.6722719371318817e-01</leafValues></_>
    <_>
      <internalNodes>
        0 -1 51998 4.6484111226163805e-04</internalNodes>
      <leafValues>
        -1.3296334445476532e-01 2.3946152627468109e-01</leafValues></_>
    <_>
      <internalNodes>
        0 -1 71466 2.5100775063037872e-02</internalNodes>
      <leafValues>
        6.0225896537303925e-02 -5.7186520099639893e-01</leafValues></_>
    <_>
      <internalNodes>
        0 -1 77696 5.3864689543843269e-03</internalNodes>
      <leafValues>
        -1.5439711511135101e-01 2.2630158066749573e-01</leafValues></_>
    <_>
      <internalNodes>
        0 -1 32373 -3.8458290509879589e-04</internalNodes>
      <leafValues>
        1.7002980411052704e-01 -2.1007266640663147e-01</leafValues></_>
    <_>
      <internalNodes>
        0 -1 6853 -2.0708337426185608e-02</internalNodes>
      <leafValues>
        -2.7186074852943420e-01 1.2718357145786285e-01</leafValues></_>
    <_>
      <internalNodes>
        0 -1 57952 -4.4411380076780915e-04</internalNodes>
      <leafValues>
        2.3184897005558014e-01 -1.7172484099864960e-01</leafValues></_>
    <_>
      <internalNodes>
        0 -1 78371 -2.5978656485676765e-03</internalNodes>
      <leafValues>
        2.5531578063964844e-01 -1.2403004616498947e-01</leafValues></_>
    <_>
      <internalNodes>
        0 -1 77928 1.7927102744579315e-02</internalNodes>
      <leafValues>
        -5.5962227284908295e-02 6.8964618444442749e-01</leafValues></_>
    <_>
      <internalNodes>
        0 -1 10231 -8.4898248314857483e-04</internalNodes>
      <leafValues>
        2.5135332345962524e-01 -1.4034116268157959e-01</leafValues></_>
    <_>
      <internalNodes>
        0 -1 53320 -1.8198970705270767e-02</internalNodes>
      <leafValues>
        5.3781270980834961e-01 -6.0183160006999969e-02</leafValues></_>
    <_>
      <internalNodes>
        0 -1 66165 5.7690870016813278e-03</internalNodes>
      <leafValues>
        -1.3748112320899963e-01 2.3970884084701538e-01</leafValues></_></weakClassifiers></stage1>
</opencv_storage>
