<?xml version="1.0"?>
<opencv_storage>
<stage1>
  <maxWeakCount>23</maxWeakCount>
  <stageThreshold>-1.0179857015609741e+00</stageThreshold>
  <weakClassifiers>
    <_>
      <internalNodes>
        0 -1 66469 1.6222938895225525e-02</internalNodes>
      <leafValues>
        3.9548020809888840e-02 7.5609755516052246e-01</leafValues></_>
    <_>
      <internalNodes>
        0 -1 29117 1.0018031112849712e-02</internalNodes>
      <leafValues>
        -1.6063976287841797e-01 5.8414334058761597e-01</leafValues></_>
    <_>
      <internalNodes>
        0 -1 71961 -1.6120551154017448e-02</internalNodes>
      <leafValues>
        4.0187990665435791e-01 -1.9252209365367889e-01</leafValues></_>
    <_>
      <internalNodes>
        0 -1 55557 1.8085632473230362e-02</internalNodes>
      <leafValues>
        -1.7421534657478333e-01 4.6671953797340393e-01</leafValues></_>
    <_>
      <internalNodes>
        0 -1 39561 3.5842014476656914e-03</internalNodes>
      <leafValues>
        -2.0876319706439972e-01 3.5469856858253479e-01</leafValues></_>
    <_>
      <internalNodes>
        0 -1 75831 -2.7020331472158432e-03</internalNodes>
      <leafValues>
        3.1467580795288086e-01 -2.3091527819633484e-01</leafValues></_>
    <_>
      <internalNodes>
        0 -1 23123 -7.9736951738595963e-03</internalNodes>
      <leafValues>
        3.4319406747817993e-01 -1.9865088164806366e-01</leafValues></_>
    <_>
      <internalNodes>
        0 -1 9000 -1.5175056643784046e-02</internalNodes>
      <leafValues>
        3.4500366449356079e-01 -1.8499860167503357e-01</leafValues></_>
    <_>
      <internalNodes>
        0 -1 68135 -2.0066127181053162e-03</internalNodes>
      <leafValues>
        2.5681322813034058e-01 -2.1380087733268738e-01</leafValues></_>
    <_>
      <internalNodes>
        0 -1 49368 9.0909271966665983e-04</internalNodes>
      <leafValues>
        -1.5883126854896545e-01 3.6401697993278503e-01</leafValues></_>
    <_>
      <internalNodes>
        0 -1 77098 -2.3643265012651682e-03</internalNodes>
      <leafValues>
        3.0670431256294250e-01 -1.7564406991004944e-01</leafValues></_>
    <_>
      <internalNodes>
        0 -1 45346 -2.6055134367197752e-03</internalNodes>
      <leafValues>
        3.3759248256683350e-01 -1.5307417511940002e-01</leafValues></_>
    <_>
      <internalNodes>
        0 -1 46379 -6.9499770179390907e-03</internalNodes>
      <leafValues>
        3.6003756523132324e-01 -1.4600205421447754e-01</leafValues></_>
    <_>
      <internalNodes>
        0 -1 66463 3.0732699669897556e-03</internalNodes>
      <leafValues>
        -1.8069165945053101e-01 3.9494800567626953e-01</leafValues></_>
    <_>
      <internalNodes>
        0 -1 46238 -7.0801731199026108e-03</internalNodes>
      <leafValues>
        4.5054376125335693e-01 -1.0439189523458481e-01</leafValues></_>
    <_>
      <internalNodes>
        0 -1 69461 1.4585893601179123e-02</internalNodes>
      <leafValues>
        -9.2117130756378174e-02 6.1742430925369263e-01</leafValues></_>
    <_>
      <internalNodes>
        0 -1 49793 4.9549196846783161e-03</internalNodes>
      <leafValues>
        -1.1333545297384262e-01 4.0810379385948181e-01</leafValues></_>
    <_>
      <internalNodes>
        0 -1 6998 1.9034637371078134e-03</internalNodes>
      <leafValues>
        -1.8497106432914734e-01 2.7339205145835876e-01</leafValues></_>
    <_>
      <internalNodes>
        0 -1 75701 -2.8497233870439231e-04</internalNodes>
      <leafValues>
        2.1847470104694366e-01 -2.0688287913799286e-01</leafValues></_>
    <_>
      <internalNodes>
        0 -1 74114 -5.9210223844274879e-04</internalNodes>
      <leafValues>
        2.6695278286933899e-01 -1.8818120658397675e-01</leafValues></_>
    <_>
      <internalNodes>
        0 -1 76203 -6.1177473980933428e-04</internalNodes>
      <leafValues>
        2.9430508613586426e-01 -1.5952262282371521e-01</leafValues></_>
    <_>
      <internalNodes>
        0 -1 24013 1.8689972348511219e-03</internalNodes>
      <leafValues>
        -1.4385361969470978e-01 3.0779692530632019e-01</leafValues></_>
    <_>
      <internalNodes>
        0 -1 68839 1.2158716097474098e-02</internalNodes>
      <leafValues>
        -5.5184222757816315e-02 7.4493956565856934e-01</leafValues></_></weakClassifiers></stage1>
</opencv_storage>
