<?xml version="1.0"?>
<opencv_storage>
<stage10>
  <maxWeakCount>100</maxWeakCount>
  <stageThreshold>-5.8292955160140991e-01</stageThreshold>
  <weakClassifiers>
    <_>
      <internalNodes>
        0 -1 33345 -1.7170358449220657e-02</internalNodes>
      <leafValues>
        7.7611941099166870e-01 3.1021043658256531e-01</leafValues></_>
    <_>
      <internalNodes>
        0 -1 33345 -1.6829557716846466e-02</internalNodes>
      <leafValues>
        -9.6080720424652100e-01 1.1967492289841175e-02</leafValues></_>
    <_>
      <internalNodes>
        0 -1 33345 -1.6760103404521942e-02</internalNodes>
      <leafValues>
        8.4239548444747925e-01 -2.9713628464378417e-04</leafValues></_>
    <_>
      <internalNodes>
        0 -1 33345 -1.6679026186466217e-02</internalNodes>
      <leafValues>
        -9.5255208015441895e-01 5.6721497094258666e-04</leafValues></_>
    <_>
      <internalNodes>
        0 -1 33345 -1.6539556905627251e-02</internalNodes>
      <leafValues>
        8.7209039926528931e-01 -2.9788495157845318e-04</leafValues></_>
    <_>
      <internalNodes>
        0 -1 75569 5.1399893127381802e-03</internalNodes>
      <leafValues>
        -8.9543327689170837e-02 1.4669966697692871e-01</leafValues></_>
    <_>
      <internalNodes>
        0 -1 33345 -1.6427189111709595e-02</internalNodes>
      <leafValues>
        -9.3985706567764282e-01 1.2844113633036613e-02</leafValues></_>
    <_>
      <internalNodes>
        0 -1 33345 -1.6539556905627251e-02</internalNodes>
      <leafValues>
        8.9284491539001465e-01 -2.5767559418454766e-04</leafValues></_>
    <_>
      <internalNodes>
        0 -1 71184 -1.2322935275733471e-02</internalNodes>
      <leafValues>
        4.6429023146629333e-01 -1.5081533230841160e-02</leafValues></_>
    <_>
      <internalNodes>
        0 -1 71184 -1.2300154194235802e-02</internalNodes>
      <leafValues>
        -1. 7.8995019430294633e-04</leafValues></_>
    <_>
      <internalNodes>
        0 -1 71184 -1.2265151366591454e-02</internalNodes>
      <leafValues>
        7.8908151388168335e-01 -6.7079742439091206e-04</leafValues></_>
    <_>
      <internalNodes>
        0 -1 71184 -1.2195903807878494e-02</internalNodes>
      <leafValues>
        -1. 5.3218158427625895e-04</leafValues></_>
    <_>
      <internalNodes>
        0 -1 71184 -1.2122507207095623e-02</internalNodes>
      <leafValues>
        9.5529979467391968e-01 -3.3573654945939779e-04</leafValues></_>
    <_>
      <internalNodes>
        0 -1 64527 1.5389569103717804e-01</internalNodes>
      <leafValues>
        -2.2740513086318970e-02 4.7914981842041016e-01</leafValues></_>
    <_>
      <internalNodes>
        0 -1 64527 1.5022224187850952e-01</internalNodes>
      <leafValues>
        4.6517378650605679e-03 -9.7783428430557251e-01</leafValues></_>
    <_>
      <internalNodes>
        0 -1 64527 1.4814354479312897e-01</internalNodes>
      <leafValues>
        -1.8673019949346781e-03 7.8234457969665527e-01</leafValues></_>
    <_>
      <internalNodes>
        0 -1 64527 1.4695405960083008e-01</internalNodes>
      <leafValues>
        1.2046112678945065e-03 -9.6920263767242432e-01</leafValues></_>
    <_>
      <internalNodes>
        0 -1 64527 1.4519441127777100e-01</internalNodes>
      <leafValues>
        -1.5982344048097730e-03 9.5356065034866333e-01</leafValues></_>
    <_>
      <internalNodes>
        0 -1 64527 1.4483626186847687e-01</internalNodes>
      <leafValues>
        6.7438802216202021e-04 -9.6920400857925415e-01</leafValues></_>
    <_>
      <internalNodes>
        0 -1 64527 1.4454755187034607e-01</internalNodes>
      <leafValues>
        -6.9965107832103968e-04 9.5535975694656372e-01</leafValues></_>
    <_>
      <internalNodes>
        0 -1 64527 1.4440496265888214e-01</internalNodes>
      <leafValues>
        5.3313357057049870e-04 -9.6910387277603149e-01</leafValues></_>
    <_>
      <internalNodes>
        0 -1 64527 1.4377686381340027e-01</internalNodes>
      <leafValues>
        -9.0370990801602602e-04 9.5703071355819702e-01</leafValues></_>
    <_>
      <internalNodes>
        0 -1 64527 1.4328929781913757e-01</internalNodes>
      <leafValues>
        5.3370255045592785e-04 -9.6910208463668823e-01</leafValues></_>
    <_>
      <internalNodes>
        0 -1 64527 1.4283889532089233e-01</internalNodes>
      <leafValues>
        -9.7927742172032595e-04 9.5853108167648315e-01</leafValues></_>
    <_>
      <internalNodes>
        0 -1 73313 -4.1954410262405872e-03</internalNodes>
      <leafValues>
        -5.3445935249328613e-01 1.7133912071585655e-02</leafValues></_>
    <_>
      <internalNodes>
        0 -1 64527 1.4210112392902374e-01</internalNodes>
      <leafValues>
        4.4987690635025501e-03 -8.0898350477218628e-01</leafValues></_>
    <_>
      <internalNodes>
        0 -1 64527 1.3984638452529907e-01</internalNodes>
      <leafValues>
        -1.2496818089857697e-03 8.2693958282470703e-01</leafValues></_>
    <_>
      <internalNodes>
        0 -1 64527 1.3955023884773254e-01</internalNodes>
      <leafValues>
        6.9494207855314016e-04 -8.2000249624252319e-01</leafValues></_>
    <_>
      <internalNodes>
        0 -1 64527 1.3852918148040771e-01</internalNodes>
      <leafValues>
        -1.2414397206157446e-03 8.1978613138198853e-01</leafValues></_>
    <_>
      <internalNodes>
        0 -1 64527 1.3424029946327209e-01</internalNodes>
      <leafValues>
        4.6811024658381939e-03 -7.2138655185699463e-01</leafValues></_>
    <_>
      <internalNodes>
        0 -1 64527 1.3723796606063843e-01</internalNodes>
      <leafValues>
        3.5404536174610257e-04 7.8303325176239014e-01</leafValues></_>
    <_>
      <internalNodes>
        0 -1 64527 1.3841336965560913e-01</internalNodes>
      <leafValues>
        1.2127801164751872e-04 -8.4333598613739014e-01</leafValues></_>
    <_>
      <internalNodes>
        0 -1 64527 1.3802866637706757e-01</internalNodes>
      <leafValues>
        -1.2253184104338288e-03 8.0048215389251709e-01</leafValues></_>
    <_>
      <internalNodes>
        0 -1 64527 1.3777604699134827e-01</internalNodes>
      <leafValues>
        1.1734602740034461e-03 -8.3743971586227417e-01</leafValues></_>
    <_>
      <internalNodes>
        0 -1 64527 1.3760942220687866e-01</internalNodes>
      <leafValues>
        -3.2848425325937569e-04 8.1605207920074463e-01</leafValues></_>
    <_>
      <internalNodes>
        0 -1 64527 1.3754355907440186e-01</internalNodes>
      <leafValues>
        5.8776501100510359e-04 -8.3438783884048462e-01</leafValues></_>
    <_>
      <internalNodes>
        0 -1 64527 1.3723796606063843e-01</internalNodes>
      <leafValues>
        -3.2870066934265196e-04 8.2338941097259521e-01</leafValues></_>
    <_>
      <internalNodes>
        0 -1 64527 1.3671372830867767e-01</internalNodes>
      <leafValues>
        3.4063772181980312e-04 -8.3300870656967163e-01</leafValues></_>
    <_>
      <internalNodes>
        0 -1 64527 1.3621401786804199e-01</internalNodes>
      <leafValues>
        -7.1972928708419204e-04 8.2794308662414551e-01</leafValues></_>
    <_>
      <internalNodes>
        0 -1 39303 3.7211596965789795e-02</internalNodes>
      <leafValues>
        -4.5409515500068665e-02 2.7802819013595581e-01</leafValues></_>
    <_>
      <internalNodes>
        0 -1 20127 -6.3213229179382324e-02</internalNodes>
      <leafValues>
        5.6247657537460327e-01 -3.8555387407541275e-02</leafValues></_>
    <_>
      <internalNodes>
        0 -1 13136 -7.0979669690132141e-02</internalNodes>
      <leafValues>
        -7.9727387428283691e-01 2.5186281651258469e-02</leafValues></_>
    <_>
      <internalNodes>
        0 -1 13136 -7.0233486592769623e-02</internalNodes>
      <leafValues>
        6.8789482116699219e-01 -8.7297484278678894e-03</leafValues></_>
    <_>
      <internalNodes>
        0 -1 27447 3.4857921302318573e-02</internalNodes>
      <leafValues>
        4.1297022253274918e-02 -2.6577088236808777e-01</leafValues></_>
    <_>
      <internalNodes>
        0 -1 23890 -7.3206156492233276e-02</internalNodes>
      <leafValues>
        6.4144909381866455e-01 -1.2458787299692631e-02</leafValues></_>
    <_>
      <internalNodes>
        0 -1 2184 8.4154345095157623e-03</internalNodes>
      <leafValues>
        -6.0206141322851181e-02 1.6788822412490845e-01</leafValues></_>
    <_>
      <internalNodes>
        0 -1 3376 -4.5498963445425034e-03</internalNodes>
      <leafValues>
        1.4876995980739594e-01 -8.6608082056045532e-02</leafValues></_>
    <_>
      <internalNodes>
        0 -1 27818 1.5795940998941660e-03</internalNodes>
      <leafValues>
        7.7025994658470154e-02 -1.4197058975696564e-01</leafValues></_>
    <_>
      <internalNodes>
        0 -1 62910 -1.2868374586105347e-01</internalNodes>
      <leafValues>
        2.8169932961463928e-01 -3.5874828696250916e-02</leafValues></_>
    <_>
      <internalNodes>
        0 -1 69887 2.1150704473257065e-02</internalNodes>
      <leafValues>
        -8.5371367633342743e-02 1.8677343428134918e-01</leafValues></_>
    <_>
      <internalNodes>
        0 -1 21526 1.0973916389048100e-02</internalNodes>
      <leafValues>
        -2.7997411787509918e-02 3.4113559126853943e-01</leafValues></_>
    <_>
      <internalNodes>
        0 -1 64732 -3.7974687293171883e-03</internalNodes>
      <leafValues>
        -4.3597495555877686e-01 2.6979360729455948e-02</leafValues></_>
    <_>
      <internalNodes>
        0 -1 32324 6.4329337328672409e-04</internalNodes>
      <leafValues>
        7.2497405111789703e-02 -1.5512789785861969e-01</leafValues></_>
    <_>
      <internalNodes>
        0 -1 32331 7.8156646341085434e-03</internalNodes>
      <leafValues>
        -3.2384030520915985e-02 3.5169848799705505e-01</leafValues></_>
    <_>
      <internalNodes>
        0 -1 32026 4.1738525032997131e-02</internalNodes>
      <leafValues>
        -2.8314206749200821e-02 3.3802637457847595e-01</leafValues></_>
    <_>
      <internalNodes>
        0 -1 73690 -3.0487321782857180e-04</internalNodes>
      <leafValues>
        -1.2009499222040176e-01 9.3907602131366730e-02</leafValues></_>
    <_>
      <internalNodes>
        0 -1 72600 6.2037967145442963e-02</internalNodes>
      <leafValues>
        1.9493108615279198e-02 -5.8220762014389038e-01</leafValues></_>
    <_>
      <internalNodes>
        0 -1 70918 7.1136392652988434e-03</internalNodes>
      <leafValues>
        -5.5692654103040695e-02 2.0265740156173706e-01</leafValues></_>
    <_>
      <internalNodes>
        0 -1 76472 -1.4098717365413904e-03</internalNodes>
      <leafValues>
        -2.2765205800533295e-01 4.8643674701452255e-02</leafValues></_>
    <_>
      <internalNodes>
        0 -1 52062 2.0904056727886200e-02</internalNodes>
      <leafValues>
        -3.5244457423686981e-02 3.0889260768890381e-01</leafValues></_>
    <_>
      <internalNodes>
        0 -1 9351 4.9029447138309479e-02</internalNodes>
      <leafValues>
        7.1043528616428375e-02 -1.5257143974304199e-01</leafValues></_>
    <_>
      <internalNodes>
        0 -1 68139 -1.1620111763477325e-02</internalNodes>
      <leafValues>
        2.4877640604972839e-01 -4.4068846851587296e-02</leafValues></_>
    <_>
      <internalNodes>
        0 -1 43847 -6.0040000826120377e-03</internalNodes>
      <leafValues>
        -1.7149601876735687e-01 6.8389050662517548e-02</leafValues></_>
    <_>
      <internalNodes>
        0 -1 59690 1.2750145979225636e-02</internalNodes>
      <leafValues>
        -3.5665087401866913e-02 2.8598171472549438e-01</leafValues></_>
    <_>
      <internalNodes>
        0 -1 64732 2.6850446010939777e-04</internalNodes>
      <leafValues>
        8.6147017776966095e-02 -1.2672270834445953e-01</leafValues></_>
    <_>
      <internalNodes>
        0 -1 1877 3.5282397270202637e-01</internalNodes>
      <leafValues>
        3.2371580600738525e-02 -3.0022314190864563e-01</leafValues></_>
    <_>
      <internalNodes>
        0 -1 5201 3.7676356732845306e-02</internalNodes>
      <leafValues>
        -9.0303659439086914e-02 1.1996021866798401e-01</leafValues></_>
    <_>
      <internalNodes>
        0 -1 5322 3.1473282724618912e-03</internalNodes>
      <leafValues>
        -7.0779085159301758e-02 1.5030592679977417e-01</leafValues></_>
    <_>
      <internalNodes>
        0 -1 51324 4.3439999222755432e-02</internalNodes>
      <leafValues>
        -1.6895230859518051e-02 5.9644371271133423e-01</leafValues></_>
    <_>
      <internalNodes>
        0 -1 41813 4.9635190516710281e-02</internalNodes>
      <leafValues>
        1.8628062680363655e-02 -6.6936475038528442e-01</leafValues></_>
    <_>
      <internalNodes>
        0 -1 25800 -1.9657418131828308e-02</internalNodes>
      <leafValues>
        4.2751345038414001e-01 -2.6841232553124428e-02</leafValues></_>
    <_>
      <internalNodes>
        0 -1 25803 -3.9544750005006790e-02</internalNodes>
      <leafValues>
        -5.3412812948226929e-01 2.3013442754745483e-02</leafValues></_>
    <_>
      <internalNodes>
        0 -1 71196 -1.7071090638637543e-02</internalNodes>
      <leafValues>
        6.9499742984771729e-01 -1.6616612672805786e-02</leafValues></_>
    <_>
      <internalNodes>
        0 -1 73156 8.1789796240627766e-05</internalNodes>
      <leafValues>
        -9.2076748609542847e-02 1.1194609105587006e-01</leafValues></_>
    <_>
      <internalNodes>
        0 -1 24510 1.7295861616730690e-02</internalNodes>
      <leafValues>
        -2.5585521012544632e-02 3.7858614325523376e-01</leafValues></_>
    <_>
      <internalNodes>
        0 -1 8968 -6.1291134916245937e-03</internalNodes>
      <leafValues>
        -5.6920993328094482e-01 1.9768292084336281e-02</leafValues></_>
    <_>
      <internalNodes>
        0 -1 6121 2.9416249599307775e-03</internalNodes>
      <leafValues>
        5.4952662438154221e-02 -1.8204693496227264e-01</leafValues></_>
    <_>
      <internalNodes>
        0 -1 6378 3.9268404245376587e-02</internalNodes>
      <leafValues>
        -1.6857186332345009e-02 6.2834852933883667e-01</leafValues></_>
    <_>
      <internalNodes>
        0 -1 27299 -7.9238563776016235e-03</internalNodes>
      <leafValues>
        2.1127630770206451e-01 -4.7334693372249603e-02</leafValues></_>
    <_>
      <internalNodes>
        0 -1 45026 2.7030122000724077e-03</internalNodes>
      <leafValues>
        3.1739167869091034e-02 -3.6758050322532654e-01</leafValues></_>
    <_>
      <internalNodes>
        0 -1 39216 -2.5536634027957916e-02</internalNodes>
      <leafValues>
        8.0588912963867188e-01 -1.2110208161175251e-02</leafValues></_>
    <_>
      <internalNodes>
        0 -1 78407 2.3381149396300316e-02</internalNodes>
      <leafValues>
        -1.2162431143224239e-02 6.6358327865600586e-01</leafValues></_>
    <_>
      <internalNodes>
        0 -1 27979 2.5230281054973602e-02</internalNodes>
      <leafValues>
        -2.0197739824652672e-02 4.8121061921119690e-01</leafValues></_>
    <_>
      <internalNodes>
        0 -1 29644 -3.7830585241317749e-01</internalNodes>
      <leafValues>
        9.4531297683715820e-01 -1.0139830410480499e-02</leafValues></_>
    <_>
      <internalNodes>
        0 -1 77841 2.1205982193350792e-04</internalNodes>
      <leafValues>
        8.7905459105968475e-02 -1.1994533240795135e-01</leafValues></_>
    <_>
      <internalNodes>
        0 -1 52006 -7.4866423383355141e-03</internalNodes>
      <leafValues>
        2.5725182890892029e-01 -4.0542952716350555e-02</leafValues></_>
    <_>
      <internalNodes>
        0 -1 134 -2.0495155826210976e-02</internalNodes>
      <leafValues>
        4.8739078640937805e-01 -1.9780440255999565e-02</leafValues></_>
    <_>
      <internalNodes>
        0 -1 7368 2.4561041500419378e-03</internalNodes>
      <leafValues>
        7.0367962121963501e-02 -1.4439688622951508e-01</leafValues></_>
    <_>
      <internalNodes>
        0 -1 73986 5.6999200023710728e-03</internalNodes>
      <leafValues>
        1.5908116474747658e-02 -6.6096210479736328e-01</leafValues></_>
    <_>
      <internalNodes>
        0 -1 42073 -2.5327268987894058e-02</internalNodes>
      <leafValues>
        2.2029756009578705e-01 -5.1287516951560974e-02</leafValues></_>
    <_>
      <internalNodes>
        0 -1 72944 6.7165107466280460e-03</internalNodes>
      <leafValues>
        2.6359133422374725e-02 -4.0946230292320251e-01</leafValues></_>
    <_>
      <internalNodes>
        0 -1 74385 2.4952688254415989e-03</internalNodes>
      <leafValues>
        -7.6947107911109924e-02 1.4489163458347321e-01</leafValues></_>
    <_>
      <internalNodes>
        0 -1 55358 -2.8883237391710281e-02</internalNodes>
      <leafValues>
        2.0395943522453308e-01 -5.3476739674806595e-02</leafValues></_>
    <_>
      <internalNodes>
        0 -1 48826 1.8614936619997025e-02</internalNodes>
      <leafValues>
        -4.0908470749855042e-02 2.5519287586212158e-01</leafValues></_>
    <_>
      <internalNodes>
        0 -1 69089 8.1727430224418640e-02</internalNodes>
      <leafValues>
        1.6356604173779488e-02 -6.9859904050827026e-01</leafValues></_>
    <_>
      <internalNodes>
        0 -1 7493 -9.8067391663789749e-03</internalNodes>
      <leafValues>
        -3.2080313563346863e-01 3.3020418137311935e-02</leafValues></_>
    <_>
      <internalNodes>
        0 -1 49894 2.7878815308213234e-04</internalNodes>
      <leafValues>
        -9.6661075949668884e-02 1.1211971193552017e-01</leafValues></_>
    <_>
      <internalNodes>
        0 -1 65621 -1.5926614403724670e-02</internalNodes>
      <leafValues>
        6.0886943340301514e-01 -1.7168702557682991e-02</leafValues></_>
    <_>
      <internalNodes>
        0 -1 5516 -2.5715403258800507e-02</internalNodes>
      <leafValues>
        -6.5761846303939819e-01 1.8315946683287621e-02</leafValues></_>
    <_>
      <internalNodes>
        0 -1 72831 -1.3891421258449554e-02</internalNodes>
      <leafValues>
        -6.3119965791702271e-01 1.6336807981133461e-02</leafValues></_></weakClassifiers></stage10>
</opencv_storage>
