<?xml version="1.0"?>
<opencv_storage>
<stage3>
  <maxWeakCount>30</maxWeakCount>
  <stageThreshold>-8.9945107698440552e-01</stageThreshold>
  <weakClassifiers>
    <_>
      <internalNodes>
        0 -1 67086 -2.1576904691755772e-04</internalNodes>
      <leafValues>
        -4.2986425757408142e-01 4.8272806406021118e-01</leafValues></_>
    <_>
      <internalNodes>
        0 -1 47056 4.7851935029029846e-02</internalNodes>
      <leafValues>
        -2.6247379183769226e-01 3.8368815183639526e-01</leafValues></_>
    <_>
      <internalNodes>
        0 -1 63860 -2.2714634542353451e-04</internalNodes>
      <leafValues>
        2.5525665283203125e-01 -3.4284284710884094e-01</leafValues></_>
    <_>
      <internalNodes>
        0 -1 63862 5.1276896556373686e-05</internalNodes>
      <leafValues>
        -3.4591212868690491e-01 2.0880693197250366e-01</leafValues></_>
    <_>
      <internalNodes>
        0 -1 69606 4.3226993875578046e-04</internalNodes>
      <leafValues>
        -3.0388739705085754e-01 2.5134131312370300e-01</leafValues></_>
    <_>
      <internalNodes>
        0 -1 69975 5.5186581448651850e-05</internalNodes>
      <leafValues>
        -3.8836261630058289e-01 2.4341845512390137e-01</leafValues></_>
    <_>
      <internalNodes>
        0 -1 22251 7.5497822836041451e-03</internalNodes>
      <leafValues>
        -2.1217834949493408e-01 3.1659212708473206e-01</leafValues></_>
    <_>
      <internalNodes>
        0 -1 45874 -2.5014754384756088e-02</internalNodes>
      <leafValues>
        4.4305482506752014e-01 -1.3349433243274689e-01</leafValues></_>
    <_>
      <internalNodes>
        0 -1 65705 9.8853036761283875e-03</internalNodes>
      <leafValues>
        -1.4831502735614777e-01 4.0647101402282715e-01</leafValues></_>
    <_>
      <internalNodes>
        0 -1 67632 -2.7142222970724106e-03</internalNodes>
      <leafValues>
        -6.2911355495452881e-01 1.0934048146009445e-01</leafValues></_>
    <_>
      <internalNodes>
        0 -1 76017 -1.0006167925894260e-02</internalNodes>
      <leafValues>
        2.2924348711967468e-01 -2.4426722526550293e-01</leafValues></_>
    <_>
      <internalNodes>
        0 -1 75951 4.1412021964788437e-03</internalNodes>
      <leafValues>
        -1.9525049626827240e-01 3.2852208614349365e-01</leafValues></_>
    <_>
      <internalNodes>
        0 -1 58391 1.6750207869336009e-03</internalNodes>
      <leafValues>
        -2.2441159188747406e-01 2.3354338109493256e-01</leafValues></_>
    <_>
      <internalNodes>
        0 -1 72380 -3.3549993531778455e-04</internalNodes>
      <leafValues>
        2.2099187970161438e-01 -2.3919458687305450e-01</leafValues></_>
    <_>
      <internalNodes>
        0 -1 64243 -2.3249000310897827e-02</internalNodes>
      <leafValues>
        -8.1633675098419189e-01 6.4599126577377319e-02</leafValues></_>
    <_>
      <internalNodes>
        0 -1 64591 -2.9991697520017624e-02</internalNodes>
      <leafValues>
        -7.4272966384887695e-01 6.7487344145774841e-02</leafValues></_>
    <_>
      <internalNodes>
        0 -1 69627 9.3420222401618958e-03</internalNodes>
      <leafValues>
        7.2890907526016235e-02 -6.1484146118164062e-01</leafValues></_>
    <_>
      <internalNodes>
        0 -1 66623 2.2633802145719528e-03</internalNodes>
      <leafValues>
        -1.5068912506103516e-01 3.6800724267959595e-01</leafValues></_>
    <_>
      <internalNodes>
        0 -1 69799 8.5905808955430984e-03</internalNodes>
      <leafValues>
        6.5753780305385590e-02 -7.5229722261428833e-01</leafValues></_>
    <_>
      <internalNodes>
        0 -1 77238 1.1295388685539365e-03</internalNodes>
      <leafValues>
        -2.0314010977745056e-01 2.6735779643058777e-01</leafValues></_>
    <_>
      <internalNodes>
        0 -1 66306 5.1489518955349922e-04</internalNodes>
      <leafValues>
        -2.2621695697307587e-01 2.3495766520500183e-01</leafValues></_>
    <_>
      <internalNodes>
        0 -1 50966 -3.0349390581250191e-03</internalNodes>
      <leafValues>
        3.1426286697387695e-01 -1.8521389365196228e-01</leafValues></_>
    <_>
      <internalNodes>
        0 -1 64104 -1.8685660324990749e-03</internalNodes>
      <leafValues>
        -5.6308150291442871e-01 8.7420821189880371e-02</leafValues></_>
    <_>
      <internalNodes>
        0 -1 29809 -5.6208757450804114e-04</internalNodes>
      <leafValues>
        2.3956985771656036e-01 -1.9568955898284912e-01</leafValues></_>
    <_>
      <internalNodes>
        0 -1 43624 -3.5244014114141464e-02</internalNodes>
      <leafValues>
        5.3842437267303467e-01 -8.4828212857246399e-02</leafValues></_>
    <_>
      <internalNodes>
        0 -1 28248 5.2746720612049103e-02</internalNodes>
      <leafValues>
        -1.3815993070602417e-01 3.4657165408134460e-01</leafValues></_>
    <_>
      <internalNodes>
        0 -1 66127 -7.4053317308425903e-02</internalNodes>
      <leafValues>
        -7.6413261890411377e-01 7.3682934045791626e-02</leafValues></_>
    <_>
      <internalNodes>
        0 -1 75570 -2.0257530733942986e-02</internalNodes>
      <leafValues>
        4.1502019762992859e-01 -1.3923557102680206e-01</leafValues></_>
    <_>
      <internalNodes>
        0 -1 70477 -8.5442321142181754e-04</internalNodes>
      <leafValues>
        2.3884515464305878e-01 -2.1567156910896301e-01</leafValues></_>
    <_>
      <internalNodes>
        0 -1 67877 -3.8580563850700855e-03</internalNodes>
      <leafValues>
        -4.6688288450241089e-01 1.0629377514123917e-01</leafValues></_></weakClassifiers></stage3>
</opencv_storage>
