<?xml version="1.0"?>
<opencv_storage>
<stage7>
  <maxWeakCount>87</maxWeakCount>
  <stageThreshold>-7.7954393625259399e-01</stageThreshold>
  <weakClassifiers>
    <_>
      <internalNodes>
        0 -1 22299 8.4319189190864563e-03</internalNodes>
      <leafValues>
        2.0268620550632477e-01 5.3483992815017700e-01</leafValues></_>
    <_>
      <internalNodes>
        0 -1 77790 -8.4418915212154388e-03</internalNodes>
      <leafValues>
        3.2963871955871582e-01 -7.6573960483074188e-02</leafValues></_>
    <_>
      <internalNodes>
        0 -1 73758 2.6048306375741959e-02</internalNodes>
      <leafValues>
        -1.1225252598524094e-01 4.5995128154754639e-01</leafValues></_>
    <_>
      <internalNodes>
        0 -1 49765 -8.4491964662447572e-04</internalNodes>
      <leafValues>
        2.1660710871219635e-01 -9.5606349408626556e-02</leafValues></_>
    <_>
      <internalNodes>
        0 -1 77033 6.9605847820639610e-03</internalNodes>
      <leafValues>
        -1.2983402609825134e-01 1.6793958842754364e-01</leafValues></_>
    <_>
      <internalNodes>
        0 -1 66101 1.8428035080432892e-02</internalNodes>
      <leafValues>
        -4.3287400156259537e-02 5.9622061252593994e-01</leafValues></_>
    <_>
      <internalNodes>
        0 -1 77553 -2.2154445759952068e-03</internalNodes>
      <leafValues>
        1.8722462654113770e-01 -1.2275397777557373e-01</leafValues></_>
    <_>
      <internalNodes>
        0 -1 74247 -8.4546348080039024e-04</internalNodes>
      <leafValues>
        2.0060265064239502e-01 -1.0754802823066711e-01</leafValues></_>
    <_>
      <internalNodes>
        0 -1 52471 4.0428265929222107e-03</internalNodes>
      <leafValues>
        -9.7633510828018188e-02 2.0739902555942535e-01</leafValues></_>
    <_>
      <internalNodes>
        0 -1 60788 5.8028032071888447e-04</internalNodes>
      <leafValues>
        -1.1842149496078491e-01 2.0620955526828766e-01</leafValues></_>
    <_>
      <internalNodes>
        0 -1 60788 -8.8001554831862450e-04</internalNodes>
      <leafValues>
        2.2593419253826141e-01 -9.2497110366821289e-02</leafValues></_>
    <_>
      <internalNodes>
        0 -1 43972 5.2200168371200562e-02</internalNodes>
      <leafValues>
        4.9915872514247894e-02 -4.2187142372131348e-01</leafValues></_>
    <_>
      <internalNodes>
        0 -1 32994 -4.6750693581998348e-03</internalNodes>
      <leafValues>
        2.7383229136466980e-01 -7.5456447899341583e-02</leafValues></_>
    <_>
      <internalNodes>
        0 -1 54330 -6.4658271148800850e-03</internalNodes>
      <leafValues>
        -7.1609008312225342e-01 2.7345657348632812e-02</leafValues></_>
    <_>
      <internalNodes>
        0 -1 38725 6.3268252415582538e-04</internalNodes>
      <leafValues>
        -1.1452613770961761e-01 1.7487381398677826e-01</leafValues></_>
    <_>
      <internalNodes>
        0 -1 62221 -7.6692597940564156e-04</internalNodes>
      <leafValues>
        1.3550987839698792e-01 -1.4454707503318787e-01</leafValues></_>
    <_>
      <internalNodes>
        0 -1 75088 1.9692522473633289e-03</internalNodes>
      <leafValues>
        -1.2843877077102661e-01 1.5973107516765594e-01</leafValues></_>
    <_>
      <internalNodes>
        0 -1 75818 -9.8064960911870003e-03</internalNodes>
      <leafValues>
        -8.6102598905563354e-01 2.5688704103231430e-02</leafValues></_>
    <_>
      <internalNodes>
        0 -1 20444 1.8859598785638809e-02</internalNodes>
      <leafValues>
        6.2383111566305161e-02 -2.9643970727920532e-01</leafValues></_>
    <_>
      <internalNodes>
        0 -1 31962 -4.7227487084455788e-04</internalNodes>
      <leafValues>
        1.5783677995204926e-01 -1.2686701118946075e-01</leafValues></_>
    <_>
      <internalNodes>
        0 -1 72889 -4.3200785294175148e-03</internalNodes>
      <leafValues>
        2.8273102641105652e-01 -7.0877492427825928e-02</leafValues></_>
    <_>
      <internalNodes>
        0 -1 42161 -3.8126911385916173e-04</internalNodes>
      <leafValues>
        1.8423870205879211e-01 -1.0546242445707321e-01</leafValues></_>
    <_>
      <internalNodes>
        0 -1 52646 -2.7222724165767431e-03</internalNodes>
      <leafValues>
        -2.8651776909828186e-01 6.9600969552993774e-02</leafValues></_>
    <_>
      <internalNodes>
        0 -1 16092 -1.4789707493036985e-03</internalNodes>
      <leafValues>
        1.5166643261909485e-01 -1.3018505275249481e-01</leafValues></_>
    <_>
      <internalNodes>
        0 -1 69367 -8.9675709605216980e-03</internalNodes>
      <leafValues>
        2.2441659867763519e-01 -8.2958593964576721e-02</leafValues></_>
    <_>
      <internalNodes>
        0 -1 77053 1.3894071802496910e-02</internalNodes>
      <leafValues>
        -9.6953228116035461e-02 2.3629668354988098e-01</leafValues></_>
    <_>
      <internalNodes>
        0 -1 38176 -1.2360082473605871e-03</internalNodes>
      <leafValues>
        1.4823454618453979e-01 -1.3503099977970123e-01</leafValues></_>
    <_>
      <internalNodes>
        0 -1 78179 -8.4005447570234537e-04</internalNodes>
      <leafValues>
        1.5462744235992432e-01 -1.2837748229503632e-01</leafValues></_>
    <_>
      <internalNodes>
        0 -1 53674 -1.1338558979332447e-03</internalNodes>
      <leafValues>
        1.5415586531162262e-01 -1.1557571589946747e-01</leafValues></_>
    <_>
      <internalNodes>
        0 -1 78376 -9.5044681802392006e-03</internalNodes>
      <leafValues>
        1.7612840235233307e-01 -1.1060526967048645e-01</leafValues></_>
    <_>
      <internalNodes>
        0 -1 73840 8.9394319802522659e-03</internalNodes>
      <leafValues>
        3.3925514668226242e-02 -6.2491369247436523e-01</leafValues></_>
    <_>
      <internalNodes>
        0 -1 75380 -2.3811532184481621e-02</internalNodes>
      <leafValues>
        6.5124577283859253e-01 -3.2445110380649567e-02</leafValues></_>
    <_>
      <internalNodes>
        0 -1 71695 -1.4389161020517349e-02</internalNodes>
      <leafValues>
        7.3300355672836304e-01 -2.3271005600690842e-02</leafValues></_>
    <_>
      <internalNodes>
        0 -1 75760 -6.5142558887600899e-03</internalNodes>
      <leafValues>
        2.4082650244235992e-01 -7.6429784297943115e-02</leafValues></_>
    <_>
      <internalNodes>
        0 -1 71380 -6.3707560300827026e-02</internalNodes>
      <leafValues>
        -4.8244524002075195e-01 4.3238375335931778e-02</leafValues></_>
    <_>
      <internalNodes>
        0 -1 33973 -2.1654132753610611e-02</internalNodes>
      <leafValues>
        -4.4918110966682434e-01 4.0309097617864609e-02</leafValues></_>
    <_>
      <internalNodes>
        0 -1 45964 -1.9765037577599287e-03</internalNodes>
      <leafValues>
        1.4844916760921478e-01 -1.2106997519731522e-01</leafValues></_>
    <_>
      <internalNodes>
        0 -1 31170 4.3133454164490104e-04</internalNodes>
      <leafValues>
        -1.0467126965522766e-01 1.8081811070442200e-01</leafValues></_>
    <_>
      <internalNodes>
        0 -1 32432 -2.2742121946066618e-03</internalNodes>
      <leafValues>
        1.7975376546382904e-01 -1.0122483968734741e-01</leafValues></_>
    <_>
      <internalNodes>
        0 -1 26461 -6.9018453359603882e-04</internalNodes>
      <leafValues>
        1.6836459934711456e-01 -1.0616604983806610e-01</leafValues></_>
    <_>
      <internalNodes>
        0 -1 6089 -2.5993955787271261e-03</internalNodes>
      <leafValues>
        2.2679533064365387e-01 -8.0893911421298981e-02</leafValues></_>
    <_>
      <internalNodes>
        0 -1 60534 -4.8130340874195099e-03</internalNodes>
      <leafValues>
        -8.0309903621673584e-01 2.5410128757357597e-02</leafValues></_>
    <_>
      <internalNodes>
        0 -1 38938 3.3403071574866772e-03</internalNodes>
      <leafValues>
        4.9634311348199844e-02 -3.5147175192832947e-01</leafValues></_>
    <_>
      <internalNodes>
        0 -1 11739 -9.5130801200866699e-03</internalNodes>
      <leafValues>
        -4.6407896280288696e-01 3.7135843187570572e-02</leafValues></_>
    <_>
      <internalNodes>
        0 -1 18788 5.1811547018587589e-04</internalNodes>
      <leafValues>
        -1.0892964899539948e-01 1.6610802710056305e-01</leafValues></_>
    <_>
      <internalNodes>
        0 -1 51744 3.7665046751499176e-02</internalNodes>
      <leafValues>
        2.2815516218543053e-02 -7.6461881399154663e-01</leafValues></_>
    <_>
      <internalNodes>
        0 -1 21144 -4.5365834375843406e-04</internalNodes>
      <leafValues>
        1.3001088798046112e-01 -1.3165171444416046e-01</leafValues></_>
    <_>
      <internalNodes>
        0 -1 56355 4.2976340046152472e-04</internalNodes>
      <leafValues>
        -1.0420017689466476e-01 1.6049264371395111e-01</leafValues></_>
    <_>
      <internalNodes>
        0 -1 60033 -5.9394940733909607e-02</internalNodes>
      <leafValues>
        4.4394594430923462e-01 -3.7179917097091675e-02</leafValues></_>
    <_>
      <internalNodes>
        0 -1 70577 -1.7075259238481522e-03</internalNodes>
      <leafValues>
        1.8733273446559906e-01 -8.9908093214035034e-02</leafValues></_>
    <_>
      <internalNodes>
        0 -1 66940 -3.9936095476150513e-02</internalNodes>
      <leafValues>
        -2.5390475988388062e-01 7.3092341423034668e-02</leafValues></_>
    <_>
      <internalNodes>
        0 -1 72277 7.0353094488382339e-03</internalNodes>
      <leafValues>
        8.2553431391716003e-02 -2.1373909711837769e-01</leafValues></_>
    <_>
      <internalNodes>
        0 -1 71117 -1.3545073568820953e-02</internalNodes>
      <leafValues>
        3.1411457061767578e-01 -5.8429110795259476e-02</leafValues></_>
    <_>
      <internalNodes>
        0 -1 71094 -1.0752276284620166e-03</internalNodes>
      <leafValues>
        2.4918568134307861e-01 -6.7914485931396484e-02</leafValues></_>
    <_>
      <internalNodes>
        0 -1 19663 7.8427921980619431e-03</internalNodes>
      <leafValues>
        2.6549341157078743e-02 -7.5767397880554199e-01</leafValues></_>
    <_>
      <internalNodes>
        0 -1 76232 -1.6791284084320068e-02</internalNodes>
      <leafValues>
        -2.8619918227195740e-01 5.6320786476135254e-02</leafValues></_>
    <_>
      <internalNodes>
        0 -1 15349 7.0897303521633148e-03</internalNodes>
      <leafValues>
        -8.8529095053672791e-02 1.8425147235393524e-01</leafValues></_>
    <_>
      <internalNodes>
        0 -1 28552 -6.4215967431664467e-03</internalNodes>
      <leafValues>
        2.4261333048343658e-01 -8.3439774811267853e-02</leafValues></_>
    <_>
      <internalNodes>
        0 -1 19990 -1.8255973700433969e-03</internalNodes>
      <leafValues>
        1.9740474224090576e-01 -9.3140453100204468e-02</leafValues></_>
    <_>
      <internalNodes>
        0 -1 71199 -8.7377186864614487e-03</internalNodes>
      <leafValues>
        -8.1911665201187134e-01 2.0069159567356110e-02</leafValues></_>
    <_>
      <internalNodes>
        0 -1 11734 -7.4513349682092667e-04</internalNodes>
      <leafValues>
        1.5111519396305084e-01 -1.1024712771177292e-01</leafValues></_>
    <_>
      <internalNodes>
        0 -1 49709 -9.5888786017894745e-03</internalNodes>
      <leafValues>
        -7.1184295415878296e-01 2.5790786370635033e-02</leafValues></_>
    <_>
      <internalNodes>
        0 -1 1420 2.6041863486170769e-02</internalNodes>
      <leafValues>
        -7.0577055215835571e-02 3.1272920966148376e-01</leafValues></_>
    <_>
      <internalNodes>
        0 -1 38521 -3.0171159654855728e-02</internalNodes>
      <leafValues>
        6.5343683958053589e-01 -2.1065410226583481e-02</leafValues></_>
    <_>
      <internalNodes>
        0 -1 57786 -6.5511523280292749e-04</internalNodes>
      <leafValues>
        1.8024423718452454e-01 -9.3775354325771332e-02</leafValues></_>
    <_>
      <internalNodes>
        0 -1 10618 -2.0885845646262169e-02</internalNodes>
      <leafValues>
        -4.2405664920806885e-01 4.1489597409963608e-02</leafValues></_>
    <_>
      <internalNodes>
        0 -1 68456 2.1000641863793135e-03</internalNodes>
      <leafValues>
        -7.7583387494087219e-02 2.3395147919654846e-01</leafValues></_>
    <_>
      <internalNodes>
        0 -1 65437 2.9155827360227704e-04</internalNodes>
      <leafValues>
        -1.1510080844163895e-01 1.5508954226970673e-01</leafValues></_>
    <_>
      <internalNodes>
        0 -1 62172 -1.1354625225067139e-02</internalNodes>
      <leafValues>
        -7.7464735507965088e-01 2.3519607260823250e-02</leafValues></_>
    <_>
      <internalNodes>
        0 -1 14351 -3.6658379249274731e-03</internalNodes>
      <leafValues>
        2.3063665628433228e-01 -7.8712686896324158e-02</leafValues></_>
    <_>
      <internalNodes>
        0 -1 44815 1.1392415035516024e-03</internalNodes>
      <leafValues>
        -8.2378454506397247e-02 2.5354459881782532e-01</leafValues></_>
    <_>
      <internalNodes>
        0 -1 33737 -1.4413203112781048e-02</internalNodes>
      <leafValues>
        -4.4323921203613281e-01 4.6874456107616425e-02</leafValues></_>
    <_>
      <internalNodes>
        0 -1 77927 -4.2466893792152405e-03</internalNodes>
      <leafValues>
        2.5837856531143188e-01 -6.8089783191680908e-02</leafValues></_>
    <_>
      <internalNodes>
        0 -1 77895 3.0439288821071386e-03</internalNodes>
      <leafValues>
        1.0153298825025558e-01 -1.7825588583946228e-01</leafValues></_>
    <_>
      <internalNodes>
        0 -1 77844 1.8501129001379013e-02</internalNodes>
      <leafValues>
        -3.8869149982929230e-02 6.1080318689346313e-01</leafValues></_>
    <_>
      <internalNodes>
        0 -1 77168 -5.1929010078310966e-03</internalNodes>
      <leafValues>
        -5.6496161222457886e-01 3.9568945765495300e-02</leafValues></_>
    <_>
      <internalNodes>
        0 -1 27474 -1.6655838117003441e-03</internalNodes>
      <leafValues>
        1.9360674917697906e-01 -8.9668229222297668e-02</leafValues></_>
    <_>
      <internalNodes>
        0 -1 38938 -5.6652389466762543e-03</internalNodes>
      <leafValues>
        -4.8544839024543762e-01 3.8897994905710220e-02</leafValues></_>
    <_>
      <internalNodes>
        0 -1 12331 -1.0781375458464026e-03</internalNodes>
      <leafValues>
        -1.6920161247253418e-01 9.5838882029056549e-02</leafValues></_>
    <_>
      <internalNodes>
        0 -1 32401 -2.6259742677211761e-02</internalNodes>
      <leafValues>
        3.9146387577056885e-01 -4.5237433165311813e-02</leafValues></_>
    <_>
      <internalNodes>
        0 -1 73688 -5.8546774089336395e-03</internalNodes>
      <leafValues>
        -5.8339381217956543e-01 3.1334824860095978e-02</leafValues></_>
    <_>
      <internalNodes>
        0 -1 66364 8.4682926535606384e-03</internalNodes>
      <leafValues>
        -3.6404926329851151e-02 6.2321645021438599e-01</leafValues></_>
    <_>
      <internalNodes>
        0 -1 68950 -6.2655606307089329e-03</internalNodes>
      <leafValues>
        -4.9770089983940125e-01 4.1650686413049698e-02</leafValues></_>
    <_>
      <internalNodes>
        0 -1 75066 -5.0708524882793427e-02</internalNodes>
      <leafValues>
        6.5933889150619507e-01 -2.8175080195069313e-02</leafValues></_>
    <_>
      <internalNodes>
        0 -1 45600 2.0107958465814590e-02</internalNodes>
      <leafValues>
        -6.0987122356891632e-02 2.7184209227561951e-01</leafValues></_>
    <_>
      <internalNodes>
        0 -1 737 -5.2351260185241699e-01</internalNodes>
      <leafValues>
        4.7683376073837280e-01 -3.8628436625003815e-02</leafValues></_>
    <_>
      <internalNodes>
        0 -1 78392 -1.0912958532571793e-03</internalNodes>
      <leafValues>
        1.8209531903266907e-01 -9.0519487857818604e-02</leafValues></_></weakClassifiers></stage7>
</opencv_storage>
