<?xml version="1.0"?>
<opencv_storage>
<stage12>
  <maxWeakCount>100</maxWeakCount>
  <stageThreshold>-5.9572923183441162e-01</stageThreshold>
  <weakClassifiers>
    <_>
      <internalNodes>
        0 -1 70798 6.8558617495000362e-03</internalNodes>
      <leafValues>
        3.4079045057296753e-01 -7.7777779102325439e-01</leafValues></_>
    <_>
      <internalNodes>
        0 -1 78331 2.3409765213727951e-02</internalNodes>
      <leafValues>
        9.7040370746981353e-05 7.3947411775588989e-01</leafValues></_>
    <_>
      <internalNodes>
        0 -1 66034 -1.1336784809827805e-03</internalNodes>
      <leafValues>
        1.7662177979946136e-01 -7.0409685373306274e-02</leafValues></_>
    <_>
      <internalNodes>
        0 -1 78357 -9.4800640363246202e-04</internalNodes>
      <leafValues>
        1.3940212130546570e-01 -7.7774703502655029e-02</leafValues></_>
    <_>
      <internalNodes>
        0 -1 12677 4.3754816055297852e-02</internalNodes>
      <leafValues>
        -3.2404448837041855e-02 3.3428552746772766e-01</leafValues></_>
    <_>
      <internalNodes>
        0 -1 10504 7.9573377966880798e-02</internalNodes>
      <leafValues>
        -4.0139432996511459e-02 5.9343969821929932e-01</leafValues></_>
    <_>
      <internalNodes>
        0 -1 10504 7.8105457127094269e-02</internalNodes>
      <leafValues>
        2.4997785221785307e-03 -1.</leafValues></_>
    <_>
      <internalNodes>
        0 -1 10504 7.5791537761688232e-02</internalNodes>
      <leafValues>
        -1.8161896150559187e-03 8.1133097410202026e-01</leafValues></_>
    <_>
      <internalNodes>
        0 -1 75512 -3.2989892642945051e-03</internalNodes>
      <leafValues>
        2.2960273921489716e-01 -4.7623708844184875e-02</leafValues></_>
    <_>
      <internalNodes>
        0 -1 77824 1.2325113639235497e-02</internalNodes>
      <leafValues>
        -1.7356777563691139e-02 4.9512195587158203e-01</leafValues></_>
    <_>
      <internalNodes>
        0 -1 76903 2.2258437238633633e-03</internalNodes>
      <leafValues>
        7.6480373740196228e-02 -2.6906171441078186e-01</leafValues></_>
    <_>
      <internalNodes>
        0 -1 77676 -1.0947070550173521e-03</internalNodes>
      <leafValues>
        -1.2687446177005768e-01 8.6787641048431396e-02</leafValues></_>
    <_>
      <internalNodes>
        0 -1 75755 -1.0962991043925285e-02</internalNodes>
      <leafValues>
        -5.6408941745758057e-01 1.5458129346370697e-02</leafValues></_>
    <_>
      <internalNodes>
        0 -1 62857 8.1888502463698387e-03</internalNodes>
      <leafValues>
        -2.8239548206329346e-02 3.3430978655815125e-01</leafValues></_>
    <_>
      <internalNodes>
        0 -1 73750 6.7365122959017754e-03</internalNodes>
      <leafValues>
        -3.7006039172410965e-02 3.2304745912551880e-01</leafValues></_>
    <_>
      <internalNodes>
        0 -1 29754 2.8109832201153040e-03</internalNodes>
      <leafValues>
        3.1100386753678322e-02 -3.6425608396530151e-01</leafValues></_>
    <_>
      <internalNodes>
        0 -1 27862 -4.0139988064765930e-02</internalNodes>
      <leafValues>
        -7.2997522354125977e-01 1.4205637387931347e-02</leafValues></_>
    <_>
      <internalNodes>
        0 -1 61659 1.6796967014670372e-02</internalNodes>
      <leafValues>
        -2.2794714197516441e-02 4.7537174820899963e-01</leafValues></_>
    <_>
      <internalNodes>
        0 -1 28651 -1.9095854368060827e-03</internalNodes>
      <leafValues>
        -2.0636899769306183e-01 5.3378995507955551e-02</leafValues></_>
    <_>
      <internalNodes>
        0 -1 34132 5.2859093993902206e-03</internalNodes>
      <leafValues>
        4.3416686356067657e-02 -2.6459303498268127e-01</leafValues></_>
    <_>
      <internalNodes>
        0 -1 29333 4.7033908776938915e-03</internalNodes>
      <leafValues>
        -6.6187791526317596e-02 1.7406544089317322e-01</leafValues></_>
    <_>
      <internalNodes>
        0 -1 34205 1.2610856443643570e-02</internalNodes>
      <leafValues>
        2.3860303685069084e-02 -4.4745516777038574e-01</leafValues></_>
    <_>
      <internalNodes>
        0 -1 39725 3.8873741868883371e-04</internalNodes>
      <leafValues>
        -7.7336013317108154e-02 1.4132063090801239e-01</leafValues></_>
    <_>
      <internalNodes>
        0 -1 73382 -3.8383509963750839e-03</internalNodes>
      <leafValues>
        -4.5049148797988892e-01 2.2605145350098610e-02</leafValues></_>
    <_>
      <internalNodes>
        0 -1 71116 -3.0978556722402573e-02</internalNodes>
      <leafValues>
        4.0136468410491943e-01 -2.6686858385801315e-02</leafValues></_>
    <_>
      <internalNodes>
        0 -1 13997 -3.1216127797961235e-02</internalNodes>
      <leafValues>
        3.9486929774284363e-01 -2.4391412734985352e-02</leafValues></_>
    <_>
      <internalNodes>
        0 -1 22429 2.0641114097088575e-03</internalNodes>
      <leafValues>
        -5.8520019054412842e-02 1.8267647922039032e-01</leafValues></_>
    <_>
      <internalNodes>
        0 -1 65669 -4.5782723464071751e-03</internalNodes>
      <leafValues>
        -5.3876239061355591e-01 1.9423948600888252e-02</leafValues></_>
    <_>
      <internalNodes>
        0 -1 5313 2.2638808004558086e-03</internalNodes>
      <leafValues>
        -6.1865493655204773e-02 1.7844977974891663e-01</leafValues></_>
    <_>
      <internalNodes>
        0 -1 57963 -4.6804659068584442e-03</internalNodes>
      <leafValues>
        -1.7552252113819122e-01 6.3212141394615173e-02</leafValues></_>
    <_>
      <internalNodes>
        0 -1 77663 -5.3029488772153854e-03</internalNodes>
      <leafValues>
        -4.2490607500076294e-01 2.5830660015344620e-02</leafValues></_>
    <_>
      <internalNodes>
        0 -1 2728 -5.1278676837682724e-03</internalNodes>
      <leafValues>
        -6.7328965663909912e-01 1.6122823581099510e-02</leafValues></_>
    <_>
      <internalNodes>
        0 -1 44072 1.1294537689536810e-03</internalNodes>
      <leafValues>
        -8.3918839693069458e-02 1.2625236809253693e-01</leafValues></_>
    <_>
      <internalNodes>
        0 -1 72087 -2.2249130532145500e-02</internalNodes>
      <leafValues>
        -5.8794760704040527e-01 1.8492454662919044e-02</leafValues></_>
    <_>
      <internalNodes>
        0 -1 57467 1.7852317541837692e-03</internalNodes>
      <leafValues>
        -9.2557407915592194e-02 1.2933194637298584e-01</leafValues></_>
    <_>
      <internalNodes>
        0 -1 69794 -5.8545162901282310e-03</internalNodes>
      <leafValues>
        -4.0974703431129456e-01 2.7023382484912872e-02</leafValues></_>
    <_>
      <internalNodes>
        0 -1 69019 -1.1051062494516373e-02</internalNodes>
      <leafValues>
        2.5347903370857239e-01 -4.2657781392335892e-02</leafValues></_>
    <_>
      <internalNodes>
        0 -1 73527 2.2773705422878265e-03</internalNodes>
      <leafValues>
        5.5188894271850586e-02 -2.2417967021465302e-01</leafValues></_>
    <_>
      <internalNodes>
        0 -1 8983 -3.0363269150257111e-02</internalNodes>
      <leafValues>
        -5.9421694278717041e-01 2.3266028612852097e-02</leafValues></_>
    <_>
      <internalNodes>
        0 -1 4253 -9.7039833664894104e-02</internalNodes>
      <leafValues>
        4.5607304573059082e-01 -2.6288954541087151e-02</leafValues></_>
    <_>
      <internalNodes>
        0 -1 49856 -3.1236012000590563e-04</internalNodes>
      <leafValues>
        1.3295936584472656e-01 -8.0583721399307251e-02</leafValues></_>
    <_>
      <internalNodes>
        0 -1 49865 5.0879968330264091e-04</internalNodes>
      <leafValues>
        -8.9900448918342590e-02 1.5210488438606262e-01</leafValues></_>
    <_>
      <internalNodes>
        0 -1 49776 -1.9548521377146244e-03</internalNodes>
      <leafValues>
        -1.3948822021484375e-01 7.9965226352214813e-02</leafValues></_>
    <_>
      <internalNodes>
        0 -1 49883 -1.3749299105256796e-03</internalNodes>
      <leafValues>
        1.3218607008457184e-01 -7.9951897263526917e-02</leafValues></_>
    <_>
      <internalNodes>
        0 -1 34068 -2.0987037569284439e-02</internalNodes>
      <leafValues>
        5.4514044523239136e-01 -1.7433604225516319e-02</leafValues></_>
    <_>
      <internalNodes>
        0 -1 19711 2.0662523806095123e-02</internalNodes>
      <leafValues>
        4.3994475156068802e-02 -2.7153545618057251e-01</leafValues></_>
    <_>
      <internalNodes>
        0 -1 26183 -1.7741579562425613e-02</internalNodes>
      <leafValues>
        4.2617931962013245e-01 -3.1419564038515091e-02</leafValues></_>
    <_>
      <internalNodes>
        0 -1 20669 -4.0681622922420502e-03</internalNodes>
      <leafValues>
        -1.8963870406150818e-01 6.7805916070938110e-02</leafValues></_>
    <_>
      <internalNodes>
        0 -1 76812 6.2825502827763557e-03</internalNodes>
      <leafValues>
        -2.5430766865611076e-02 4.3066802620887756e-01</leafValues></_>
    <_>
      <internalNodes>
        0 -1 75378 9.2255529016256332e-03</internalNodes>
      <leafValues>
        3.4259255975484848e-02 -3.8480281829833984e-01</leafValues></_>
    <_>
      <internalNodes>
        0 -1 33987 1.1746153235435486e-02</internalNodes>
      <leafValues>
        3.1250886619091034e-02 -3.4035494923591614e-01</leafValues></_>
    <_>
      <internalNodes>
        0 -1 19937 -1.1459437012672424e-01</internalNodes>
      <leafValues>
        5.4939365386962891e-01 -2.2379543632268906e-02</leafValues></_>
    <_>
      <internalNodes>
        0 -1 78202 -5.2797067910432816e-03</internalNodes>
      <leafValues>
        3.6822989583015442e-01 -2.8740147128701210e-02</leafValues></_>
    <_>
      <internalNodes>
        0 -1 60039 -1.2452336028218269e-02</internalNodes>
      <leafValues>
        1.7243401706218719e-01 -6.0186214745044708e-02</leafValues></_>
    <_>
      <internalNodes>
        0 -1 55490 -3.9938101544976234e-03</internalNodes>
      <leafValues>
        -1.8535874783992767e-01 6.2252316623926163e-02</leafValues></_>
    <_>
      <internalNodes>
        0 -1 59335 3.2803654670715332e-02</internalNodes>
      <leafValues>
        2.9614606872200966e-02 -3.6073243618011475e-01</leafValues></_>
    <_>
      <internalNodes>
        0 -1 13714 2.3752517998218536e-02</internalNodes>
      <leafValues>
        4.0913775563240051e-02 -2.5934994220733643e-01</leafValues></_>
    <_>
      <internalNodes>
        0 -1 21560 1.3198474049568176e-01</internalNodes>
      <leafValues>
        1.8644910305738449e-02 -5.5841606855392456e-01</leafValues></_>
    <_>
      <internalNodes>
        0 -1 49415 1.0418477468192577e-03</internalNodes>
      <leafValues>
        -8.7255835533142090e-02 1.2511935830116272e-01</leafValues></_>
    <_>
      <internalNodes>
        0 -1 74708 2.8415767010301352e-03</internalNodes>
      <leafValues>
        4.8637557774782181e-02 -2.2837574779987335e-01</leafValues></_>
    <_>
      <internalNodes>
        0 -1 6234 2.8092207387089729e-02</internalNodes>
      <leafValues>
        -2.6080252602696419e-02 4.2542695999145508e-01</leafValues></_>
    <_>
      <internalNodes>
        0 -1 49912 3.5868003964424133e-02</internalNodes>
      <leafValues>
        -1.1415332555770874e-02 8.0445367097854614e-01</leafValues></_>
    <_>
      <internalNodes>
        0 -1 71126 4.0802462026476860e-03</internalNodes>
      <leafValues>
        -7.4843391776084900e-02 1.3109724223613739e-01</leafValues></_>
    <_>
      <internalNodes>
        0 -1 64149 6.0757076425943524e-05</internalNodes>
      <leafValues>
        -9.6079424023628235e-02 1.0345114022493362e-01</leafValues></_>
    <_>
      <internalNodes>
        0 -1 78382 -2.2420371533371508e-04</internalNodes>
      <leafValues>
        1.1990444362163544e-01 -9.0257100760936737e-02</leafValues></_>
    <_>
      <internalNodes>
        0 -1 78017 8.3117121830582619e-03</internalNodes>
      <leafValues>
        -1.4565756544470787e-02 6.9455116987228394e-01</leafValues></_>
    <_>
      <internalNodes>
        0 -1 78277 1.0016906075179577e-02</internalNodes>
      <leafValues>
        1.8204918131232262e-02 -6.5167951583862305e-01</leafValues></_>
    <_>
      <internalNodes>
        0 -1 75122 -6.5565700642764568e-03</internalNodes>
      <leafValues>
        1.6685506701469421e-01 -6.3522472977638245e-02</leafValues></_>
    <_>
      <internalNodes>
        0 -1 76559 -3.2905254047363997e-03</internalNodes>
      <leafValues>
        -3.7459900975227356e-01 3.3823959529399872e-02</leafValues></_>
    <_>
      <internalNodes>
        0 -1 58558 -2.3259236477315426e-03</internalNodes>
      <leafValues>
        -3.2346069812774658e-01 3.4383401274681091e-02</leafValues></_>
    <_>
      <internalNodes>
        0 -1 57927 -4.5776467770338058e-02</internalNodes>
      <leafValues>
        -3.4859508275985718e-01 2.9068432748317719e-02</leafValues></_>
    <_>
      <internalNodes>
        0 -1 13825 -1.2355051003396511e-02</internalNodes>
      <leafValues>
        2.6197099685668945e-01 -4.4597186148166656e-02</leafValues></_>
    <_>
      <internalNodes>
        0 -1 58239 -8.6373146623373032e-03</internalNodes>
      <leafValues>
        -2.6237317919731140e-01 4.3160062283277512e-02</leafValues></_>
    <_>
      <internalNodes>
        0 -1 49183 2.4007432162761688e-02</internalNodes>
      <leafValues>
        -8.2359068095684052e-02 1.4835381507873535e-01</leafValues></_>
    <_>
      <internalNodes>
        0 -1 20600 -2.9714046046137810e-02</internalNodes>
      <leafValues>
        1.5535922348499298e-01 -7.0326462388038635e-02</leafValues></_>
    <_>
      <internalNodes>
        0 -1 72865 -3.4231271594762802e-02</internalNodes>
      <leafValues>
        4.1971015930175781e-01 -2.3169456049799919e-02</leafValues></_>
    <_>
      <internalNodes>
        0 -1 10956 -1.0608486831188202e-01</internalNodes>
      <leafValues>
        -3.8553920388221741e-01 3.0546128749847412e-02</leafValues></_>
    <_>
      <internalNodes>
        0 -1 58661 5.1917861128458753e-05</internalNodes>
      <leafValues>
        1.0503891110420227e-01 -1.0734350979328156e-01</leafValues></_>
    <_>
      <internalNodes>
        0 -1 45237 4.2778816074132919e-02</internalNodes>
      <leafValues>
        -1.8551005050539970e-02 5.3120440244674683e-01</leafValues></_>
    <_>
      <internalNodes>
        0 -1 46927 3.8947543362155557e-04</internalNodes>
      <leafValues>
        8.9951500296592712e-02 -1.2190999835729599e-01</leafValues></_>
    <_>
      <internalNodes>
        0 -1 29004 -4.3341666460037231e-03</internalNodes>
      <leafValues>
        1.3547070324420929e-01 -8.0019198358058929e-02</leafValues></_>
    <_>
      <internalNodes>
        0 -1 72939 2.3081037215888500e-03</internalNodes>
      <leafValues>
        4.0408723056316376e-02 -2.9296872019767761e-01</leafValues></_>
    <_>
      <internalNodes>
        0 -1 66623 -1.8974315025843680e-04</internalNodes>
      <leafValues>
        -1.1006581783294678e-01 9.7100161015987396e-02</leafValues></_>
    <_>
      <internalNodes>
        0 -1 76753 -7.8869918361306190e-03</internalNodes>
      <leafValues>
        -6.7829197645187378e-01 1.6232589259743690e-02</leafValues></_>
    <_>
      <internalNodes>
        0 -1 75823 -3.9001866243779659e-03</internalNodes>
      <leafValues>
        1.7395615577697754e-01 -6.4578309655189514e-02</leafValues></_>
    <_>
      <internalNodes>
        0 -1 72032 7.0885126478970051e-03</internalNodes>
      <leafValues>
        2.0297259092330933e-02 -5.7408469915390015e-01</leafValues></_>
    <_>
      <internalNodes>
        0 -1 74473 3.9659729227423668e-03</internalNodes>
      <leafValues>
        -2.3190479725599289e-02 4.9064040184020996e-01</leafValues></_>
    <_>
      <internalNodes>
        0 -1 73984 6.9625433534383774e-03</internalNodes>
      <leafValues>
        2.4533560499548912e-02 -5.1460057497024536e-01</leafValues></_>
    <_>
      <internalNodes>
        0 -1 62793 1.0896709747612476e-02</internalNodes>
      <leafValues>
        -4.0606789290904999e-02 2.8437164425849915e-01</leafValues></_>
    <_>
      <internalNodes>
        0 -1 71635 -2.1670567803084850e-03</internalNodes>
      <leafValues>
        -2.5644341111183167e-01 4.6216320246458054e-02</leafValues></_>
    <_>
      <internalNodes>
        0 -1 45151 -5.2292719483375549e-03</internalNodes>
      <leafValues>
        -6.7001980543136597e-01 1.6175946220755577e-02</leafValues></_>
    <_>
      <internalNodes>
        0 -1 71097 3.3389546442776918e-03</internalNodes>
      <leafValues>
        2.3218350484967232e-02 -4.4896829128265381e-01</leafValues></_>
    <_>
      <internalNodes>
        0 -1 53205 -4.9250282347202301e-02</internalNodes>
      <leafValues>
        -1.3692377507686615e-01 8.4607467055320740e-02</leafValues></_>
    <_>
      <internalNodes>
        0 -1 19424 -6.8786561489105225e-02</internalNodes>
      <leafValues>
        6.5495616197586060e-01 -1.7881540581583977e-02</leafValues></_>
    <_>
      <internalNodes>
        0 -1 12668 -1.5809118747711182e-02</internalNodes>
      <leafValues>
        -8.5536915063858032e-01 1.6220107674598694e-02</leafValues></_>
    <_>
      <internalNodes>
        0 -1 54035 5.3921215236186981e-02</internalNodes>
      <leafValues>
        5.1653694361448288e-02 -2.0520806312561035e-01</leafValues></_>
    <_>
      <internalNodes>
        0 -1 68463 1.1568568646907806e-02</internalNodes>
      <leafValues>
        -4.9743097275495529e-02 2.4740132689476013e-01</leafValues></_>
    <_>
      <internalNodes>
        0 -1 68345 4.0142631041817367e-04</internalNodes>
      <leafValues>
        -9.3942768871784210e-02 1.2410738319158554e-01</leafValues></_>
    <_>
      <internalNodes>
        0 -1 75450 -5.9681865386664867e-03</internalNodes>
      <leafValues>
        6.1182725429534912e-01 -1.6932528465986252e-02</leafValues></_>
    <_>
      <internalNodes>
        0 -1 4444 -3.7845432758331299e-02</internalNodes>
      <leafValues>
        -3.4756901860237122e-01 3.4662354737520218e-02</leafValues></_></weakClassifiers></stage12>
</opencv_storage>
