<?xml version="1.0"?>
<opencv_storage>
<stage5>
  <maxWeakCount>100</maxWeakCount>
  <stageThreshold>-6.5935653448104858e-01</stageThreshold>
  <weakClassifiers>
    <_>
      <internalNodes>
        0 -1 1186 -8.7761487811803818e-03</internalNodes>
      <leafValues>
        2.2599278390407562e-01 4.4638782739639282e-01</leafValues></_>
    <_>
      <internalNodes>
        0 -1 12171 9.0375746367499232e-04</internalNodes>
      <leafValues>
        -6.3609704375267029e-02 1.8427501618862152e-01</leafValues></_>
    <_>
      <internalNodes>
        0 -1 52149 -3.0295070260763168e-02</internalNodes>
      <leafValues>
        4.2048057913780212e-01 -2.8034700080752373e-02</leafValues></_>
    <_>
      <internalNodes>
        0 -1 56541 2.4624548852443695e-02</internalNodes>
      <leafValues>
        -6.3006699085235596e-02 2.7954199910163879e-01</leafValues></_>
    <_>
      <internalNodes>
        0 -1 27969 -4.2123645544052124e-03</internalNodes>
      <leafValues>
        -1.4117141067981720e-01 8.6644046008586884e-02</leafValues></_>
    <_>
      <internalNodes>
        0 -1 66577 9.1862436383962631e-03</internalNodes>
      <leafValues>
        5.8097597211599350e-02 -2.2781501710414886e-01</leafValues></_>
    <_>
      <internalNodes>
        0 -1 49554 -5.5386791937053204e-03</internalNodes>
      <leafValues>
        1.7592307925224304e-01 -5.8185577392578125e-02</leafValues></_>
    <_>
      <internalNodes>
        0 -1 34680 9.2406101524829865e-02</internalNodes>
      <leafValues>
        -5.0894282758235931e-02 5.0237190723419189e-01</leafValues></_>
    <_>
      <internalNodes>
        0 -1 20568 -1.7447177320718765e-02</internalNodes>
      <leafValues>
        -3.8158351182937622e-01 3.5850539803504944e-02</leafValues></_>
    <_>
      <internalNodes>
        0 -1 22335 1.1674332618713379e-01</internalNodes>
      <leafValues>
        1.8842106685042381e-02 -6.6123384237289429e-01</leafValues></_>
    <_>
      <internalNodes>
        0 -1 712 1.1799181997776031e-01</internalNodes>
      <leafValues>
        -1.5899475663900375e-02 5.8306920528411865e-01</leafValues></_>
    <_>
      <internalNodes>
        0 -1 77953 -2.3423798382282257e-02</internalNodes>
      <leafValues>
        4.3965923786163330e-01 -2.8364803642034531e-02</leafValues></_>
    <_>
      <internalNodes>
        0 -1 39342 -7.9099368304014206e-04</internalNodes>
      <leafValues>
        -1.2578424811363220e-01 9.5038518309593201e-02</leafValues></_>
    <_>
      <internalNodes>
        0 -1 39543 1.5096551738679409e-02</internalNodes>
      <leafValues>
        -3.1009653583168983e-02 3.7074470520019531e-01</leafValues></_>
    <_>
      <internalNodes>
        0 -1 58461 2.1191786974668503e-02</internalNodes>
      <leafValues>
        -2.0901016891002655e-02 5.0578838586807251e-01</leafValues></_>
    <_>
      <internalNodes>
        0 -1 71116 -1.2524928897619247e-03</internalNodes>
      <leafValues>
        -1.1017197370529175e-01 1.0749425739049911e-01</leafValues></_>
    <_>
      <internalNodes>
        0 -1 52778 3.4247905015945435e-02</internalNodes>
      <leafValues>
        -2.2827489301562309e-02 4.7091865539550781e-01</leafValues></_>
    <_>
      <internalNodes>
        0 -1 67960 4.0757441893219948e-03</internalNodes>
      <leafValues>
        2.3125551640987396e-02 -4.9729615449905396e-01</leafValues></_>
    <_>
      <internalNodes>
        0 -1 70144 3.9043894503265619e-03</internalNodes>
      <leafValues>
        2.3658694699406624e-02 -4.5673507452011108e-01</leafValues></_>
    <_>
      <internalNodes>
        0 -1 21779 -3.6929666996002197e-02</internalNodes>
      <leafValues>
        3.5273072123527527e-01 -2.9715325683355331e-02</leafValues></_>
    <_>
      <internalNodes>
        0 -1 28040 -8.1336544826626778e-03</internalNodes>
      <leafValues>
        -6.4339393377304077e-01 1.7546230927109718e-02</leafValues></_>
    <_>
      <internalNodes>
        0 -1 49327 5.1192760467529297e-02</internalNodes>
      <leafValues>
        -1.2656447477638721e-02 8.8743335008621216e-01</leafValues></_>
    <_>
      <internalNodes>
        0 -1 28187 1.2715455144643784e-02</internalNodes>
      <leafValues>
        2.4332936853170395e-02 -4.9381712079048157e-01</leafValues></_>
    <_>
      <internalNodes>
        0 -1 59320 2.7468970511108637e-03</internalNodes>
      <leafValues>
        -6.2105115503072739e-02 1.6640390455722809e-01</leafValues></_>
    <_>
      <internalNodes>
        0 -1 59965 8.7664043530821800e-03</internalNodes>
      <leafValues>
        -3.6958247423171997e-02 3.5113859176635742e-01</leafValues></_>
    <_>
      <internalNodes>
        0 -1 73388 6.4782635308802128e-04</internalNodes>
      <leafValues>
        9.0163871645927429e-02 -1.2135466933250427e-01</leafValues></_>
    <_>
      <internalNodes>
        0 -1 41761 4.7249160706996918e-03</internalNodes>
      <leafValues>
        -4.9737732857465744e-02 2.1439863741397858e-01</leafValues></_>
    <_>
      <internalNodes>
        0 -1 52907 -1.6634508967399597e-01</internalNodes>
      <leafValues>
        -3.9344072341918945e-01 2.6814717799425125e-02</leafValues></_>
    <_>
      <internalNodes>
        0 -1 73489 -1.5123471617698669e-02</internalNodes>
      <leafValues>
        5.0902497768402100e-01 -2.0033359527587891e-02</leafValues></_>
    <_>
      <internalNodes>
        0 -1 34176 1.6980040818452835e-02</internalNodes>
      <leafValues>
        -2.6938444003462791e-02 3.5310056805610657e-01</leafValues></_>
    <_>
      <internalNodes>
        0 -1 78344 -8.8557573035359383e-03</internalNodes>
      <leafValues>
        -8.6193239688873291e-01 1.3307498767971992e-02</leafValues></_>
    <_>
      <internalNodes>
        0 -1 27909 3.5926715936511755e-03</internalNodes>
      <leafValues>
        3.6900248378515244e-02 -2.8161686658859253e-01</leafValues></_>
    <_>
      <internalNodes>
        0 -1 61251 5.4317931644618511e-03</internalNodes>
      <leafValues>
        1.8480950966477394e-02 -5.9366106986999512e-01</leafValues></_>
    <_>
      <internalNodes>
        0 -1 76754 -6.0848891735076904e-03</internalNodes>
      <leafValues>
        -7.8392583131790161e-01 1.2055980972945690e-02</leafValues></_>
    <_>
      <internalNodes>
        0 -1 29163 1.1671490967273712e-02</internalNodes>
      <leafValues>
        -4.7370493412017822e-02 2.2063821554183960e-01</leafValues></_>
    <_>
      <internalNodes>
        0 -1 71639 1.5140030300244689e-03</internalNodes>
      <leafValues>
        4.8707064241170883e-02 -2.2271074354648590e-01</leafValues></_>
    <_>
      <internalNodes>
        0 -1 31951 9.8325125873088837e-03</internalNodes>
      <leafValues>
        -5.7257957756519318e-02 1.8870534002780914e-01</leafValues></_>
    <_>
      <internalNodes>
        0 -1 71193 3.9936983375810087e-04</internalNodes>
      <leafValues>
        8.0697074532508850e-02 -1.2883025407791138e-01</leafValues></_>
    <_>
      <internalNodes>
        0 -1 77459 -5.9721623547375202e-03</internalNodes>
      <leafValues>
        -7.5476634502410889e-01 1.2827358208596706e-02</leafValues></_>
    <_>
      <internalNodes>
        0 -1 78107 1.1328777763992548e-03</internalNodes>
      <leafValues>
        -5.6224521249532700e-02 1.9398084282875061e-01</leafValues></_>
    <_>
      <internalNodes>
        0 -1 68679 3.2190224155783653e-03</internalNodes>
      <leafValues>
        2.4282637983560562e-02 -4.3137851357460022e-01</leafValues></_>
    <_>
      <internalNodes>
        0 -1 13261 2.2328603267669678e-01</internalNodes>
      <leafValues>
        1.2647147290408611e-02 -7.9617905616760254e-01</leafValues></_>
    <_>
      <internalNodes>
        0 -1 20540 3.7771679461002350e-02</internalNodes>
      <leafValues>
        -3.8610428571701050e-02 3.2865118980407715e-01</leafValues></_>
    <_>
      <internalNodes>
        0 -1 33385 1.8698091153055429e-03</internalNodes>
      <leafValues>
        8.8275082409381866e-02 -1.3078945875167847e-01</leafValues></_>
    <_>
      <internalNodes>
        0 -1 71509 -3.6123175173997879e-02</internalNodes>
      <leafValues>
        4.2058202624320984e-01 -2.3692173883318901e-02</leafValues></_>
    <_>
      <internalNodes>
        0 -1 72040 -7.2291623800992966e-03</internalNodes>
      <leafValues>
        2.4081000685691833e-01 -4.4310670346021652e-02</leafValues></_>
    <_>
      <internalNodes>
        0 -1 35114 -9.6241295337677002e-02</internalNodes>
      <leafValues>
        -2.3156844079494476e-01 5.3963210433721542e-02</leafValues></_>
    <_>
      <internalNodes>
        0 -1 12599 3.2234480604529381e-03</internalNodes>
      <leafValues>
        2.3907981812953949e-02 -4.8150444030761719e-01</leafValues></_>
    <_>
      <internalNodes>
        0 -1 11269 3.6447322927415371e-03</internalNodes>
      <leafValues>
        -5.9356249868869781e-02 1.8887925148010254e-01</leafValues></_>
    <_>
      <internalNodes>
        0 -1 44884 3.0602741986513138e-02</internalNodes>
      <leafValues>
        -1.9615199416875839e-02 5.9074181318283081e-01</leafValues></_>
    <_>
      <internalNodes>
        0 -1 68599 -3.3754408359527588e-03</internalNodes>
      <leafValues>
        -2.5998204946517944e-01 4.6353500336408615e-02</leafValues></_>
    <_>
      <internalNodes>
        0 -1 10199 -9.2347366735339165e-03</internalNodes>
      <leafValues>
        2.3707346618175507e-01 -4.5259110629558563e-02</leafValues></_>
    <_>
      <internalNodes>
        0 -1 2178 -2.2889315150678158e-03</internalNodes>
      <leafValues>
        1.1742264777421951e-01 -9.3272671103477478e-02</leafValues></_>
    <_>
      <internalNodes>
        0 -1 19040 -5.7231191545724869e-02</internalNodes>
      <leafValues>
        4.3142998218536377e-01 -2.4179605767130852e-02</leafValues></_>
    <_>
      <internalNodes>
        0 -1 2415 8.5886791348457336e-03</internalNodes>
      <leafValues>
        9.5524229109287262e-02 -1.1231612414121628e-01</leafValues></_>
    <_>
      <internalNodes>
        0 -1 14004 9.0617775917053223e-02</internalNodes>
      <leafValues>
        -3.7009987980127335e-02 3.5481622815132141e-01</leafValues></_>
    <_>
      <internalNodes>
        0 -1 5304 -7.7928742393851280e-04</internalNodes>
      <leafValues>
        1.5447978675365448e-01 -6.6986389458179474e-02</leafValues></_>
    <_>
      <internalNodes>
        0 -1 5304 5.9533736202865839e-04</internalNodes>
      <leafValues>
        -7.0919647812843323e-02 1.7917706072330475e-01</leafValues></_>
    <_>
      <internalNodes>
        0 -1 13304 -5.3863744251430035e-03</internalNodes>
      <leafValues>
        -6.4142233133316040e-01 2.1311888471245766e-02</leafValues></_>
    <_>
      <internalNodes>
        0 -1 6514 -3.1525779515504837e-02</internalNodes>
      <leafValues>
        -5.5901998281478882e-01 1.6626304015517235e-02</leafValues></_>
    <_>
      <internalNodes>
        0 -1 8974 4.4299857690930367e-03</internalNodes>
      <leafValues>
        3.5912211984395981e-02 -2.8830546140670776e-01</leafValues></_>
    <_>
      <internalNodes>
        0 -1 16490 -3.6345362663269043e-02</internalNodes>
      <leafValues>
        3.3782282471656799e-01 -3.3440135419368744e-02</leafValues></_>
    <_>
      <internalNodes>
        0 -1 56389 1.6868844628334045e-02</internalNodes>
      <leafValues>
        -3.0696261674165726e-02 3.6341980099678040e-01</leafValues></_>
    <_>
      <internalNodes>
        0 -1 55831 -1.1557248979806900e-01</internalNodes>
      <leafValues>
        5.2616018056869507e-01 -2.0317126065492630e-02</leafValues></_>
    <_>
      <internalNodes>
        0 -1 62445 -1.4265181496739388e-02</internalNodes>
      <leafValues>
        -2.8574097156524658e-01 5.4264646023511887e-02</leafValues></_>
    <_>
      <internalNodes>
        0 -1 10796 -2.8173666447401047e-02</internalNodes>
      <leafValues>
        4.1565230488777161e-01 -3.0253006145358086e-02</leafValues></_>
    <_>
      <internalNodes>
        0 -1 1339 2.1551302075386047e-01</internalNodes>
      <leafValues>
        -2.9433283954858780e-02 3.3188948035240173e-01</leafValues></_>
    <_>
      <internalNodes>
        0 -1 77116 1.4924645423889160e-02</internalNodes>
      <leafValues>
        -2.4866618216037750e-02 4.3635389208793640e-01</leafValues></_>
    <_>
      <internalNodes>
        0 -1 14918 -3.2839611172676086e-02</internalNodes>
      <leafValues>
        3.1705486774444580e-01 -3.2948002219200134e-02</leafValues></_>
    <_>
      <internalNodes>
        0 -1 16087 -5.9301168657839298e-03</internalNodes>
      <leafValues>
        3.2314911484718323e-01 -3.4744892269372940e-02</leafValues></_>
    <_>
      <internalNodes>
        0 -1 76654 -5.0957677885890007e-03</internalNodes>
      <leafValues>
        -3.9780059456825256e-01 2.9188444837927818e-02</leafValues></_>
    <_>
      <internalNodes>
        0 -1 19249 3.5988360643386841e-02</internalNodes>
      <leafValues>
        -1.5820465981960297e-02 7.2653925418853760e-01</leafValues></_>
    <_>
      <internalNodes>
        0 -1 26466 -1.6153436154127121e-03</internalNodes>
      <leafValues>
        -1.6127687692642212e-01 7.0487923920154572e-02</leafValues></_>
    <_>
      <internalNodes>
        0 -1 78299 1.1981051415205002e-02</internalNodes>
      <leafValues>
        -1.5505040995776653e-02 7.3861795663833618e-01</leafValues></_>
    <_>
      <internalNodes>
        0 -1 76468 -4.9922452308237553e-04</internalNodes>
      <leafValues>
        -1.4415423572063446e-01 7.6298244297504425e-02</leafValues></_>
    <_>
      <internalNodes>
        0 -1 73164 -1.1710385791957378e-02</internalNodes>
      <leafValues>
        3.6150199174880981e-01 -3.3044364303350449e-02</leafValues></_>
    <_>
      <internalNodes>
        0 -1 74338 1.8598977476358414e-02</internalNodes>
      <leafValues>
        1.2437907047569752e-02 -1.</leafValues></_>
    <_>
      <internalNodes>
        0 -1 65160 6.2361471354961395e-02</internalNodes>
      <leafValues>
        -2.3384997621178627e-02 5.1167184114456177e-01</leafValues></_>
    <_>
      <internalNodes>
        0 -1 48506 4.3823202140629292e-03</internalNodes>
      <leafValues>
        2.0456451922655106e-02 -5.6975328922271729e-01</leafValues></_>
    <_>
      <internalNodes>
        0 -1 27881 -1.7209541052579880e-02</internalNodes>
      <leafValues>
        4.5516523718833923e-01 -2.5357818230986595e-02</leafValues></_>
    <_>
      <internalNodes>
        0 -1 77641 8.3125140517950058e-03</internalNodes>
      <leafValues>
        1.5550806187093258e-02 -8.3144086599349976e-01</leafValues></_>
    <_>
      <internalNodes>
        0 -1 7424 5.7863118126988411e-03</internalNodes>
      <leafValues>
        -6.7555144429206848e-02 1.7496286332607269e-01</leafValues></_>
    <_>
      <internalNodes>
        0 -1 70726 3.7931944243609905e-03</internalNodes>
      <leafValues>
        6.7942030727863312e-02 -1.7228135466575623e-01</leafValues></_>
    <_>
      <internalNodes>
        0 -1 31515 -2.2837764024734497e-01</internalNodes>
      <leafValues>
        5.3563040494918823e-01 -1.7382977530360222e-02</leafValues></_>
    <_>
      <internalNodes>
        0 -1 47241 1.9624480605125427e-01</internalNodes>
      <leafValues>
        3.2141380012035370e-02 -4.0012952685356140e-01</leafValues></_>
    <_>
      <internalNodes>
        0 -1 67744 1.2445480562746525e-02</internalNodes>
      <leafValues>
        -5.6814793497323990e-02 2.0952112972736359e-01</leafValues></_>
    <_>
      <internalNodes>
        0 -1 78242 -2.7457992546260357e-03</internalNodes>
      <leafValues>
        -3.6660313606262207e-01 3.1108442693948746e-02</leafValues></_>
    <_>
      <internalNodes>
        0 -1 76324 -2.7660340070724487e-02</internalNodes>
      <leafValues>
        3.8932880759239197e-01 -2.9033318161964417e-02</leafValues></_>
    <_>
      <internalNodes>
        0 -1 78222 -5.0755213014781475e-03</internalNodes>
      <leafValues>
        -6.5758484601974487e-01 1.8274411559104919e-02</leafValues></_>
    <_>
      <internalNodes>
        0 -1 78024 -3.8837864995002747e-02</internalNodes>
      <leafValues>
        3.4744441509246826e-01 -3.3011045306921005e-02</leafValues></_>
    <_>
      <internalNodes>
        0 -1 24985 -3.1875811517238617e-02</internalNodes>
      <leafValues>
        6.1136615276336670e-01 -1.7478046938776970e-02</leafValues></_>
    <_>
      <internalNodes>
        0 -1 3887 2.8496731072664261e-02</internalNodes>
      <leafValues>
        1.6314957290887833e-02 -9.3802028894424438e-01</leafValues></_>
    <_>
      <internalNodes>
        0 -1 4673 9.9536627531051636e-02</internalNodes>
      <leafValues>
        -2.6166319847106934e-02 4.4719994068145752e-01</leafValues></_>
    <_>
      <internalNodes>
        0 -1 45713 -8.7451376020908356e-03</internalNodes>
      <leafValues>
        1.4505402743816376e-01 -7.8534729778766632e-02</leafValues></_>
    <_>
      <internalNodes>
        0 -1 32019 2.4595685303211212e-02</internalNodes>
      <leafValues>
        -3.0655015259981155e-02 3.5438889265060425e-01</leafValues></_>
    <_>
      <internalNodes>
        0 -1 75131 -1.6266558319330215e-02</internalNodes>
      <leafValues>
        5.9934675693511963e-01 -1.5722068026661873e-02</leafValues></_>
    <_>
      <internalNodes>
        0 -1 44493 2.2269546752795577e-04</internalNodes>
      <leafValues>
        8.5856191813945770e-02 -1.3064612448215485e-01</leafValues></_>
    <_>
      <internalNodes>
        0 -1 29210 5.7741887867450714e-03</internalNodes>
      <leafValues>
        2.2056695073843002e-02 -5.3294152021408081e-01</leafValues></_>
    <_>
      <internalNodes>
        0 -1 33285 4.4235192239284515e-02</internalNodes>
      <leafValues>
        -2.3660372942686081e-02 4.6830192208290100e-01</leafValues></_>
    <_>
      <internalNodes>
        0 -1 14606 1.2477417476475239e-04</internalNodes>
      <leafValues>
        9.5447801053524017e-02 -1.1541723459959030e-01</leafValues></_></weakClassifiers></stage5>
</opencv_storage>
