<?xml version="1.0"?>
<opencv_storage>
<stage3>
  <maxWeakCount>50</maxWeakCount>
  <stageThreshold>-6.8001985549926758e-01</stageThreshold>
  <weakClassifiers>
    <_>
      <internalNodes>
        0 -1 66534 -4.4653825461864471e-03</internalNodes>
      <leafValues>
        5.7120740413665771e-01 1.1505682021379471e-01</leafValues></_>
    <_>
      <internalNodes>
        0 -1 77711 2.8207827359437943e-02</internalNodes>
      <leafValues>
        -3.9524979889392853e-02 7.3813217878341675e-01</leafValues></_>
    <_>
      <internalNodes>
        0 -1 65982 1.6855727881193161e-02</internalNodes>
      <leafValues>
        -1.1693143844604492e-01 5.7664889097213745e-01</leafValues></_>
    <_>
      <internalNodes>
        0 -1 77033 6.5504731610417366e-03</internalNodes>
      <leafValues>
        -1.7807781696319580e-01 2.8376102447509766e-01</leafValues></_>
    <_>
      <internalNodes>
        0 -1 54331 7.4369425419718027e-04</internalNodes>
      <leafValues>
        -1.3857848942279816e-01 2.4811166524887085e-01</leafValues></_>
    <_>
      <internalNodes>
        0 -1 62169 -3.1680827960371971e-03</internalNodes>
      <leafValues>
        -6.5448206663131714e-01 5.8653507381677628e-02</leafValues></_>
    <_>
      <internalNodes>
        0 -1 47870 5.9888072311878204e-02</internalNodes>
      <leafValues>
        -9.0757295489311218e-02 3.7351840734481812e-01</leafValues></_>
    <_>
      <internalNodes>
        0 -1 77155 -8.1210583448410034e-03</internalNodes>
      <leafValues>
        2.4441729485988617e-01 -1.4671070873737335e-01</leafValues></_>
    <_>
      <internalNodes>
        0 -1 69369 -1.7664872109889984e-02</internalNodes>
      <leafValues>
        2.9365995526313782e-01 -1.0693055391311646e-01</leafValues></_>
    <_>
      <internalNodes>
        0 -1 56911 -4.4716382399201393e-03</internalNodes>
      <leafValues>
        -5.4824411869049072e-01 5.0975129008293152e-02</leafValues></_>
    <_>
      <internalNodes>
        0 -1 62230 -1.5128223458305001e-03</internalNodes>
      <leafValues>
        2.0520482957363129e-01 -1.7048723995685577e-01</leafValues></_>
    <_>
      <internalNodes>
        0 -1 65437 -3.5729783121496439e-03</internalNodes>
      <leafValues>
        -6.9299745559692383e-01 4.0120597928762436e-02</leafValues></_>
    <_>
      <internalNodes>
        0 -1 68601 2.0108441822230816e-03</internalNodes>
      <leafValues>
        -1.6089534759521484e-01 1.9599279761314392e-01</leafValues></_>
    <_>
      <internalNodes>
        0 -1 61933 4.0012709796428680e-03</internalNodes>
      <leafValues>
        5.8780722320079803e-02 -4.9486732482910156e-01</leafValues></_>
    <_>
      <internalNodes>
        0 -1 65202 2.7989258524030447e-04</internalNodes>
      <leafValues>
        -1.7070506513118744e-01 2.2865639626979828e-01</leafValues></_>
    <_>
      <internalNodes>
        0 -1 47688 8.7751785758882761e-04</internalNodes>
      <leafValues>
        -1.5306076407432556e-01 1.9736826419830322e-01</leafValues></_>
    <_>
      <internalNodes>
        0 -1 27036 -1.5894712414592505e-03</internalNodes>
      <leafValues>
        2.3330612480640411e-01 -1.2030424177646637e-01</leafValues></_>
    <_>
      <internalNodes>
        0 -1 2555 3.3463275432586670e-01</internalNodes>
      <leafValues>
        -5.1716141402721405e-02 5.6486463546752930e-01</leafValues></_>
    <_>
      <internalNodes>
        0 -1 76819 4.5731879770755768e-02</internalNodes>
      <leafValues>
        -5.4680600762367249e-02 4.7694402933120728e-01</leafValues></_>
    <_>
      <internalNodes>
        0 -1 27509 5.1788548007607460e-03</internalNodes>
      <leafValues>
        8.1976510584354401e-02 -3.4748589992523193e-01</leafValues></_>
    <_>
      <internalNodes>
        0 -1 65877 -9.8871141672134399e-03</internalNodes>
      <leafValues>
        4.7767427563667297e-01 -6.1054073274135590e-02</leafValues></_>
    <_>
      <internalNodes>
        0 -1 78031 3.7874670233577490e-03</internalNodes>
      <leafValues>
        5.1266755908727646e-02 -6.0628163814544678e-01</leafValues></_>
    <_>
      <internalNodes>
        0 -1 25927 -6.6757099702954292e-03</internalNodes>
      <leafValues>
        2.8205418586730957e-01 -9.0324558317661285e-02</leafValues></_>
    <_>
      <internalNodes>
        0 -1 55374 4.6371165663003922e-03</internalNodes>
      <leafValues>
        4.4403415173292160e-02 -6.0173940658569336e-01</leafValues></_>
    <_>
      <internalNodes>
        0 -1 58796 6.2426514923572540e-03</internalNodes>
      <leafValues>
        -9.9890522658824921e-02 2.6162305474281311e-01</leafValues></_>
    <_>
      <internalNodes>
        0 -1 36190 -2.6732549071311951e-02</internalNodes>
      <leafValues>
        -4.9487575888633728e-01 4.3334294110536575e-02</leafValues></_>
    <_>
      <internalNodes>
        0 -1 77928 2.3958666250109673e-02</internalNodes>
      <leafValues>
        -3.8248479366302490e-02 7.5094246864318848e-01</leafValues></_>
    <_>
      <internalNodes>
        0 -1 37459 1.0626246221363544e-03</internalNodes>
      <leafValues>
        -1.3012030720710754e-01 1.8516893684864044e-01</leafValues></_>
    <_>
      <internalNodes>
        0 -1 45053 2.4653517175465822e-03</internalNodes>
      <leafValues>
        -9.8044142127037048e-02 2.4139064550399780e-01</leafValues></_>
    <_>
      <internalNodes>
        0 -1 54044 -3.9649764075875282e-03</internalNodes>
      <leafValues>
        -4.5262226462364197e-01 5.2623152732849121e-02</leafValues></_>
    <_>
      <internalNodes>
        0 -1 58967 -7.9066548496484756e-03</internalNodes>
      <leafValues>
        -7.8848153352737427e-01 2.6136759668588638e-02</leafValues></_>
    <_>
      <internalNodes>
        0 -1 71972 2.1300129592418671e-02</internalNodes>
      <leafValues>
        -1.3284304738044739e-01 1.7927461862564087e-01</leafValues></_>
    <_>
      <internalNodes>
        0 -1 66175 -7.3763519525527954e-02</internalNodes>
      <leafValues>
        4.9357980489730835e-01 -4.7125808894634247e-02</leafValues></_>
    <_>
      <internalNodes>
        0 -1 7524 -6.3692014664411545e-03</internalNodes>
      <leafValues>
        2.9395869374275208e-01 -8.2104995846748352e-02</leafValues></_>
    <_>
      <internalNodes>
        0 -1 63003 1.6884893178939819e-02</internalNodes>
      <leafValues>
        -4.4460762292146683e-02 5.4122352600097656e-01</leafValues></_>
    <_>
      <internalNodes>
        0 -1 62916 -4.7003654763102531e-03</internalNodes>
      <leafValues>
        3.2364410161972046e-01 -8.7512150406837463e-02</leafValues></_>
    <_>
      <internalNodes>
        0 -1 76209 7.8972829505801201e-03</internalNodes>
      <leafValues>
        5.1177844405174255e-02 -4.6640390157699585e-01</leafValues></_>
    <_>
      <internalNodes>
        0 -1 26733 -3.6382745951414108e-02</internalNodes>
      <leafValues>
        3.4782460331916809e-01 -6.7467130720615387e-02</leafValues></_>
    <_>
      <internalNodes>
        0 -1 55443 -2.2046282887458801e-02</internalNodes>
      <leafValues>
        -3.7667271494865417e-01 7.0405326783657074e-02</leafValues></_>
    <_>
      <internalNodes>
        0 -1 63859 7.8784208744764328e-04</internalNodes>
      <leafValues>
        -1.1078248172998428e-01 2.2499081492424011e-01</leafValues></_>
    <_>
      <internalNodes>
        0 -1 54345 9.5329172909259796e-03</internalNodes>
      <leafValues>
        5.6102622300386429e-02 -4.1930162906646729e-01</leafValues></_>
    <_>
      <internalNodes>
        0 -1 59759 -4.6178672462701797e-02</internalNodes>
      <leafValues>
        3.6313846707344055e-01 -6.4528696238994598e-02</leafValues></_>
    <_>
      <internalNodes>
        0 -1 36237 1.3473140075802803e-02</internalNodes>
      <leafValues>
        5.5951889604330063e-02 -4.1365027427673340e-01</leafValues></_>
    <_>
      <internalNodes>
        0 -1 44814 -6.1163149075582623e-04</internalNodes>
      <leafValues>
        2.1678291261196136e-01 -1.1372391879558563e-01</leafValues></_>
    <_>
      <internalNodes>
        0 -1 55733 -1.3098155613988638e-03</internalNodes>
      <leafValues>
        2.0997701585292816e-01 -1.0939847677946091e-01</leafValues></_>
    <_>
      <internalNodes>
        0 -1 32671 -3.7446483038365841e-03</internalNodes>
      <leafValues>
        2.6210820674896240e-01 -8.8496707379817963e-02</leafValues></_>
    <_>
      <internalNodes>
        0 -1 58430 -7.2751846164464951e-04</internalNodes>
      <leafValues>
        2.3355512320995331e-01 -1.0769741237163544e-01</leafValues></_>
    <_>
      <internalNodes>
        0 -1 54483 6.6228020004928112e-03</internalNodes>
      <leafValues>
        -1.2141807377338409e-01 2.1132956445217133e-01</leafValues></_>
    <_>
      <internalNodes>
        0 -1 77665 2.4668870028108358e-03</internalNodes>
      <leafValues>
        8.1553615629673004e-02 -3.0864036083221436e-01</leafValues></_>
    <_>
      <internalNodes>
        0 -1 78060 -3.9207572117447853e-03</internalNodes>
      <leafValues>
        1.6870318353176117e-01 -1.4151218533515930e-01</leafValues></_></weakClassifiers></stage3>
</opencv_storage>
