<?xml version="1.0"?>
<opencv_storage>
<stage5>
  <maxWeakCount>100</maxWeakCount>
  <stageThreshold>-5.8649444580078125e-01</stageThreshold>
  <weakClassifiers>
    <_>
      <internalNodes>
        0 -1 68901 1.3756223022937775e-02</internalNodes>
      <leafValues>
        2.7188512682914734e-01 5.7855820655822754e-01</leafValues></_>
    <_>
      <internalNodes>
        0 -1 18392 1.0279246605932713e-02</internalNodes>
      <leafValues>
        -7.4203550815582275e-02 1.8429158627986908e-01</leafValues></_>
    <_>
      <internalNodes>
        0 -1 37499 -2.1840531378984451e-02</internalNodes>
      <leafValues>
        6.0220640897750854e-01 -5.0453834235668182e-02</leafValues></_>
    <_>
      <internalNodes>
        0 -1 17819 -6.4898910932242870e-04</internalNodes>
      <leafValues>
        1.3634853065013885e-01 -1.1696766316890717e-01</leafValues></_>
    <_>
      <internalNodes>
        0 -1 58430 -7.3673273436725140e-04</internalNodes>
      <leafValues>
        1.8225528299808502e-01 -7.3694251477718353e-02</leafValues></_>
    <_>
      <internalNodes>
        0 -1 54427 5.2571098785847425e-04</internalNodes>
      <leafValues>
        -8.3197072148323059e-02 1.7382229864597321e-01</leafValues></_>
    <_>
      <internalNodes>
        0 -1 54427 -2.6019592769443989e-04</internalNodes>
      <leafValues>
        1.5138781070709229e-01 -1.0462510585784912e-01</leafValues></_>
    <_>
      <internalNodes>
        0 -1 8171 2.0315274596214294e-02</internalNodes>
      <leafValues>
        4.2938668280839920e-02 -3.9722156524658203e-01</leafValues></_>
    <_>
      <internalNodes>
        0 -1 75593 -1.3409901876002550e-03</internalNodes>
      <leafValues>
        1.2900596857070923e-01 -1.0781599581241608e-01</leafValues></_>
    <_>
      <internalNodes>
        0 -1 66157 5.8705899864435196e-03</internalNodes>
      <leafValues>
        -5.1651187241077423e-02 2.5220137834548950e-01</leafValues></_>
    <_>
      <internalNodes>
        0 -1 65725 9.9682938307523727e-03</internalNodes>
      <leafValues>
        -7.1505278348922729e-02 1.6863553225994110e-01</leafValues></_>
    <_>
      <internalNodes>
        0 -1 71045 5.1382668316364288e-03</internalNodes>
      <leafValues>
        1.9391134381294250e-02 -6.5858638286590576e-01</leafValues></_>
    <_>
      <internalNodes>
        0 -1 71423 1.7140037380158901e-03</internalNodes>
      <leafValues>
        -5.1946584135293961e-02 2.4057540297508240e-01</leafValues></_>
    <_>
      <internalNodes>
        0 -1 68708 -7.5305704958736897e-03</internalNodes>
      <leafValues>
        -5.8415067195892334e-01 2.1538684144616127e-02</leafValues></_>
    <_>
      <internalNodes>
        0 -1 5309 -1.1402717791497707e-04</internalNodes>
      <leafValues>
        1.1485237628221512e-01 -1.1671955138444901e-01</leafValues></_>
    <_>
      <internalNodes>
        0 -1 78357 -6.4617348834872246e-04</internalNodes>
      <leafValues>
        1.3726069033145905e-01 -8.8916771113872528e-02</leafValues></_>
    <_>
      <internalNodes>
        0 -1 12960 3.8331854157149792e-03</internalNodes>
      <leafValues>
        3.2605845481157303e-02 -3.6951732635498047e-01</leafValues></_>
    <_>
      <internalNodes>
        0 -1 32639 5.0023002550005913e-03</internalNodes>
      <leafValues>
        1.8837062641978264e-02 -6.8807369470596313e-01</leafValues></_>
    <_>
      <internalNodes>
        0 -1 68539 1.1973949149250984e-03</internalNodes>
      <leafValues>
        -8.0067768692970276e-02 1.6006195545196533e-01</leafValues></_>
    <_>
      <internalNodes>
        0 -1 32251 -1.6651301085948944e-01</internalNodes>
      <leafValues>
        5.6680750846862793e-01 -2.1780431270599365e-02</leafValues></_>
    <_>
      <internalNodes>
        0 -1 76400 -3.0720341950654984e-02</internalNodes>
      <leafValues>
        -7.9209661483764648e-01 1.9284680485725403e-02</leafValues></_>
    <_>
      <internalNodes>
        0 -1 16712 1.2451644288375974e-03</internalNodes>
      <leafValues>
        -8.3874747157096863e-02 1.4471124112606049e-01</leafValues></_>
    <_>
      <internalNodes>
        0 -1 16091 -1.3801492750644684e-03</internalNodes>
      <leafValues>
        1.6664506494998932e-01 -8.2670211791992188e-02</leafValues></_>
    <_>
      <internalNodes>
        0 -1 27705 -9.2380866408348083e-04</internalNodes>
      <leafValues>
        1.3166339695453644e-01 -9.6380338072776794e-02</leafValues></_>
    <_>
      <internalNodes>
        0 -1 77783 -2.0346886012703180e-03</internalNodes>
      <leafValues>
        1.9527539610862732e-01 -6.5085269510746002e-02</leafValues></_>
    <_>
      <internalNodes>
        0 -1 5020 -3.4240141510963440e-02</internalNodes>
      <leafValues>
        4.9365314841270447e-01 -2.4967834353446960e-02</leafValues></_>
    <_>
      <internalNodes>
        0 -1 24500 -3.3915173262357712e-03</internalNodes>
      <leafValues>
        -3.2275617122650146e-01 4.3772425502538681e-02</leafValues></_>
    <_>
      <internalNodes>
        0 -1 77358 -5.4396204650402069e-03</internalNodes>
      <leafValues>
        -4.6217623353004456e-01 2.4922026321291924e-02</leafValues></_>
    <_>
      <internalNodes>
        0 -1 77877 -5.0156400538980961e-03</internalNodes>
      <leafValues>
        2.4679408967494965e-01 -4.9164976924657822e-02</leafValues></_>
    <_>
      <internalNodes>
        0 -1 13647 -3.3670966513454914e-03</internalNodes>
      <leafValues>
        1.6320204734802246e-01 -7.8160054981708527e-02</leafValues></_>
    <_>
      <internalNodes>
        0 -1 62681 3.3645452931523323e-03</internalNodes>
      <leafValues>
        -8.6879149079322815e-02 1.4298322796821594e-01</leafValues></_>
    <_>
      <internalNodes>
        0 -1 74477 -1.6163484542630613e-04</internalNodes>
      <leafValues>
        -1.3292011618614197e-01 1.0311406105756760e-01</leafValues></_>
    <_>
      <internalNodes>
        0 -1 78392 -5.2902434254065156e-04</internalNodes>
      <leafValues>
        1.4304848015308380e-01 -8.2544162869453430e-02</leafValues></_>
    <_>
      <internalNodes>
        0 -1 21708 9.2433720827102661e-02</internalNodes>
      <leafValues>
        -1.1620148085057735e-02 8.8687658309936523e-01</leafValues></_>
    <_>
      <internalNodes>
        0 -1 6918 3.8932941388338804e-03</internalNodes>
      <leafValues>
        2.7476442977786064e-02 -5.3368443250656128e-01</leafValues></_>
    <_>
      <internalNodes>
        0 -1 74301 2.9254056513309479e-02</internalNodes>
      <leafValues>
        -2.3280907422304153e-02 5.9129703044891357e-01</leafValues></_>
    <_>
      <internalNodes>
        0 -1 11797 4.1156895458698273e-02</internalNodes>
      <leafValues>
        -1.5347444452345371e-02 6.3702821731567383e-01</leafValues></_>
    <_>
      <internalNodes>
        0 -1 57240 4.0425151586532593e-02</internalNodes>
      <leafValues>
        -2.3073304444551468e-02 4.7648623585700989e-01</leafValues></_>
    <_>
      <internalNodes>
        0 -1 30443 1.3459333777427673e-01</internalNodes>
      <leafValues>
        -3.5190965980291367e-02 3.4322044253349304e-01</leafValues></_>
    <_>
      <internalNodes>
        0 -1 53895 -8.1398449838161469e-03</internalNodes>
      <leafValues>
        -4.4818365573883057e-01 2.8127672150731087e-02</leafValues></_>
    <_>
      <internalNodes>
        0 -1 32756 -2.1432306617498398e-02</internalNodes>
      <leafValues>
        -1.6778089106082916e-01 7.6932564377784729e-02</leafValues></_>
    <_>
      <internalNodes>
        0 -1 21640 3.8702651858329773e-02</internalNodes>
      <leafValues>
        5.1337718963623047e-02 -2.5428509712219238e-01</leafValues></_>
    <_>
      <internalNodes>
        0 -1 75704 4.4559175148606300e-03</internalNodes>
      <leafValues>
        2.0523119717836380e-02 -6.2588459253311157e-01</leafValues></_>
    <_>
      <internalNodes>
        0 -1 49524 -6.0307706007733941e-04</internalNodes>
      <leafValues>
        1.7255687713623047e-01 -7.5701713562011719e-02</leafValues></_>
    <_>
      <internalNodes>
        0 -1 64329 7.2706239297986031e-03</internalNodes>
      <leafValues>
        1.2844743207097054e-02 -8.8557505607604980e-01</leafValues></_>
    <_>
      <internalNodes>
        0 -1 3334 -1.7904839478433132e-04</internalNodes>
      <leafValues>
        1.0723235458135605e-01 -1.2078038603067398e-01</leafValues></_>
    <_>
      <internalNodes>
        0 -1 78140 -5.9058936312794685e-04</internalNodes>
      <leafValues>
        1.4446674287319183e-01 -8.3280660212039948e-02</leafValues></_>
    <_>
      <internalNodes>
        0 -1 62376 3.4366751788184047e-04</internalNodes>
      <leafValues>
        -1.0368108004331589e-01 1.1646430194377899e-01</leafValues></_>
    <_>
      <internalNodes>
        0 -1 35073 1.7993625998497009e-01</internalNodes>
      <leafValues>
        1.7227644100785255e-02 -8.0251979827880859e-01</leafValues></_>
    <_>
      <internalNodes>
        0 -1 15457 7.6799858361482620e-03</internalNodes>
      <leafValues>
        -4.4577803462743759e-02 2.8763875365257263e-01</leafValues></_>
    <_>
      <internalNodes>
        0 -1 43542 -4.4890400022268295e-03</internalNodes>
      <leafValues>
        -4.2210334539413452e-01 3.3310141414403915e-02</leafValues></_>
    <_>
      <internalNodes>
        0 -1 3492 -5.1440410315990448e-02</internalNodes>
      <leafValues>
        -2.9311206936836243e-01 4.1741758584976196e-02</leafValues></_>
    <_>
      <internalNodes>
        0 -1 77602 4.6867802739143372e-03</internalNodes>
      <leafValues>
        1.9488651305437088e-02 -6.0928666591644287e-01</leafValues></_>
    <_>
      <internalNodes>
        0 -1 28055 -5.3296433761715889e-03</internalNodes>
      <leafValues>
        -4.9660092592239380e-01 2.3635493591427803e-02</leafValues></_>
    <_>
      <internalNodes>
        0 -1 71477 -3.8930796086788177e-02</internalNodes>
      <leafValues>
        -5.5458009243011475e-01 2.1122002974152565e-02</leafValues></_>
    <_>
      <internalNodes>
        0 -1 3470 -6.4724747790023685e-04</internalNodes>
      <leafValues>
        1.2401600182056427e-01 -1.0861622542142868e-01</leafValues></_>
    <_>
      <internalNodes>
        0 -1 19674 -2.6464201509952545e-02</internalNodes>
      <leafValues>
        3.8860595226287842e-01 -3.2003685832023621e-02</leafValues></_>
    <_>
      <internalNodes>
        0 -1 20354 1.9485194236040115e-02</internalNodes>
      <leafValues>
        -1.5250443480908871e-02 7.3761856555938721e-01</leafValues></_>
    <_>
      <internalNodes>
        0 -1 1634 9.3604356050491333e-02</internalNodes>
      <leafValues>
        2.5309273973107338e-02 -5.7813960313796997e-01</leafValues></_>
    <_>
      <internalNodes>
        0 -1 76934 -4.4256327673792839e-03</internalNodes>
      <leafValues>
        -3.4314349293708801e-01 3.4206595271825790e-02</leafValues></_>
    <_>
      <internalNodes>
        0 -1 38334 -2.1016626851633191e-04</internalNodes>
      <leafValues>
        1.1735110729932785e-01 -1.0225357860326767e-01</leafValues></_>
    <_>
      <internalNodes>
        0 -1 76944 -2.1963408216834068e-03</internalNodes>
      <leafValues>
        1.6451339423656464e-01 -8.1371456384658813e-02</leafValues></_>
    <_>
      <internalNodes>
        0 -1 77099 1.1891364119946957e-03</internalNodes>
      <leafValues>
        -9.1700270771980286e-02 1.5638421475887299e-01</leafValues></_>
    <_>
      <internalNodes>
        0 -1 61975 7.3216333985328674e-03</internalNodes>
      <leafValues>
        -4.6364221721887589e-02 2.5799179077148438e-01</leafValues></_>
    <_>
      <internalNodes>
        0 -1 20749 -3.6172647029161453e-02</internalNodes>
      <leafValues>
        -4.2891278862953186e-01 4.1368342936038971e-02</leafValues></_>
    <_>
      <internalNodes>
        0 -1 77184 2.2222930565476418e-03</internalNodes>
      <leafValues>
        -8.8285297155380249e-02 1.5346466004848480e-01</leafValues></_>
    <_>
      <internalNodes>
        0 -1 33934 -8.5081625729799271e-03</internalNodes>
      <leafValues>
        -7.8253126144409180e-01 1.7827093601226807e-02</leafValues></_>
    <_>
      <internalNodes>
        0 -1 49874 -2.6344670914113522e-03</internalNodes>
      <leafValues>
        2.1734377741813660e-01 -6.2726743519306183e-02</leafValues></_>
    <_>
      <internalNodes>
        0 -1 54524 9.2407537158578634e-04</internalNodes>
      <leafValues>
        -8.2804836332798004e-02 1.8205617368221283e-01</leafValues></_>
    <_>
      <internalNodes>
        0 -1 74240 1.1728130280971527e-01</internalNodes>
      <leafValues>
        3.0303172767162323e-02 -4.5884764194488525e-01</leafValues></_>
    <_>
      <internalNodes>
        0 -1 10342 -6.7985244095325470e-03</internalNodes>
      <leafValues>
        -1.6183689236640930e-01 7.9764977097511292e-02</leafValues></_>
    <_>
      <internalNodes>
        0 -1 22433 3.1364844180643559e-03</internalNodes>
      <leafValues>
        -9.4147473573684692e-02 1.7135344445705414e-01</leafValues></_>
    <_>
      <internalNodes>
        0 -1 19958 -2.1281111985445023e-03</internalNodes>
      <leafValues>
        -1.3834609091281891e-01 9.9713273346424103e-02</leafValues></_>
    <_>
      <internalNodes>
        0 -1 72218 7.3437108658254147e-03</internalNodes>
      <leafValues>
        3.6212176084518433e-02 -3.5464963316917419e-01</leafValues></_>
    <_>
      <internalNodes>
        0 -1 63207 1.3423080742359161e-01</internalNodes>
      <leafValues>
        -2.5190215557813644e-02 5.3404200077056885e-01</leafValues></_>
    <_>
      <internalNodes>
        0 -1 75671 2.0007643848657608e-02</internalNodes>
      <leafValues>
        -7.9619199037551880e-02 1.7824131250381470e-01</leafValues></_>
    <_>
      <internalNodes>
        0 -1 77480 -3.7628011777997017e-03</internalNodes>
      <leafValues>
        1.8566526472568512e-01 -7.6745189726352692e-02</leafValues></_>
    <_>
      <internalNodes>
        0 -1 45869 2.3562934249639511e-02</internalNodes>
      <leafValues>
        -4.9171786755323410e-02 2.7145162224769592e-01</leafValues></_>
    <_>
      <internalNodes>
        0 -1 54433 -2.9270858503878117e-03</internalNodes>
      <leafValues>
        -1.9935829937458038e-01 6.7128010094165802e-02</leafValues></_>
    <_>
      <internalNodes>
        0 -1 77119 2.9828473925590515e-02</internalNodes>
      <leafValues>
        2.1483205258846283e-02 -5.6586509943008423e-01</leafValues></_>
    <_>
      <internalNodes>
        0 -1 58436 -1.3144761323928833e-02</internalNodes>
      <leafValues>
        -6.7273974418640137e-01 1.7759343609213829e-02</leafValues></_>
    <_>
      <internalNodes>
        0 -1 60009 3.0987840145826340e-02</internalNodes>
      <leafValues>
        -3.7220984697341919e-02 3.4464573860168457e-01</leafValues></_>
    <_>
      <internalNodes>
        0 -1 47599 1.8036197870969772e-03</internalNodes>
      <leafValues>
        4.9761362373828888e-02 -2.5361958146095276e-01</leafValues></_>
    <_>
      <internalNodes>
        0 -1 38141 7.7210776507854462e-03</internalNodes>
      <leafValues>
        -3.7815604358911514e-02 3.3632880449295044e-01</leafValues></_>
    <_>
      <internalNodes>
        0 -1 22286 3.6387510597705841e-02</internalNodes>
      <leafValues>
        5.8339465409517288e-02 -2.1012951433658600e-01</leafValues></_>
    <_>
      <internalNodes>
        0 -1 66572 -1.4640105888247490e-02</internalNodes>
      <leafValues>
        6.9147670269012451e-01 -1.7266256734728813e-02</leafValues></_>
    <_>
      <internalNodes>
        0 -1 14207 -3.8559086620807648e-02</internalNodes>
      <leafValues>
        -4.0684235095977783e-01 3.2459806650876999e-02</leafValues></_>
    <_>
      <internalNodes>
        0 -1 3679 -3.8212308287620544e-01</internalNodes>
      <leafValues>
        8.1934070587158203e-01 -1.7911065369844437e-02</leafValues></_>
    <_>
      <internalNodes>
        0 -1 77501 -2.2847207728773355e-03</internalNodes>
      <leafValues>
        -2.5950866937637329e-01 5.4358221590518951e-02</leafValues></_>
    <_>
      <internalNodes>
        0 -1 70424 -6.2669798731803894e-02</internalNodes>
      <leafValues>
        8.1510728597640991e-01 -1.6441470012068748e-02</leafValues></_>
    <_>
      <internalNodes>
        0 -1 49197 -1.7573556397110224e-03</internalNodes>
      <leafValues>
        1.5575303137302399e-01 -8.0022491514682770e-02</leafValues></_>
    <_>
      <internalNodes>
        0 -1 73750 -4.2630354873836040e-03</internalNodes>
      <leafValues>
        2.9188185930252075e-01 -4.4664587825536728e-02</leafValues></_>
    <_>
      <internalNodes>
        0 -1 71329 6.4589129760861397e-03</internalNodes>
      <leafValues>
        5.9624977409839630e-02 -2.2233216464519501e-01</leafValues></_>
    <_>
      <internalNodes>
        0 -1 71142 -8.3368981722742319e-04</internalNodes>
      <leafValues>
        1.5969508886337280e-01 -7.7059037983417511e-02</leafValues></_>
    <_>
      <internalNodes>
        0 -1 77891 -1.8882597796618938e-03</internalNodes>
      <leafValues>
        2.0138491690158844e-01 -5.8000039309263229e-02</leafValues></_>
    <_>
      <internalNodes>
        0 -1 78161 -8.5793333128094673e-03</internalNodes>
      <leafValues>
        -5.0116783380508423e-01 2.6322515681385994e-02</leafValues></_>
    <_>
      <internalNodes>
        0 -1 55194 1.1614305898547173e-02</internalNodes>
      <leafValues>
        -4.6099729835987091e-02 2.5439655780792236e-01</leafValues></_>
    <_>
      <internalNodes>
        0 -1 75164 7.4211438186466694e-04</internalNodes>
      <leafValues>
        -8.4937490522861481e-02 1.4442004263401031e-01</leafValues></_>
    <_>
      <internalNodes>
        0 -1 73514 8.8908504694700241e-03</internalNodes>
      <leafValues>
        2.7028089389204979e-02 -5.3242623805999756e-01</leafValues></_>
    <_>
      <internalNodes>
        0 -1 77104 -1.3986486941576004e-02</internalNodes>
      <leafValues>
        -4.8431703448295593e-01 2.4578336626291275e-02</leafValues></_></weakClassifiers></stage5>
</opencv_storage>
