<?xml version="1.0"?>
<opencv_storage>
<stage8>
  <maxWeakCount>55</maxWeakCount>
  <stageThreshold>-6.9142758846282959e-01</stageThreshold>
  <weakClassifiers>
    <_>
      <internalNodes>
        0 -1 2739 7.7562686055898666e-03</internalNodes>
      <leafValues>
        2.0223011076450348e-01 6.8913340568542480e-01</leafValues></_>
    <_>
      <internalNodes>
        0 -1 73903 -8.6018927395343781e-03</internalNodes>
      <leafValues>
        2.8783431649208069e-01 -1.6596458852291107e-01</leafValues></_>
    <_>
      <internalNodes>
        0 -1 69660 5.0883442163467407e-03</internalNodes>
      <leafValues>
        -1.9862799346446991e-01 1.9507044553756714e-01</leafValues></_>
    <_>
      <internalNodes>
        0 -1 49790 -1.5060333535075188e-03</internalNodes>
      <leafValues>
        1.3987100124359131e-01 -2.2470925748348236e-01</leafValues></_>
    <_>
      <internalNodes>
        0 -1 77305 4.9343714490532875e-03</internalNodes>
      <leafValues>
        -9.8436012864112854e-02 3.2257655262947083e-01</leafValues></_>
    <_>
      <internalNodes>
        0 -1 70794 -5.5093242553994060e-04</internalNodes>
      <leafValues>
        2.1229477226734161e-01 -1.5527667105197906e-01</leafValues></_>
    <_>
      <internalNodes>
        0 -1 10786 7.6210116967558861e-03</internalNodes>
      <leafValues>
        5.0482150167226791e-02 -5.4722887277603149e-01</leafValues></_>
    <_>
      <internalNodes>
        0 -1 18817 -7.4112219735980034e-03</internalNodes>
      <leafValues>
        2.4224035441875458e-01 -1.2692812085151672e-01</leafValues></_>
    <_>
      <internalNodes>
        0 -1 9623 -7.0708105340600014e-03</internalNodes>
      <leafValues>
        3.0050331354141235e-01 -1.0870004445314407e-01</leafValues></_>
    <_>
      <internalNodes>
        0 -1 17326 -3.7937285378575325e-03</internalNodes>
      <leafValues>
        2.1855969727039337e-01 -1.4981448650360107e-01</leafValues></_>
    <_>
      <internalNodes>
        0 -1 6452 1.5000410377979279e-02</internalNodes>
      <leafValues>
        -1.3386981189250946e-01 2.1926678717136383e-01</leafValues></_>
    <_>
      <internalNodes>
        0 -1 66360 -3.7417435087263584e-03</internalNodes>
      <leafValues>
        2.6699110865592957e-01 -1.1579463630914688e-01</leafValues></_>
    <_>
      <internalNodes>
        0 -1 77836 -1.7691951245069504e-02</internalNodes>
      <leafValues>
        2.0611155033111572e-01 -1.5304036438465118e-01</leafValues></_>
    <_>
      <internalNodes>
        0 -1 5953 1.4506646990776062e-01</internalNodes>
      <leafValues>
        -6.2192738056182861e-02 5.3668975830078125e-01</leafValues></_>
    <_>
      <internalNodes>
        0 -1 44933 1.4374533202499151e-03</internalNodes>
      <leafValues>
        -1.1159659922122955e-01 2.4421462416648865e-01</leafValues></_>
    <_>
      <internalNodes>
        0 -1 53900 -1.2916004285216331e-02</internalNodes>
      <leafValues>
        -3.6811164021492004e-01 7.4935369193553925e-02</leafValues></_>
    <_>
      <internalNodes>
        0 -1 75901 5.9383721090853214e-03</internalNodes>
      <leafValues>
        8.4949053823947906e-02 -3.4814238548278809e-01</leafValues></_>
    <_>
      <internalNodes>
        0 -1 77235 -6.4119370654225349e-04</internalNodes>
      <leafValues>
        1.8502664566040039e-01 -1.5701997280120850e-01</leafValues></_>
    <_>
      <internalNodes>
        0 -1 77179 -6.8988194689154625e-03</internalNodes>
      <leafValues>
        3.9581996202468872e-01 -7.8616499900817871e-02</leafValues></_>
    <_>
      <internalNodes>
        0 -1 14500 -1.0814860463142395e-02</internalNodes>
      <leafValues>
        2.7726238965988159e-01 -9.7430840134620667e-02</leafValues></_>
    <_>
      <internalNodes>
        0 -1 78109 -1.9753649830818176e-03</internalNodes>
      <leafValues>
        2.4411863088607788e-01 -1.1025334894657135e-01</leafValues></_>
    <_>
      <internalNodes>
        0 -1 63574 -2.1283954381942749e-02</internalNodes>
      <leafValues>
        2.1448895335197449e-01 -1.2861621379852295e-01</leafValues></_>
    <_>
      <internalNodes>
        0 -1 27804 -6.7917956039309502e-03</internalNodes>
      <leafValues>
        -5.0641304254531860e-01 4.5340847223997116e-02</leafValues></_>
    <_>
      <internalNodes>
        0 -1 71638 -6.5443158382549882e-04</internalNodes>
      <leafValues>
        2.4120388925075531e-01 -1.1262124776840210e-01</leafValues></_>
    <_>
      <internalNodes>
        0 -1 73839 4.6171518042683601e-03</internalNodes>
      <leafValues>
        4.1253123432397842e-02 -6.4795291423797607e-01</leafValues></_>
    <_>
      <internalNodes>
        0 -1 44068 -5.9272773796692491e-04</internalNodes>
      <leafValues>
        1.9151018559932709e-01 -1.3275627791881561e-01</leafValues></_>
    <_>
      <internalNodes>
        0 -1 15539 7.7583109959959984e-03</internalNodes>
      <leafValues>
        -1.2761862576007843e-01 1.9838756322860718e-01</leafValues></_>
    <_>
      <internalNodes>
        0 -1 65492 -6.7427068948745728e-02</internalNodes>
      <leafValues>
        4.7588267922401428e-01 -5.4799046367406845e-02</leafValues></_>
    <_>
      <internalNodes>
        0 -1 50970 -3.1605784315615892e-03</internalNodes>
      <leafValues>
        1.6332079470157623e-01 -1.6470420360565186e-01</leafValues></_>
    <_>
      <internalNodes>
        0 -1 2144 -1.0329619050025940e-02</internalNodes>
      <leafValues>
        2.3272249102592468e-01 -1.0183807462453842e-01</leafValues></_>
    <_>
      <internalNodes>
        0 -1 27396 -1.6931608319282532e-02</internalNodes>
      <leafValues>
        -6.0737216472625732e-01 4.0041141211986542e-02</leafValues></_>
    <_>
      <internalNodes>
        0 -1 33515 1.3587407767772675e-02</internalNodes>
      <leafValues>
        3.2613199204206467e-02 -7.0975118875503540e-01</leafValues></_>
    <_>
      <internalNodes>
        0 -1 62168 -6.3802637159824371e-03</internalNodes>
      <leafValues>
        -7.8033369779586792e-01 2.7083452790975571e-02</leafValues></_>
    <_>
      <internalNodes>
        0 -1 34872 3.2093290239572525e-02</internalNodes>
      <leafValues>
        3.7808649241924286e-02 -5.6921607255935669e-01</leafValues></_>
    <_>
      <internalNodes>
        0 -1 36579 -2.2060546278953552e-01</internalNodes>
      <leafValues>
        5.4367721080780029e-01 -4.7223430126905441e-02</leafValues></_>
    <_>
      <internalNodes>
        0 -1 65879 9.6539724618196487e-03</internalNodes>
      <leafValues>
        -1.1360473185777664e-01 2.0649076998233795e-01</leafValues></_>
    <_>
      <internalNodes>
        0 -1 78168 1.0420032776892185e-03</internalNodes>
      <leafValues>
        -1.1541611701250076e-01 2.4716539680957794e-01</leafValues></_>
    <_>
      <internalNodes>
        0 -1 77168 -5.1577212288975716e-03</internalNodes>
      <leafValues>
        -5.6604713201522827e-01 4.5063167810440063e-02</leafValues></_>
    <_>
      <internalNodes>
        0 -1 77964 1.3064511120319366e-02</internalNodes>
      <leafValues>
        -7.9787798225879669e-02 3.3710891008377075e-01</leafValues></_>
    <_>
      <internalNodes>
        0 -1 33542 1.6168538480997086e-02</internalNodes>
      <leafValues>
        -1.1418680846691132e-01 2.1063676476478577e-01</leafValues></_>
    <_>
      <internalNodes>
        0 -1 64325 -6.5242039272561669e-04</internalNodes>
      <leafValues>
        2.0726348459720612e-01 -1.1878554522991180e-01</leafValues></_>
    <_>
      <internalNodes>
        0 -1 61789 6.1359247192740440e-03</internalNodes>
      <leafValues>
        4.0534660220146179e-02 -6.4388084411621094e-01</leafValues></_>
    <_>
      <internalNodes>
        0 -1 56733 -1.2238413095474243e-02</internalNodes>
      <leafValues>
        -5.3029870986938477e-01 4.1552070528268814e-02</leafValues></_>
    <_>
      <internalNodes>
        0 -1 57790 1.1096055619418621e-02</internalNodes>
      <leafValues>
        2.9355248436331749e-02 -6.9713979959487915e-01</leafValues></_>
    <_>
      <internalNodes>
        0 -1 49666 -1.0348092764616013e-03</internalNodes>
      <leafValues>
        2.1901062130928040e-01 -1.1127169430255890e-01</leafValues></_>
    <_>
      <internalNodes>
        0 -1 49679 1.3091686414554715e-03</internalNodes>
      <leafValues>
        -1.4206077158451080e-01 2.0601822435855865e-01</leafValues></_>
    <_>
      <internalNodes>
        0 -1 58015 1.9448826089501381e-02</internalNodes>
      <leafValues>
        6.7092448472976685e-02 -3.9243614673614502e-01</leafValues></_>
    <_>
      <internalNodes>
        0 -1 66550 -2.6187594980001450e-02</internalNodes>
      <leafValues>
        -6.8347996473312378e-01 3.8047544658184052e-02</leafValues></_>
    <_>
      <internalNodes>
        0 -1 40851 -1.1542207357706502e-04</internalNodes>
      <leafValues>
        1.5408445894718170e-01 -1.5615102648735046e-01</leafValues></_>
    <_>
      <internalNodes>
        0 -1 75924 -1.0454959701746702e-03</internalNodes>
      <leafValues>
        2.0803022384643555e-01 -1.1697538942098618e-01</leafValues></_>
    <_>
      <internalNodes>
        0 -1 50425 9.0496614575386047e-03</internalNodes>
      <leafValues>
        4.1436567902565002e-02 -6.0330671072006226e-01</leafValues></_>
    <_>
      <internalNodes>
        0 -1 70293 -2.8331499197520316e-04</internalNodes>
      <leafValues>
        1.7891022562980652e-01 -1.3646028935909271e-01</leafValues></_>
    <_>
      <internalNodes>
        0 -1 52824 3.7534851580858231e-02</internalNodes>
      <leafValues>
        -8.1145301461219788e-02 3.1288179755210876e-01</leafValues></_>
    <_>
      <internalNodes>
        0 -1 78071 1.1134617961943150e-03</internalNodes>
      <leafValues>
        -1.2380763143301010e-01 2.0786988735198975e-01</leafValues></_>
    <_>
      <internalNodes>
        0 -1 33867 -1.0709905996918678e-02</internalNodes>
      <leafValues>
        -4.4714951515197754e-01 6.2391262501478195e-02</leafValues></_></weakClassifiers></stage8>
</opencv_storage>
