<?xml version="1.0"?>
<opencv_storage>
<stage4>
  <maxWeakCount>100</maxWeakCount>
  <stageThreshold>-5.8076566457748413e-01</stageThreshold>
  <weakClassifiers>
    <_>
      <internalNodes>
        0 -1 78140 1.8060295842587948e-03</internalNodes>
      <leafValues>
        3.8115817308425903e-01 4.6632125973701477e-02</leafValues></_>
    <_>
      <internalNodes>
        0 -1 11798 7.4795004911720753e-03</internalNodes>
      <leafValues>
        -7.5640700757503510e-02 1.6239307820796967e-01</leafValues></_>
    <_>
      <internalNodes>
        0 -1 76316 -1.1837754398584366e-02</internalNodes>
      <leafValues>
        2.8323659300804138e-01 -4.0733866393566132e-02</leafValues></_>
    <_>
      <internalNodes>
        0 -1 21461 -2.3733708076179028e-03</internalNodes>
      <leafValues>
        -3.2753336429595947e-01 2.0316982641816139e-02</leafValues></_>
    <_>
      <internalNodes>
        0 -1 76316 -1.0984584689140320e-02</internalNodes>
      <leafValues>
        -4.9944579601287842e-01 2.0928258076310158e-02</leafValues></_>
    <_>
      <internalNodes>
        0 -1 76316 -1.0682934895157814e-02</internalNodes>
      <leafValues>
        4.9157962203025818e-01 -3.6201979964971542e-03</leafValues></_>
    <_>
      <internalNodes>
        0 -1 76316 -1.0605199262499809e-02</internalNodes>
      <leafValues>
        -5.0288468599319458e-01 2.1199267357587814e-03</leafValues></_>
    <_>
      <internalNodes>
        0 -1 76316 -1.0682934895157814e-02</internalNodes>
      <leafValues>
        5.0010508298873901e-01 -6.4341048710048199e-04</leafValues></_>
    <_>
      <internalNodes>
        0 -1 76316 -1.0798407718539238e-02</internalNodes>
      <leafValues>
        -4.9845165014266968e-01 3.0074419919401407e-04</leafValues></_>
    <_>
      <internalNodes>
        0 -1 76316 -1.1138638481497765e-02</internalNodes>
      <leafValues>
        5.0878238677978516e-01 6.7407439928501844e-04</leafValues></_>
    <_>
      <internalNodes>
        0 -1 76316 -1.1539002880454063e-02</internalNodes>
      <leafValues>
        -5.3141063451766968e-01 -3.4331026836298406e-04</leafValues></_>
    <_>
      <internalNodes>
        0 -1 76316 -1.1424090713262558e-02</internalNodes>
      <leafValues>
        5.2756023406982422e-01 -1.1749861296266317e-03</leafValues></_>
    <_>
      <internalNodes>
        0 -1 76316 -1.1311683803796768e-02</internalNodes>
      <leafValues>
        -5.2870172262191772e-01 2.1323140244930983e-03</leafValues></_>
    <_>
      <internalNodes>
        0 -1 76316 -1.1354347690939903e-02</internalNodes>
      <leafValues>
        5.2825123071670532e-01 -7.2106381412595510e-04</leafValues></_>
    <_>
      <internalNodes>
        0 -1 76316 -1.1340931057929993e-02</internalNodes>
      <leafValues>
        -5.2690160274505615e-01 8.2585884956642985e-04</leafValues></_>
    <_>
      <internalNodes>
        0 -1 76316 -1.1337835341691971e-02</internalNodes>
      <leafValues>
        5.2612560987472534e-01 -4.6924009802751243e-04</leafValues></_>
    <_>
      <internalNodes>
        0 -1 76316 -1.1340931057929993e-02</internalNodes>
      <leafValues>
        -5.2634084224700928e-01 2.7719247736968100e-04</leafValues></_>
    <_>
      <internalNodes>
        0 -1 76316 -1.1354347690939903e-02</internalNodes>
      <leafValues>
        5.2743291854858398e-01 -2.7260687784291804e-04</leafValues></_>
    <_>
      <internalNodes>
        0 -1 76316 -1.1405733413994312e-02</internalNodes>
      <leafValues>
        -5.3167438507080078e-01 2.3130516638047993e-04</leafValues></_>
    <_>
      <internalNodes>
        0 -1 76316 -1.1424090713262558e-02</internalNodes>
      <leafValues>
        5.3061944246292114e-01 -3.6258593900129199e-04</leafValues></_>
    <_>
      <internalNodes>
        0 -1 76316 -1.1405733413994312e-02</internalNodes>
      <leafValues>
        -5.2963161468505859e-01 3.6258593900129199e-04</leafValues></_>
    <_>
      <internalNodes>
        0 -1 76316 -1.1383426375687122e-02</internalNodes>
      <leafValues>
        5.3068560361862183e-01 -2.7617751038633287e-04</leafValues></_>
    <_>
      <internalNodes>
        0 -1 76316 -1.1361811310052872e-02</internalNodes>
      <leafValues>
        -5.3258639574050903e-01 4.3620643555186689e-04</leafValues></_>
    <_>
      <internalNodes>
        0 -1 76316 -1.1354347690939903e-02</internalNodes>
      <leafValues>
        5.3314000368118286e-01 -3.9133406244218349e-04</leafValues></_>
    <_>
      <internalNodes>
        0 -1 76316 -1.1345960199832916e-02</internalNodes>
      <leafValues>
        -5.3434294462203979e-01 2.7260687784291804e-04</leafValues></_>
    <_>
      <internalNodes>
        0 -1 76316 -1.1337835341691971e-02</internalNodes>
      <leafValues>
        5.3476732969284058e-01 -2.7719250647351146e-04</leafValues></_>
    <_>
      <internalNodes>
        0 -1 76316 -1.1311683803796768e-02</internalNodes>
      <leafValues>
        -5.3825169801712036e-01 3.6444829311221838e-04</leafValues></_>
    <_>
      <internalNodes>
        0 -1 76316 -1.1251818388700485e-02</internalNodes>
      <leafValues>
        5.3820890188217163e-01 -3.5042065428569913e-04</leafValues></_>
    <_>
      <internalNodes>
        0 -1 76316 -1.1205913498997688e-02</internalNodes>
      <leafValues>
        -5.4035180807113647e-01 4.3797888793051243e-04</leafValues></_>
    <_>
      <internalNodes>
        0 -1 76316 -1.1138638481497765e-02</internalNodes>
      <leafValues>
        5.4162532091140747e-01 -7.0157885784283280e-04</leafValues></_>
    <_>
      <internalNodes>
        0 -1 76316 -1.1135436594486237e-02</internalNodes>
      <leafValues>
        -5.4304724931716919e-01 3.7342752330005169e-04</leafValues></_>
    <_>
      <internalNodes>
        0 -1 76316 -1.1132786050438881e-02</internalNodes>
      <leafValues>
        5.4418909549713135e-01 -5.8381253620609641e-04</leafValues></_>
    <_>
      <internalNodes>
        0 -1 76316 -1.1114405468106270e-02</internalNodes>
      <leafValues>
        -5.4244190454483032e-01 8.4825005615130067e-04</leafValues></_>
    <_>
      <internalNodes>
        0 -1 76316 -1.1018903926014900e-02</internalNodes>
      <leafValues>
        5.4179483652114868e-01 -1.3811965472996235e-03</leafValues></_>
    <_>
      <internalNodes>
        0 -1 76316 -1.1052191257476807e-02</internalNodes>
      <leafValues>
        -5.3964018821716309e-01 6.8059272598475218e-04</leafValues></_>
    <_>
      <internalNodes>
        0 -1 76316 -1.1018903926014900e-02</internalNodes>
      <leafValues>
        5.3897684812545776e-01 -6.8059348268434405e-04</leafValues></_>
    <_>
      <internalNodes>
        0 -1 76316 -1.0984584689140320e-02</internalNodes>
      <leafValues>
        -5.4359638690948486e-01 9.5115252770483494e-04</leafValues></_>
    <_>
      <internalNodes>
        0 -1 76316 -1.1018903926014900e-02</internalNodes>
      <leafValues>
        5.4224628210067749e-01 -5.5198778863996267e-04</leafValues></_>
    <_>
      <internalNodes>
        0 -1 76316 -1.0984584689140320e-02</internalNodes>
      <leafValues>
        -5.4079800844192505e-01 5.5198802147060633e-04</leafValues></_>
    <_>
      <internalNodes>
        0 -1 76316 -1.0907575488090515e-02</internalNodes>
      <leafValues>
        5.4305577278137207e-01 -6.9725076900795102e-04</leafValues></_>
    <_>
      <internalNodes>
        0 -1 76316 -1.0881315916776657e-02</internalNodes>
      <leafValues>
        -5.4447793960571289e-01 4.5202835462987423e-04</leafValues></_>
    <_>
      <internalNodes>
        0 -1 76316 -1.0852049104869366e-02</internalNodes>
      <leafValues>
        5.4596245288848877e-01 -7.3361583054065704e-04</leafValues></_>
    <_>
      <internalNodes>
        0 -1 76316 -1.0836725123226643e-02</internalNodes>
      <leafValues>
        -5.4755294322967529e-01 4.4644623994827271e-04</leafValues></_>
    <_>
      <internalNodes>
        0 -1 76316 -1.0715905576944351e-02</internalNodes>
      <leafValues>
        5.4874551296234131e-01 -6.5024720970541239e-04</leafValues></_>
    <_>
      <internalNodes>
        0 -1 76316 -1.0650283657014370e-02</internalNodes>
      <leafValues>
        -5.5058068037033081e-01 4.8830593004822731e-04</leafValues></_>
    <_>
      <internalNodes>
        0 -1 76316 -1.0616933926939964e-02</internalNodes>
      <leafValues>
        5.5254304409027100e-01 -5.7549722259864211e-04</leafValues></_>
    <_>
      <internalNodes>
        0 -1 76316 -1.0605199262499809e-02</internalNodes>
      <leafValues>
        -5.5011051893234253e-01 7.3060486465692520e-04</leafValues></_>
    <_>
      <internalNodes>
        0 -1 76316 -1.0453596711158752e-02</internalNodes>
      <leafValues>
        5.5088454484939575e-01 -1.1375976027920842e-03</leafValues></_>
    <_>
      <internalNodes>
        0 -1 76316 -1.0064187459647655e-02</internalNodes>
      <leafValues>
        -5.3291505575180054e-01 3.9213043637573719e-03</leafValues></_>
    <_>
      <internalNodes>
        0 -1 76316 -1.0131491348147392e-02</internalNodes>
      <leafValues>
        5.3477597236633301e-01 -5.0154683412984014e-04</leafValues></_>
    <_>
      <internalNodes>
        0 -1 76316 -1.0195035487413406e-02</internalNodes>
      <leafValues>
        -5.4605191946029663e-01 4.8051713383756578e-04</leafValues></_>
    <_>
      <internalNodes>
        0 -1 76316 -1.0246148332953453e-02</internalNodes>
      <leafValues>
        5.4390996694564819e-01 -8.4622803842648864e-04</leafValues></_>
    <_>
      <internalNodes>
        0 -1 76316 -1.0392988100647926e-02</internalNodes>
      <leafValues>
        -5.5214828252792358e-01 3.1347462208941579e-04</leafValues></_>
    <_>
      <internalNodes>
        0 -1 76316 -1.0427413508296013e-02</internalNodes>
      <leafValues>
        5.5195957422256470e-01 -4.6814297093078494e-04</leafValues></_>
    <_>
      <internalNodes>
        0 -1 76316 -1.0392988100647926e-02</internalNodes>
      <leafValues>
        -5.5054306983947754e-01 2.0252670219633728e-04</leafValues></_>
    <_>
      <internalNodes>
        0 -1 76316 -1.0377968661487103e-02</internalNodes>
      <leafValues>
        5.5232924222946167e-01 -2.8579882928170264e-04</leafValues></_>
    <_>
      <internalNodes>
        0 -1 76316 -1.0195035487413406e-02</internalNodes>
      <leafValues>
        -5.4950696229934692e-01 8.1762322224676609e-04</leafValues></_>
    <_>
      <internalNodes>
        0 -1 76316 -1.0170056484639645e-02</internalNodes>
      <leafValues>
        5.5055117607116699e-01 -8.3416176494210958e-05</leafValues></_>
    <_>
      <internalNodes>
        0 -1 54478 -2.9397455975413322e-02</internalNodes>
      <leafValues>
        9.3716770410537720e-01 -3.5329047590494156e-02</leafValues></_>
    <_>
      <internalNodes>
        0 -1 49474 4.9115229398012161e-02</internalNodes>
      <leafValues>
        -2.7621570974588394e-02 4.4170027971267700e-01</leafValues></_>
    <_>
      <internalNodes>
        0 -1 49474 4.8948481678962708e-02</internalNodes>
      <leafValues>
        8.0816983245313168e-04 -7.2370636463165283e-01</leafValues></_>
    <_>
      <internalNodes>
        0 -1 49474 4.9115229398012161e-02</internalNodes>
      <leafValues>
        4.7195720253512263e-04 6.6109973192214966e-01</leafValues></_>
    <_>
      <internalNodes>
        0 -1 71360 -9.0633377432823181e-02</internalNodes>
      <leafValues>
        2.8928568959236145e-01 -5.8972142636775970e-02</leafValues></_>
    <_>
      <internalNodes>
        0 -1 36186 -1.4426562190055847e-01</internalNodes>
      <leafValues>
        -2.4766136705875397e-01 5.0319388508796692e-02</leafValues></_>
    <_>
      <internalNodes>
        0 -1 4843 4.7735318541526794e-02</internalNodes>
      <leafValues>
        3.4282840788364410e-03 8.3372354507446289e-01</leafValues></_>
    <_>
      <internalNodes>
        0 -1 57065 -3.4460504539310932e-03</internalNodes>
      <leafValues>
        1.9219468533992767e-01 -6.5457783639431000e-02</leafValues></_>
    <_>
      <internalNodes>
        0 -1 6411 3.9116279222071171e-03</internalNodes>
      <leafValues>
        3.2699886709451675e-02 -3.2061630487442017e-01</leafValues></_>
    <_>
      <internalNodes>
        0 -1 76206 -4.2205732315778732e-03</internalNodes>
      <leafValues>
        -5.4326963424682617e-01 2.4667566642165184e-02</leafValues></_>
    <_>
      <internalNodes>
        0 -1 75454 -2.1250625140964985e-03</internalNodes>
      <leafValues>
        -2.0899793505668640e-01 5.7610571384429932e-02</leafValues></_>
    <_>
      <internalNodes>
        0 -1 28882 1.6813393682241440e-02</internalNodes>
      <leafValues>
        -7.8354209661483765e-02 1.4065036177635193e-01</leafValues></_>
    <_>
      <internalNodes>
        0 -1 12176 1.8330555176362395e-03</internalNodes>
      <leafValues>
        -8.1638574600219727e-02 1.5894077718257904e-01</leafValues></_>
    <_>
      <internalNodes>
        0 -1 46754 1.0458489507436752e-01</internalNodes>
      <leafValues>
        -1.5607094392180443e-02 7.3580694198608398e-01</leafValues></_>
    <_>
      <internalNodes>
        0 -1 4854 -4.6743974089622498e-03</internalNodes>
      <leafValues>
        -3.0851328372955322e-01 3.8080211728811264e-02</leafValues></_>
    <_>
      <internalNodes>
        0 -1 4872 -1.2663390953093767e-03</internalNodes>
      <leafValues>
        1.2137022614479065e-01 -9.4414591789245605e-02</leafValues></_>
    <_>
      <internalNodes>
        0 -1 58639 1.7055768519639969e-02</internalNodes>
      <leafValues>
        4.2075563222169876e-02 -2.5243255496025085e-01</leafValues></_>
    <_>
      <internalNodes>
        0 -1 71183 -1.1309269815683365e-02</internalNodes>
      <leafValues>
        -2.1515378355979919e-01 5.4472520947456360e-02</leafValues></_>
    <_>
      <internalNodes>
        0 -1 63964 5.9080287814140320e-02</internalNodes>
      <leafValues>
        -1.3456097804009914e-02 8.2385474443435669e-01</leafValues></_>
    <_>
      <internalNodes>
        0 -1 72030 4.8930683988146484e-05</internalNodes>
      <leafValues>
        1.0826758295297623e-01 -1.1024378240108490e-01</leafValues></_>
    <_>
      <internalNodes>
        0 -1 71427 5.5802608840167522e-03</internalNodes>
      <leafValues>
        1.2602769769728184e-02 -7.6111751794815063e-01</leafValues></_>
    <_>
      <internalNodes>
        0 -1 69011 -1.5804730355739594e-03</internalNodes>
      <leafValues>
        2.0537768304347992e-01 -5.9011936187744141e-02</leafValues></_>
    <_>
      <internalNodes>
        0 -1 3879 -1.1655008420348167e-02</internalNodes>
      <leafValues>
        -6.6300016641616821e-01 1.6306092962622643e-02</leafValues></_>
    <_>
      <internalNodes>
        0 -1 27303 6.4744576811790466e-03</internalNodes>
      <leafValues>
        -7.1184322237968445e-02 1.5253564715385437e-01</leafValues></_>
    <_>
      <internalNodes>
        0 -1 58558 3.9970637299120426e-03</internalNodes>
      <leafValues>
        2.3303346708416939e-02 -4.6259430050849915e-01</leafValues></_>
    <_>
      <internalNodes>
        0 -1 62396 1.5556674450635910e-02</internalNodes>
      <leafValues>
        -2.8742676600813866e-02 4.0726917982101440e-01</leafValues></_>
    <_>
      <internalNodes>
        0 -1 63764 2.4527216330170631e-02</internalNodes>
      <leafValues>
        -2.5626201182603836e-02 3.9545285701751709e-01</leafValues></_>
    <_>
      <internalNodes>
        0 -1 70923 -1.7875818535685539e-02</internalNodes>
      <leafValues>
        3.4764832258224487e-01 -3.0004929751157761e-02</leafValues></_>
    <_>
      <internalNodes>
        0 -1 31066 -2.2267736494541168e-01</internalNodes>
      <leafValues>
        3.9629179239273071e-01 -2.8914481401443481e-02</leafValues></_>
    <_>
      <internalNodes>
        0 -1 58528 -4.3792150914669037e-02</internalNodes>
      <leafValues>
        6.1287331581115723e-01 -1.5801871195435524e-02</leafValues></_>
    <_>
      <internalNodes>
        0 -1 4063 2.3660544306039810e-02</internalNodes>
      <leafValues>
        -3.2057922333478928e-02 3.2423546910285950e-01</leafValues></_>
    <_>
      <internalNodes>
        0 -1 5191 -1.3029077649116516e-01</internalNodes>
      <leafValues>
        4.2476254701614380e-01 -2.4809056892991066e-02</leafValues></_>
    <_>
      <internalNodes>
        0 -1 36679 -6.7541324533522129e-03</internalNodes>
      <leafValues>
        1.6333079338073730e-01 -6.9620266556739807e-02</leafValues></_>
    <_>
      <internalNodes>
        0 -1 32324 1.4591203071177006e-03</internalNodes>
      <leafValues>
        5.8123826980590820e-02 -2.1985268592834473e-01</leafValues></_>
    <_>
      <internalNodes>
        0 -1 77583 -1.1938344687223434e-03</internalNodes>
      <leafValues>
        -1.2941060960292816e-01 8.7423421442508698e-02</leafValues></_>
    <_>
      <internalNodes>
        0 -1 37073 4.1486062109470367e-03</internalNodes>
      <leafValues>
        -4.1913259774446487e-02 2.6911318302154541e-01</leafValues></_>
    <_>
      <internalNodes>
        0 -1 45799 1.6115611791610718e-01</internalNodes>
      <leafValues>
        -2.0346097648143768e-02 5.7955294847488403e-01</leafValues></_>
    <_>
      <internalNodes>
        0 -1 72819 -4.1745454072952271e-03</internalNodes>
      <leafValues>
        -3.0227342247962952e-01 4.1815169155597687e-02</leafValues></_>
    <_>
      <internalNodes>
        0 -1 32402 1.0203029960393906e-02</internalNodes>
      <leafValues>
        -5.5307917296886444e-02 2.0965199172496796e-01</leafValues></_>
    <_>
      <internalNodes>
        0 -1 50782 2.6708070188760757e-02</internalNodes>
      <leafValues>
        -1.2334066443145275e-02 7.6795572042465210e-01</leafValues></_>
    <_>
      <internalNodes>
        0 -1 2 1.2532015098258853e-03</internalNodes>
      <leafValues>
        6.4934827387332916e-02 -1.8294569849967957e-01</leafValues></_>
    <_>
      <internalNodes>
        0 -1 45029 3.9348565042018890e-03</internalNodes>
      <leafValues>
        2.0797682926058769e-02 -5.2183139324188232e-01</leafValues></_></weakClassifiers></stage4>
</opencv_storage>
