<?xml version="1.0"?>
<opencv_storage>
<stage9>
  <maxWeakCount>100</maxWeakCount>
  <stageThreshold>-4.2823815345764160e-01</stageThreshold>
  <weakClassifiers>
    <_>
      <internalNodes>
        0 -1 77713 -3.5238586366176605e-02</internalNodes>
      <leafValues>
        -4.0404040366411209e-02 3.6290967464447021e-01</leafValues></_>
    <_>
      <internalNodes>
        0 -1 78316 1.9971827045083046e-02</internalNodes>
      <leafValues>
        -6.5803816542029381e-03 6.0141837596893311e-01</leafValues></_>
    <_>
      <internalNodes>
        0 -1 78316 1.9317608326673508e-02</internalNodes>
      <leafValues>
        1.7753086285665631e-03 -9.3205392360687256e-01</leafValues></_>
    <_>
      <internalNodes>
        0 -1 78316 1.8950000405311584e-02</internalNodes>
      <leafValues>
        -1.4411478769034147e-03 8.1519854068756104e-01</leafValues></_>
    <_>
      <internalNodes>
        0 -1 68840 1.9583780318498611e-02</internalNodes>
      <leafValues>
        -4.4054545462131500e-02 4.4974556565284729e-01</leafValues></_>
    <_>
      <internalNodes>
        0 -1 68840 1.9302539527416229e-02</internalNodes>
      <leafValues>
        2.7429126203060150e-03 -1.</leafValues></_>
    <_>
      <internalNodes>
        0 -1 68840 1.9059851765632629e-02</internalNodes>
      <leafValues>
        -1.4268511440604925e-03 8.0993157625198364e-01</leafValues></_>
    <_>
      <internalNodes>
        0 -1 68840 1.8384577706456184e-02</internalNodes>
      <leafValues>
        6.2759378924965858e-03 -6.7417341470718384e-01</leafValues></_>
    <_>
      <internalNodes>
        0 -1 68840 1.7636902630329132e-02</internalNodes>
      <leafValues>
        -7.1240486577153206e-03 7.6439344882965088e-01</leafValues></_>
    <_>
      <internalNodes>
        0 -1 68840 1.7610244452953339e-02</internalNodes>
      <leafValues>
        3.5469864960759878e-03 -8.2186371088027954e-01</leafValues></_>
    <_>
      <internalNodes>
        0 -1 68840 1.7425784841179848e-02</internalNodes>
      <leafValues>
        -3.9116903208196163e-03 7.8932493925094604e-01</leafValues></_>
    <_>
      <internalNodes>
        0 -1 68840 1.7390562221407890e-02</internalNodes>
      <leafValues>
        3.5535020288079977e-03 -7.2170978784561157e-01</leafValues></_>
    <_>
      <internalNodes>
        0 -1 68840 1.8343579024076462e-02</internalNodes>
      <leafValues>
        -3.5620641428977251e-03 7.5945699214935303e-01</leafValues></_>
    <_>
      <internalNodes>
        0 -1 68840 1.8352599814534187e-02</internalNodes>
      <leafValues>
        8.2519957795739174e-03 -8.1475138664245605e-01</leafValues></_>
    <_>
      <internalNodes>
        0 -1 68840 1.8304431810975075e-02</internalNodes>
      <leafValues>
        -8.2518234848976135e-03 7.8268903493881226e-01</leafValues></_>
    <_>
      <internalNodes>
        0 -1 68840 1.8343713134527206e-02</internalNodes>
      <leafValues>
        5.0184004940092564e-03 -7.0728039741516113e-01</leafValues></_>
    <_>
      <internalNodes>
        0 -1 68840 1.8343579024076462e-02</internalNodes>
      <leafValues>
        -5.0185457803308964e-03 7.5081324577331543e-01</leafValues></_>
    <_>
      <internalNodes>
        0 -1 68840 1.8343713134527206e-02</internalNodes>
      <leafValues>
        5.0185457803308964e-03 -8.1857168674468994e-01</leafValues></_>
    <_>
      <internalNodes>
        0 -1 68840 1.8304431810975075e-02</internalNodes>
      <leafValues>
        -5.0185457803308964e-03 7.7970761060714722e-01</leafValues></_>
    <_>
      <internalNodes>
        0 -1 68840 1.8343713134527206e-02</internalNodes>
      <leafValues>
        5.0185457803308964e-03 -7.0960593223571777e-01</leafValues></_>
    <_>
      <internalNodes>
        0 -1 68840 1.8343579024076462e-02</internalNodes>
      <leafValues>
        -5.0185457803308964e-03 7.4978911876678467e-01</leafValues></_>
    <_>
      <internalNodes>
        0 -1 68840 1.8343713134527206e-02</internalNodes>
      <leafValues>
        5.0185457803308964e-03 -8.1900644302368164e-01</leafValues></_>
    <_>
      <internalNodes>
        0 -1 68840 1.8304431810975075e-02</internalNodes>
      <leafValues>
        -5.0185457803308964e-03 7.7936065196990967e-01</leafValues></_>
    <_>
      <internalNodes>
        0 -1 68840 1.8343713134527206e-02</internalNodes>
      <leafValues>
        5.0185457803308964e-03 -7.0987260341644287e-01</leafValues></_>
    <_>
      <internalNodes>
        0 -1 68840 1.8343579024076462e-02</internalNodes>
      <leafValues>
        -5.0185457803308964e-03 7.4967062473297119e-01</leafValues></_>
    <_>
      <internalNodes>
        0 -1 68840 1.8343713134527206e-02</internalNodes>
      <leafValues>
        5.0185457803308964e-03 -8.1905651092529297e-01</leafValues></_>
    <_>
      <internalNodes>
        0 -1 68840 1.8304431810975075e-02</internalNodes>
      <leafValues>
        -5.0185457803308964e-03 7.7932053804397583e-01</leafValues></_>
    <_>
      <internalNodes>
        0 -1 68840 1.8343713134527206e-02</internalNodes>
      <leafValues>
        5.0185457803308964e-03 -7.0990335941314697e-01</leafValues></_>
    <_>
      <internalNodes>
        0 -1 68840 1.8343579024076462e-02</internalNodes>
      <leafValues>
        -5.0185457803308964e-03 7.4965691566467285e-01</leafValues></_>
    <_>
      <internalNodes>
        0 -1 68840 1.8343713134527206e-02</internalNodes>
      <leafValues>
        5.0185457803308964e-03 -8.1906229257583618e-01</leafValues></_>
    <_>
      <internalNodes>
        0 -1 68840 1.8304431810975075e-02</internalNodes>
      <leafValues>
        -5.0185457803308964e-03 7.7931594848632812e-01</leafValues></_>
    <_>
      <internalNodes>
        0 -1 68840 1.8343713134527206e-02</internalNodes>
      <leafValues>
        5.0185457803308964e-03 -7.0990693569183350e-01</leafValues></_>
    <_>
      <internalNodes>
        0 -1 68840 1.8343579024076462e-02</internalNodes>
      <leafValues>
        -5.0185457803308964e-03 7.4965530633926392e-01</leafValues></_>
    <_>
      <internalNodes>
        0 -1 68840 1.8343713134527206e-02</internalNodes>
      <leafValues>
        5.0185457803308964e-03 -8.1906300783157349e-01</leafValues></_>
    <_>
      <internalNodes>
        0 -1 68840 1.8304431810975075e-02</internalNodes>
      <leafValues>
        -5.0185457803308964e-03 7.7931541204452515e-01</leafValues></_>
    <_>
      <internalNodes>
        0 -1 68840 1.8343713134527206e-02</internalNodes>
      <leafValues>
        5.0185457803308964e-03 -7.0990735292434692e-01</leafValues></_>
    <_>
      <internalNodes>
        0 -1 68840 1.8343579024076462e-02</internalNodes>
      <leafValues>
        -5.0185457803308964e-03 7.4965512752532959e-01</leafValues></_>
    <_>
      <internalNodes>
        0 -1 68840 1.8343713134527206e-02</internalNodes>
      <leafValues>
        5.0185457803308964e-03 -8.1906306743621826e-01</leafValues></_>
    <_>
      <internalNodes>
        0 -1 68840 1.8304431810975075e-02</internalNodes>
      <leafValues>
        -5.0185457803308964e-03 7.7931535243988037e-01</leafValues></_>
    <_>
      <internalNodes>
        0 -1 68840 1.8343713134527206e-02</internalNodes>
      <leafValues>
        5.0185457803308964e-03 -7.0990735292434692e-01</leafValues></_>
    <_>
      <internalNodes>
        0 -1 68840 1.8343579024076462e-02</internalNodes>
      <leafValues>
        -5.0185457803308964e-03 7.4965512752532959e-01</leafValues></_>
    <_>
      <internalNodes>
        0 -1 68840 1.8343713134527206e-02</internalNodes>
      <leafValues>
        5.0185457803308964e-03 -8.1906306743621826e-01</leafValues></_>
    <_>
      <internalNodes>
        0 -1 68840 1.8304431810975075e-02</internalNodes>
      <leafValues>
        -5.0185457803308964e-03 7.7931535243988037e-01</leafValues></_>
    <_>
      <internalNodes>
        0 -1 68840 1.8343713134527206e-02</internalNodes>
      <leafValues>
        5.0185457803308964e-03 -7.0990741252899170e-01</leafValues></_>
    <_>
      <internalNodes>
        0 -1 68840 1.8343579024076462e-02</internalNodes>
      <leafValues>
        -5.0185457803308964e-03 7.4965512752532959e-01</leafValues></_>
    <_>
      <internalNodes>
        0 -1 68840 1.8343713134527206e-02</internalNodes>
      <leafValues>
        5.0185457803308964e-03 -8.1906306743621826e-01</leafValues></_>
    <_>
      <internalNodes>
        0 -1 68840 1.8304431810975075e-02</internalNodes>
      <leafValues>
        -5.0185457803308964e-03 7.7931535243988037e-01</leafValues></_>
    <_>
      <internalNodes>
        0 -1 68840 1.8343713134527206e-02</internalNodes>
      <leafValues>
        5.0185457803308964e-03 -7.0990741252899170e-01</leafValues></_>
    <_>
      <internalNodes>
        0 -1 68840 1.8343579024076462e-02</internalNodes>
      <leafValues>
        -5.0185457803308964e-03 7.4965512752532959e-01</leafValues></_>
    <_>
      <internalNodes>
        0 -1 68840 1.8343713134527206e-02</internalNodes>
      <leafValues>
        5.0185457803308964e-03 -8.1906306743621826e-01</leafValues></_>
    <_>
      <internalNodes>
        0 -1 68840 1.8304431810975075e-02</internalNodes>
      <leafValues>
        -5.0185457803308964e-03 7.7931535243988037e-01</leafValues></_>
    <_>
      <internalNodes>
        0 -1 68840 1.8343713134527206e-02</internalNodes>
      <leafValues>
        5.0185457803308964e-03 -7.0990741252899170e-01</leafValues></_>
    <_>
      <internalNodes>
        0 -1 68840 1.8343579024076462e-02</internalNodes>
      <leafValues>
        -5.0185457803308964e-03 7.4965512752532959e-01</leafValues></_>
    <_>
      <internalNodes>
        0 -1 68840 1.8343713134527206e-02</internalNodes>
      <leafValues>
        5.0185457803308964e-03 -8.1906306743621826e-01</leafValues></_>
    <_>
      <internalNodes>
        0 -1 68840 1.8304431810975075e-02</internalNodes>
      <leafValues>
        -5.0185457803308964e-03 7.7931535243988037e-01</leafValues></_>
    <_>
      <internalNodes>
        0 -1 68840 1.8343713134527206e-02</internalNodes>
      <leafValues>
        5.0185457803308964e-03 -7.0990741252899170e-01</leafValues></_>
    <_>
      <internalNodes>
        0 -1 68840 1.8343579024076462e-02</internalNodes>
      <leafValues>
        -5.0185457803308964e-03 7.4965512752532959e-01</leafValues></_>
    <_>
      <internalNodes>
        0 -1 68840 1.8343713134527206e-02</internalNodes>
      <leafValues>
        5.0185457803308964e-03 -8.1906306743621826e-01</leafValues></_>
    <_>
      <internalNodes>
        0 -1 68840 1.8304431810975075e-02</internalNodes>
      <leafValues>
        -5.0185457803308964e-03 7.7931535243988037e-01</leafValues></_>
    <_>
      <internalNodes>
        0 -1 68840 1.8343713134527206e-02</internalNodes>
      <leafValues>
        5.0185457803308964e-03 -7.0990741252899170e-01</leafValues></_>
    <_>
      <internalNodes>
        0 -1 68840 1.8343579024076462e-02</internalNodes>
      <leafValues>
        -5.0185457803308964e-03 7.4965512752532959e-01</leafValues></_>
    <_>
      <internalNodes>
        0 -1 68840 1.8343713134527206e-02</internalNodes>
      <leafValues>
        5.0185457803308964e-03 -8.1906306743621826e-01</leafValues></_>
    <_>
      <internalNodes>
        0 -1 68840 1.8304431810975075e-02</internalNodes>
      <leafValues>
        -5.0185457803308964e-03 7.7931535243988037e-01</leafValues></_>
    <_>
      <internalNodes>
        0 -1 68840 1.8343713134527206e-02</internalNodes>
      <leafValues>
        5.0185457803308964e-03 -7.0990741252899170e-01</leafValues></_>
    <_>
      <internalNodes>
        0 -1 68840 1.8343579024076462e-02</internalNodes>
      <leafValues>
        -5.0185457803308964e-03 7.4965512752532959e-01</leafValues></_>
    <_>
      <internalNodes>
        0 -1 68840 1.8343713134527206e-02</internalNodes>
      <leafValues>
        5.0185457803308964e-03 -8.1906306743621826e-01</leafValues></_>
    <_>
      <internalNodes>
        0 -1 68840 1.8304431810975075e-02</internalNodes>
      <leafValues>
        -5.0185457803308964e-03 7.7931535243988037e-01</leafValues></_>
    <_>
      <internalNodes>
        0 -1 68840 1.8343713134527206e-02</internalNodes>
      <leafValues>
        5.0185457803308964e-03 -7.0990741252899170e-01</leafValues></_>
    <_>
      <internalNodes>
        0 -1 68840 1.8343579024076462e-02</internalNodes>
      <leafValues>
        -5.0185457803308964e-03 7.4965512752532959e-01</leafValues></_>
    <_>
      <internalNodes>
        0 -1 68840 1.8343713134527206e-02</internalNodes>
      <leafValues>
        5.0185457803308964e-03 -8.1906306743621826e-01</leafValues></_>
    <_>
      <internalNodes>
        0 -1 68840 1.8304431810975075e-02</internalNodes>
      <leafValues>
        -5.0185457803308964e-03 7.7931535243988037e-01</leafValues></_>
    <_>
      <internalNodes>
        0 -1 68840 1.8343713134527206e-02</internalNodes>
      <leafValues>
        5.0185457803308964e-03 -7.0990741252899170e-01</leafValues></_>
    <_>
      <internalNodes>
        0 -1 68840 1.8343579024076462e-02</internalNodes>
      <leafValues>
        -5.0185457803308964e-03 7.4965512752532959e-01</leafValues></_>
    <_>
      <internalNodes>
        0 -1 68840 1.8343713134527206e-02</internalNodes>
      <leafValues>
        5.0185457803308964e-03 -8.1906306743621826e-01</leafValues></_>
    <_>
      <internalNodes>
        0 -1 68840 1.8304431810975075e-02</internalNodes>
      <leafValues>
        -5.0185457803308964e-03 7.7931535243988037e-01</leafValues></_>
    <_>
      <internalNodes>
        0 -1 68840 1.8343713134527206e-02</internalNodes>
      <leafValues>
        5.0185457803308964e-03 -7.0990741252899170e-01</leafValues></_>
    <_>
      <internalNodes>
        0 -1 68840 1.8343579024076462e-02</internalNodes>
      <leafValues>
        -5.0185457803308964e-03 7.4965512752532959e-01</leafValues></_>
    <_>
      <internalNodes>
        0 -1 68840 1.8343713134527206e-02</internalNodes>
      <leafValues>
        5.0185457803308964e-03 -8.1906306743621826e-01</leafValues></_>
    <_>
      <internalNodes>
        0 -1 68840 1.8304431810975075e-02</internalNodes>
      <leafValues>
        -5.0185457803308964e-03 7.7931535243988037e-01</leafValues></_>
    <_>
      <internalNodes>
        0 -1 68840 1.8343713134527206e-02</internalNodes>
      <leafValues>
        5.0185457803308964e-03 -7.0990741252899170e-01</leafValues></_>
    <_>
      <internalNodes>
        0 -1 68840 1.8343579024076462e-02</internalNodes>
      <leafValues>
        -5.0185457803308964e-03 7.4965512752532959e-01</leafValues></_>
    <_>
      <internalNodes>
        0 -1 68840 1.8343713134527206e-02</internalNodes>
      <leafValues>
        5.0185457803308964e-03 -8.1906306743621826e-01</leafValues></_>
    <_>
      <internalNodes>
        0 -1 68840 1.8304431810975075e-02</internalNodes>
      <leafValues>
        -5.0185457803308964e-03 7.7931535243988037e-01</leafValues></_>
    <_>
      <internalNodes>
        0 -1 68840 1.8343713134527206e-02</internalNodes>
      <leafValues>
        5.0185457803308964e-03 -7.0990741252899170e-01</leafValues></_>
    <_>
      <internalNodes>
        0 -1 68840 1.8343579024076462e-02</internalNodes>
      <leafValues>
        -5.0185457803308964e-03 7.4965512752532959e-01</leafValues></_>
    <_>
      <internalNodes>
        0 -1 68840 1.8343713134527206e-02</internalNodes>
      <leafValues>
        5.0185457803308964e-03 -8.1906306743621826e-01</leafValues></_>
    <_>
      <internalNodes>
        0 -1 68840 1.8304431810975075e-02</internalNodes>
      <leafValues>
        -5.0185457803308964e-03 7.7931535243988037e-01</leafValues></_>
    <_>
      <internalNodes>
        0 -1 68840 1.8343713134527206e-02</internalNodes>
      <leafValues>
        5.0185457803308964e-03 -7.0990741252899170e-01</leafValues></_>
    <_>
      <internalNodes>
        0 -1 68840 1.8343579024076462e-02</internalNodes>
      <leafValues>
        -5.0185457803308964e-03 7.4965512752532959e-01</leafValues></_>
    <_>
      <internalNodes>
        0 -1 68840 1.8343713134527206e-02</internalNodes>
      <leafValues>
        5.0185457803308964e-03 -8.1906306743621826e-01</leafValues></_>
    <_>
      <internalNodes>
        0 -1 68840 1.8304431810975075e-02</internalNodes>
      <leafValues>
        -5.0185457803308964e-03 7.7931535243988037e-01</leafValues></_>
    <_>
      <internalNodes>
        0 -1 68840 1.8343713134527206e-02</internalNodes>
      <leafValues>
        5.0185457803308964e-03 -7.0990741252899170e-01</leafValues></_>
    <_>
      <internalNodes>
        0 -1 68840 1.8343579024076462e-02</internalNodes>
      <leafValues>
        -5.0185457803308964e-03 7.4965512752532959e-01</leafValues></_>
    <_>
      <internalNodes>
        0 -1 68840 1.8343713134527206e-02</internalNodes>
      <leafValues>
        5.0185457803308964e-03 -8.1906306743621826e-01</leafValues></_>
    <_>
      <internalNodes>
        0 -1 68840 1.8304431810975075e-02</internalNodes>
      <leafValues>
        -5.0185457803308964e-03 7.7931535243988037e-01</leafValues></_>
    <_>
      <internalNodes>
        0 -1 68840 1.8343713134527206e-02</internalNodes>
      <leafValues>
        5.0185457803308964e-03 -7.0990741252899170e-01</leafValues></_>
    <_>
      <internalNodes>
        0 -1 68840 1.8343579024076462e-02</internalNodes>
      <leafValues>
        -5.0185457803308964e-03 7.4965512752532959e-01</leafValues></_>
    <_>
      <internalNodes>
        0 -1 68840 1.8343713134527206e-02</internalNodes>
      <leafValues>
        5.0185457803308964e-03 -8.1906306743621826e-01</leafValues></_>
    <_>
      <internalNodes>
        0 -1 68840 1.8304431810975075e-02</internalNodes>
      <leafValues>
        -5.0185457803308964e-03 7.7931535243988037e-01</leafValues></_>
    <_>
      <internalNodes>
        0 -1 68840 1.8343713134527206e-02</internalNodes>
      <leafValues>
        5.0185457803308964e-03 -7.0990741252899170e-01</leafValues></_></weakClassifiers></stage9>
</opencv_storage>
