<?xml version="1.0"?>
<opencv_storage>
<stage0>
  <maxWeakCount>100</maxWeakCount>
  <stageThreshold>-7.7745807170867920e-01</stageThreshold>
  <weakClassifiers>
    <_>
      <internalNodes>
        0 -1 4396 -1.8218159675598145e-03</internalNodes>
      <leafValues>
        5.5858308076858521e-01 1.7823639512062073e-01</leafValues></_>
    <_>
      <internalNodes>
        0 -1 16155 4.5294882729649544e-03</internalNodes>
      <leafValues>
        -8.3623982965946198e-02 2.9542765021324158e-01</leafValues></_>
    <_>
      <internalNodes>
        0 -1 73990 3.5064662806689739e-03</internalNodes>
      <leafValues>
        -8.5236407816410065e-02 3.2201880216598511e-01</leafValues></_>
    <_>
      <internalNodes>
        0 -1 12176 -5.4977112449705601e-04</internalNodes>
      <leafValues>
        1.8206708133220673e-01 -1.4928385615348816e-01</leafValues></_>
    <_>
      <internalNodes>
        0 -1 12176 5.2981940098106861e-04</internalNodes>
      <leafValues>
        -1.4496651291847229e-01 2.2589230537414551e-01</leafValues></_>
    <_>
      <internalNodes>
        0 -1 12956 5.6817241013050079e-02</internalNodes>
      <leafValues>
        -1.1026435345411301e-01 2.2078016400337219e-01</leafValues></_>
    <_>
      <internalNodes>
        0 -1 47537 2.0457688719034195e-02</internalNodes>
      <leafValues>
        -8.4734767675399780e-02 3.3887276053428650e-01</leafValues></_>
    <_>
      <internalNodes>
        0 -1 74338 -2.8104546945542097e-03</internalNodes>
      <leafValues>
        3.0586308240890503e-01 -7.4011087417602539e-02</leafValues></_>
    <_>
      <internalNodes>
        0 -1 18327 9.4894436188042164e-04</internalNodes>
      <leafValues>
        -1.1729714274406433e-01 1.8553355336189270e-01</leafValues></_>
    <_>
      <internalNodes>
        0 -1 57118 2.2478735074400902e-02</internalNodes>
      <leafValues>
        -9.1276019811630249e-02 2.1703720092773438e-01</leafValues></_>
    <_>
      <internalNodes>
        0 -1 51525 4.1544452309608459e-02</internalNodes>
      <leafValues>
        -4.8657875508069992e-02 3.7410849332809448e-01</leafValues></_>
    <_>
      <internalNodes>
        0 -1 59770 -3.4018475562334061e-03</internalNodes>
      <leafValues>
        2.2459781169891357e-01 -1.0028644651174545e-01</leafValues></_>
    <_>
      <internalNodes>
        0 -1 31674 1.7447164282202721e-02</internalNodes>
      <leafValues>
        -6.1112485826015472e-02 2.7719491720199585e-01</leafValues></_>
    <_>
      <internalNodes>
        0 -1 68 -1.2688396964222193e-03</internalNodes>
      <leafValues>
        1.9117008149623871e-01 -8.5379160940647125e-02</leafValues></_>
    <_>
      <internalNodes>
        0 -1 37971 -2.3304335772991180e-02</internalNodes>
      <leafValues>
        2.4944126605987549e-01 -6.8067252635955811e-02</leafValues></_>
    <_>
      <internalNodes>
        0 -1 30734 2.9949953313916922e-03</internalNodes>
      <leafValues>
        -6.5226100385189056e-02 2.3380425572395325e-01</leafValues></_>
    <_>
      <internalNodes>
        0 -1 11773 -3.9812427014112473e-02</internalNodes>
      <leafValues>
        -5.7648795843124390e-01 2.5412656366825104e-02</leafValues></_>
    <_>
      <internalNodes>
        0 -1 13608 -6.4118317095562816e-04</internalNodes>
      <leafValues>
        2.0443242788314819e-01 -8.2015544176101685e-02</leafValues></_>
    <_>
      <internalNodes>
        0 -1 6072 -5.6966661941260099e-04</internalNodes>
      <leafValues>
        1.3893972337245941e-01 -1.1749362200498581e-01</leafValues></_>
    <_>
      <internalNodes>
        0 -1 11758 1.3153892010450363e-02</internalNodes>
      <leafValues>
        4.9773018807172775e-02 -3.3236888051033020e-01</leafValues></_>
    <_>
      <internalNodes>
        0 -1 39727 -5.4897698573768139e-03</internalNodes>
      <leafValues>
        -5.9107661247253418e-01 2.5970291346311569e-02</leafValues></_>
    <_>
      <internalNodes>
        0 -1 24274 -1.0555965825915337e-02</internalNodes>
      <leafValues>
        2.3819272220134735e-01 -7.0041336119174957e-02</leafValues></_>
    <_>
      <internalNodes>
        0 -1 8237 -2.6946630328893661e-02</internalNodes>
      <leafValues>
        2.7281838655471802e-01 -6.8712554872035980e-02</leafValues></_>
    <_>
      <internalNodes>
        0 -1 34622 2.0608735084533691e-01</internalNodes>
      <leafValues>
        2.4468610063195229e-02 -6.6336280107498169e-01</leafValues></_>
    <_>
      <internalNodes>
        0 -1 70957 7.5487187132239342e-03</internalNodes>
      <leafValues>
        -4.0871869772672653e-02 3.9206090569496155e-01</leafValues></_>
    <_>
      <internalNodes>
        0 -1 43588 1.6574816778302193e-02</internalNodes>
      <leafValues>
        -3.3825390040874481e-02 4.1009807586669922e-01</leafValues></_>
    <_>
      <internalNodes>
        0 -1 3116 1.1467435397207737e-02</internalNodes>
      <leafValues>
        -7.8989252448081970e-02 1.8879143893718719e-01</leafValues></_>
    <_>
      <internalNodes>
        0 -1 53316 -1.0388994589447975e-02</internalNodes>
      <leafValues>
        2.1860121190547943e-01 -7.0574417710304260e-02</leafValues></_>
    <_>
      <internalNodes>
        0 -1 53210 4.8866118304431438e-03</internalNodes>
      <leafValues>
        2.5860399007797241e-02 -7.7703201770782471e-01</leafValues></_>
    <_>
      <internalNodes>
        0 -1 63270 -4.1200662963092327e-03</internalNodes>
      <leafValues>
        2.3709379136562347e-01 -6.5279915928840637e-02</leafValues></_>
    <_>
      <internalNodes>
        0 -1 69134 2.7974005788564682e-02</internalNodes>
      <leafValues>
        -4.6871259808540344e-02 3.3160200715065002e-01</leafValues></_>
    <_>
      <internalNodes>
        0 -1 22964 2.5088228285312653e-02</internalNodes>
      <leafValues>
        3.0917799100279808e-02 -5.4837048053741455e-01</leafValues></_>
    <_>
      <internalNodes>
        0 -1 20622 -1.1899885721504688e-03</internalNodes>
      <leafValues>
        2.1133518218994141e-01 -7.2675034403800964e-02</leafValues></_>
    <_>
      <internalNodes>
        0 -1 52923 1.1183197796344757e-01</internalNodes>
      <leafValues>
        2.0381059497594833e-02 -7.8881162405014038e-01</leafValues></_>
    <_>
      <internalNodes>
        0 -1 51242 -1.7588943243026733e-02</internalNodes>
      <leafValues>
        -4.0054848790168762e-01 3.3781424164772034e-02</leafValues></_>
    <_>
      <internalNodes>
        0 -1 44660 2.5738222757354379e-04</internalNodes>
      <leafValues>
        -9.3041688203811646e-02 1.5759268403053284e-01</leafValues></_>
    <_>
      <internalNodes>
        0 -1 72625 5.1333438605070114e-03</internalNodes>
      <leafValues>
        -6.6602289676666260e-02 2.1885670721530914e-01</leafValues></_>
    <_>
      <internalNodes>
        0 -1 69076 1.8932044506072998e-02</internalNodes>
      <leafValues>
        -3.5075005143880844e-02 3.8324916362762451e-01</leafValues></_>
    <_>
      <internalNodes>
        0 -1 7450 -6.0933064669370651e-03</internalNodes>
      <leafValues>
        -3.0595454573631287e-01 4.7851476818323135e-02</leafValues></_>
    <_>
      <internalNodes>
        0 -1 2786 2.0276478026062250e-03</internalNodes>
      <leafValues>
        -8.7456457316875458e-02 1.6845308244228363e-01</leafValues></_>
    <_>
      <internalNodes>
        0 -1 29826 -3.0973853543400764e-02</internalNodes>
      <leafValues>
        3.4699714183807373e-01 -4.2657975107431412e-02</leafValues></_>
    <_>
      <internalNodes>
        0 -1 29208 -5.0325959455221891e-04</internalNodes>
      <leafValues>
        1.9751207530498505e-01 -7.3355980217456818e-02</leafValues></_>
    <_>
      <internalNodes>
        0 -1 43810 4.7794319689273834e-03</internalNodes>
      <leafValues>
        3.1339783221483231e-02 -5.0543910264968872e-01</leafValues></_>
    <_>
      <internalNodes>
        0 -1 10738 2.8885575011372566e-03</internalNodes>
      <leafValues>
        2.8369875624775887e-02 -4.5104384422302246e-01</leafValues></_>
    <_>
      <internalNodes>
        0 -1 56063 -8.7197180837392807e-03</internalNodes>
      <leafValues>
        3.6575925350189209e-01 -4.3777905404567719e-02</leafValues></_>
    <_>
      <internalNodes>
        0 -1 62303 -1.7718791961669922e-02</internalNodes>
      <leafValues>
        6.7439323663711548e-01 -1.9452262669801712e-02</leafValues></_>
    <_>
      <internalNodes>
        0 -1 16583 2.1742988377809525e-02</internalNodes>
      <leafValues>
        -2.3369628936052322e-02 5.3932380676269531e-01</leafValues></_>
    <_>
      <internalNodes>
        0 -1 71869 -2.1044697612524033e-02</internalNodes>
      <leafValues>
        -4.6935427188873291e-01 3.3428985625505447e-02</leafValues></_>
    <_>
      <internalNodes>
        0 -1 50532 4.8255972564220428e-02</internalNodes>
      <leafValues>
        -5.0577744841575623e-02 3.1863340735435486e-01</leafValues></_>
    <_>
      <internalNodes>
        0 -1 37303 5.0656922161579132e-02</internalNodes>
      <leafValues>
        -2.1850621327757835e-02 6.1790353059768677e-01</leafValues></_>
    <_>
      <internalNodes>
        0 -1 76349 1.7346731619909406e-03</internalNodes>
      <leafValues>
        -4.6901885420084000e-02 2.9835024476051331e-01</leafValues></_>
    <_>
      <internalNodes>
        0 -1 41326 -3.1078846659511328e-03</internalNodes>
      <leafValues>
        -4.9391433596611023e-01 3.3464740961790085e-02</leafValues></_>
    <_>
      <internalNodes>
        0 -1 12223 1.8120897002518177e-03</internalNodes>
      <leafValues>
        -1.1544166505336761e-01 1.3141064345836639e-01</leafValues></_>
    <_>
      <internalNodes>
        0 -1 13061 3.3388265874236822e-03</internalNodes>
      <leafValues>
        -1.0970670729875565e-01 1.4479406177997589e-01</leafValues></_>
    <_>
      <internalNodes>
        0 -1 63118 2.5496780872344971e-02</internalNodes>
      <leafValues>
        -4.2189449071884155e-02 3.6648660898208618e-01</leafValues></_>
    <_>
      <internalNodes>
        0 -1 13312 -1.6798817086964846e-03</internalNodes>
      <leafValues>
        1.7976304888725281e-01 -8.7141521275043488e-02</leafValues></_>
    <_>
      <internalNodes>
        0 -1 74116 -4.8063495196402073e-03</internalNodes>
      <leafValues>
        -4.4730809330940247e-01 3.9800662547349930e-02</leafValues></_>
    <_>
      <internalNodes>
        0 -1 6240 5.9282191097736359e-02</internalNodes>
      <leafValues>
        -2.4384457617998123e-02 6.8376165628433228e-01</leafValues></_>
    <_>
      <internalNodes>
        0 -1 70067 9.5068262889981270e-03</internalNodes>
      <leafValues>
        -1.8863270059227943e-02 6.2270075082778931e-01</leafValues></_>
    <_>
      <internalNodes>
        0 -1 73254 -1.7147801816463470e-02</internalNodes>
      <leafValues>
        -3.6061057448387146e-01 4.1000902652740479e-02</leafValues></_>
    <_>
      <internalNodes>
        0 -1 74977 3.4437389113008976e-03</internalNodes>
      <leafValues>
        -5.8335896581411362e-02 2.4360740184783936e-01</leafValues></_>
    <_>
      <internalNodes>
        0 -1 12960 -5.2670370787382126e-03</internalNodes>
      <leafValues>
        -5.8473163843154907e-01 2.4858390912413597e-02</leafValues></_>
    <_>
      <internalNodes>
        0 -1 27282 6.3308840617537498e-03</internalNodes>
      <leafValues>
        -4.2778525501489639e-02 3.8909322023391724e-01</leafValues></_>
    <_>
      <internalNodes>
        0 -1 64617 -4.7582745552062988e-02</internalNodes>
      <leafValues>
        7.7668476104736328e-01 -1.4863537624478340e-02</leafValues></_>
    <_>
      <internalNodes>
        0 -1 75854 1.1248923838138580e-02</internalNodes>
      <leafValues>
        6.4705841243267059e-02 -2.4684572219848633e-01</leafValues></_>
    <_>
      <internalNodes>
        0 -1 22368 -1.3551017036661506e-03</internalNodes>
      <leafValues>
        2.2165489196777344e-01 -6.6686548292636871e-02</leafValues></_>
    <_>
      <internalNodes>
        0 -1 14820 -1.4706816291436553e-03</internalNodes>
      <leafValues>
        1.3819158077239990e-01 -1.0276005417108536e-01</leafValues></_>
    <_>
      <internalNodes>
        0 -1 52583 -6.3159301877021790e-02</internalNodes>
      <leafValues>
        4.1262692213058472e-01 -3.5457462072372437e-02</leafValues></_>
    <_>
      <internalNodes>
        0 -1 62329 1.8332747276872396e-03</internalNodes>
      <leafValues>
        7.3018983006477356e-02 -1.9781403243541718e-01</leafValues></_>
    <_>
      <internalNodes>
        0 -1 25108 3.0563648790121078e-02</internalNodes>
      <leafValues>
        -6.3380934298038483e-02 2.2952672839164734e-01</leafValues></_>
    <_>
      <internalNodes>
        0 -1 21385 -7.0007005706429482e-03</internalNodes>
      <leafValues>
        1.8839788436889648e-01 -7.6160058379173279e-02</leafValues></_>
    <_>
      <internalNodes>
        0 -1 45105 -3.7770480848848820e-03</internalNodes>
      <leafValues>
        -2.1469569206237793e-01 7.3859117925167084e-02</leafValues></_>
    <_>
      <internalNodes>
        0 -1 16717 5.8771902695298195e-03</internalNodes>
      <leafValues>
        -4.5246928930282593e-02 3.2613563537597656e-01</leafValues></_>
    <_>
      <internalNodes>
        0 -1 33169 -8.9586088433861732e-03</internalNodes>
      <leafValues>
        1.6436304152011871e-01 -9.3285553157329559e-02</leafValues></_>
    <_>
      <internalNodes>
        0 -1 58316 7.1397796273231506e-03</internalNodes>
      <leafValues>
        4.9037527292966843e-02 -3.3466166257858276e-01</leafValues></_>
    <_>
      <internalNodes>
        0 -1 12560 -2.5993509218096733e-02</internalNodes>
      <leafValues>
        1.6309760510921478e-01 -9.0735398232936859e-02</leafValues></_>
    <_>
      <internalNodes>
        0 -1 36660 -3.8499990478157997e-03</internalNodes>
      <leafValues>
        -3.3561944961547852e-01 4.7293994575738907e-02</leafValues></_>
    <_>
      <internalNodes>
        0 -1 77447 2.6459447690285742e-04</internalNodes>
      <leafValues>
        -9.9871255457401276e-02 1.4671215415000916e-01</leafValues></_>
    <_>
      <internalNodes>
        0 -1 7219 -4.6173972077667713e-04</internalNodes>
      <leafValues>
        1.3268524408340454e-01 -1.0998705029487610e-01</leafValues></_>
    <_>
      <internalNodes>
        0 -1 7310 9.3611348420381546e-03</internalNodes>
      <leafValues>
        4.1048917919397354e-02 -3.5014554858207703e-01</leafValues></_>
    <_>
      <internalNodes>
        0 -1 22078 4.5567950606346130e-01</internalNodes>
      <leafValues>
        -2.7471316978335381e-02 5.6570476293563843e-01</leafValues></_>
    <_>
      <internalNodes>
        0 -1 41380 -8.6924526840448380e-04</internalNodes>
      <leafValues>
        1.8592545390129089e-01 -7.7619887888431549e-02</leafValues></_>
    <_>
      <internalNodes>
        0 -1 14523 1.1453543789684772e-02</internalNodes>
      <leafValues>
        -2.6328893378376961e-02 5.2375799417495728e-01</leafValues></_>
    <_>
      <internalNodes>
        0 -1 7188 -3.5551431938074529e-04</internalNodes>
      <leafValues>
        1.4192253351211548e-01 -1.1037763953208923e-01</leafValues></_>
    <_>
      <internalNodes>
        0 -1 27792 -3.3716163598001003e-03</internalNodes>
      <leafValues>
        -5.3398925065994263e-01 2.7185978367924690e-02</leafValues></_>
    <_>
      <internalNodes>
        0 -1 6078 4.9060012679547071e-04</internalNodes>
      <leafValues>
        -1.1325104534626007e-01 1.3426952064037323e-01</leafValues></_>
    <_>
      <internalNodes>
        0 -1 50083 1.2884759902954102e-01</internalNodes>
      <leafValues>
        2.3974088951945305e-02 -6.2868356704711914e-01</leafValues></_>
    <_>
      <internalNodes>
        0 -1 66035 8.0842124298214912e-03</internalNodes>
      <leafValues>
        2.3128807544708252e-02 -5.6528860330581665e-01</leafValues></_>
    <_>
      <internalNodes>
        0 -1 65669 3.0614007264375687e-03</internalNodes>
      <leafValues>
        2.9100483283400536e-02 -4.6138161420822144e-01</leafValues></_>
    <_>
      <internalNodes>
        0 -1 62731 6.4709405414760113e-03</internalNodes>
      <leafValues>
        2.2605272009968758e-02 -6.1768573522567749e-01</leafValues></_>
    <_>
      <internalNodes>
        0 -1 58759 -7.5998306274414062e-02</internalNodes>
      <leafValues>
        3.7391883134841919e-01 -4.1252914816141129e-02</leafValues></_>
    <_>
      <internalNodes>
        0 -1 54186 -7.4375449912622571e-04</internalNodes>
      <leafValues>
        1.3120517134666443e-01 -1.0985986888408661e-01</leafValues></_>
    <_>
      <internalNodes>
        0 -1 68013 1.1976895853877068e-02</internalNodes>
      <leafValues>
        -7.8948035836219788e-02 1.8876728415489197e-01</leafValues></_>
    <_>
      <internalNodes>
        0 -1 16816 2.9243230819702148e-03</internalNodes>
      <leafValues>
        -6.3527487218379974e-02 2.4360476434230804e-01</leafValues></_>
    <_>
      <internalNodes>
        0 -1 73380 8.3419550210237503e-03</internalNodes>
      <leafValues>
        2.5668464601039886e-02 -6.3133507966995239e-01</leafValues></_>
    <_>
      <internalNodes>
        0 -1 31183 1.3810148462653160e-02</internalNodes>
      <leafValues>
        1.7634505406022072e-02 -6.8793928623199463e-01</leafValues></_>
    <_>
      <internalNodes>
        0 -1 38774 -1.0357412695884705e-01</internalNodes>
      <leafValues>
        8.6704796552658081e-01 -1.7699267715215683e-02</leafValues></_>
    <_>
      <internalNodes>
        0 -1 17814 -2.0336001180112362e-03</internalNodes>
      <leafValues>
        2.3231844604015350e-01 -5.1300205290317535e-02</leafValues></_>
    <_>
      <internalNodes>
        0 -1 23499 7.8270808444358408e-05</internalNodes>
      <leafValues>
        -9.4200737774372101e-02 1.3785682618618011e-01</leafValues></_>
    <_>
      <internalNodes>
        0 -1 75947 1.0740241035819054e-02</internalNodes>
      <leafValues>
        -3.3876247704029083e-02 3.8451322913169861e-01</leafValues></_></weakClassifiers></stage0>
</opencv_storage>
