<?xml version="1.0"?>
<opencv_storage>
<stage11>
  <maxWeakCount>100</maxWeakCount>
  <stageThreshold>-6.5225100517272949e-01</stageThreshold>
  <weakClassifiers>
    <_>
      <internalNodes>
        0 -1 5319 -1.0942493099719286e-03</internalNodes>
      <leafValues>
        4.4174757599830627e-01 2.4180327355861664e-01</leafValues></_>
    <_>
      <internalNodes>
        0 -1 60354 1.3494689483195543e-03</internalNodes>
      <leafValues>
        -4.9542941153049469e-02 1.9072958827018738e-01</leafValues></_>
    <_>
      <internalNodes>
        0 -1 7656 5.1595643162727356e-04</internalNodes>
      <leafValues>
        -9.9181301891803741e-02 1.1141718178987503e-01</leafValues></_>
    <_>
      <internalNodes>
        0 -1 37019 -1.4648020733147860e-03</internalNodes>
      <leafValues>
        8.1879228353500366e-02 -1.2247032672166824e-01</leafValues></_>
    <_>
      <internalNodes>
        0 -1 8987 -4.5897695235908031e-03</internalNodes>
      <leafValues>
        1.5650296211242676e-01 -7.2382479906082153e-02</leafValues></_>
    <_>
      <internalNodes>
        0 -1 44324 -1.5787307173013687e-02</internalNodes>
      <leafValues>
        4.9474397301673889e-01 -3.5194864030927420e-03</leafValues></_>
    <_>
      <internalNodes>
        0 -1 44324 -1.5444029122591019e-02</internalNodes>
      <leafValues>
        -9.4326043128967285e-01 1.9997167401015759e-03</leafValues></_>
    <_>
      <internalNodes>
        0 -1 44324 -1.5645038336515427e-02</internalNodes>
      <leafValues>
        8.2198989391326904e-01 -3.5674133687280118e-04</leafValues></_>
    <_>
      <internalNodes>
        0 -1 1666 -1.3603423535823822e-01</internalNodes>
      <leafValues>
        -3.2527273893356323e-01 2.3333135992288589e-02</leafValues></_>
    <_>
      <internalNodes>
        0 -1 28057 -1.2517515569925308e-02</internalNodes>
      <leafValues>
        -8.3401137590408325e-01 1.3945515267550945e-02</leafValues></_>
    <_>
      <internalNodes>
        0 -1 62665 -2.0379304885864258e-02</internalNodes>
      <leafValues>
        8.8670563697814941e-01 -1.2365543283522129e-02</leafValues></_>
    <_>
      <internalNodes>
        0 -1 76140 -1.5032113529741764e-02</internalNodes>
      <leafValues>
        3.5021057724952698e-01 -3.1601812690496445e-02</leafValues></_>
    <_>
      <internalNodes>
        0 -1 76140 -1.3960411772131920e-02</internalNodes>
      <leafValues>
        -4.4526851177215576e-01 2.4986352771520615e-02</leafValues></_>
    <_>
      <internalNodes>
        0 -1 76140 -1.5032113529741764e-02</internalNodes>
      <leafValues>
        4.5426619052886963e-01 -1.8854903057217598e-02</leafValues></_>
    <_>
      <internalNodes>
        0 -1 76223 -1.3230921700596809e-02</internalNodes>
      <leafValues>
        -4.3339031934738159e-01 2.1864110603928566e-02</leafValues></_>
    <_>
      <internalNodes>
        0 -1 76223 -1.3673313893377781e-02</internalNodes>
      <leafValues>
        4.2898136377334595e-01 -1.8177999183535576e-02</leafValues></_>
    <_>
      <internalNodes>
        0 -1 76223 -1.4191772788763046e-02</internalNodes>
      <leafValues>
        -4.4799312949180603e-01 1.9904779270291328e-02</leafValues></_>
    <_>
      <internalNodes>
        0 -1 76223 -1.3673313893377781e-02</internalNodes>
      <leafValues>
        4.2626982927322388e-01 -1.9904151558876038e-02</leafValues></_>
    <_>
      <internalNodes>
        0 -1 11735 8.6122928187251091e-03</internalNodes>
      <leafValues>
        7.4560637585818768e-03 -9.4269400835037231e-01</leafValues></_>
    <_>
      <internalNodes>
        0 -1 35878 -1.7934098839759827e-02</internalNodes>
      <leafValues>
        2.7187022566795349e-01 -3.7566807121038437e-02</leafValues></_>
    <_>
      <internalNodes>
        0 -1 77609 -1.1330856010317802e-02</internalNodes>
      <leafValues>
        4.6225687861442566e-01 -2.1335599943995476e-02</leafValues></_>
    <_>
      <internalNodes>
        0 -1 77624 -9.5764631405472755e-03</internalNodes>
      <leafValues>
        -7.5350546836853027e-01 1.4803277328610420e-02</leafValues></_>
    <_>
      <internalNodes>
        0 -1 46841 -1.4884671568870544e-01</internalNodes>
      <leafValues>
        -2.2654700279235840e-01 4.7269538044929504e-02</leafValues></_>
    <_>
      <internalNodes>
        0 -1 68597 7.7912781853228807e-04</internalNodes>
      <leafValues>
        9.1243416070938110e-02 -1.1966203153133392e-01</leafValues></_>
    <_>
      <internalNodes>
        0 -1 16814 1.8149286508560181e-02</internalNodes>
      <leafValues>
        2.7899397537112236e-02 -3.6714991927146912e-01</leafValues></_>
    <_>
      <internalNodes>
        0 -1 5881 1.3865056633949280e-01</internalNodes>
      <leafValues>
        5.2669376134872437e-02 -2.0629134774208069e-01</leafValues></_>
    <_>
      <internalNodes>
        0 -1 24671 6.1175994575023651e-02</internalNodes>
      <leafValues>
        -5.4600208997726440e-02 2.0235496759414673e-01</leafValues></_>
    <_>
      <internalNodes>
        0 -1 16220 -6.9223105907440186e-02</internalNodes>
      <leafValues>
        1. -9.9148433655500412e-03</leafValues></_>
    <_>
      <internalNodes>
        0 -1 43658 -5.7379323989152908e-02</internalNodes>
      <leafValues>
        6.6711628437042236e-01 -1.2493266724050045e-02</leafValues></_>
    <_>
      <internalNodes>
        0 -1 49279 -1.0686755180358887e-01</internalNodes>
      <leafValues>
        -4.7214245796203613e-01 2.6031160727143288e-02</leafValues></_>
    <_>
      <internalNodes>
        0 -1 62216 -1.8376100808382034e-02</internalNodes>
      <leafValues>
        2.9440957307815552e-01 -3.2179336994886398e-02</leafValues></_>
    <_>
      <internalNodes>
        0 -1 77530 -4.0289801545441151e-03</internalNodes>
      <leafValues>
        -2.5612151622772217e-01 3.8513388484716415e-02</leafValues></_>
    <_>
      <internalNodes>
        0 -1 56646 2.8746083844453096e-03</internalNodes>
      <leafValues>
        -4.3767590075731277e-02 2.1693539619445801e-01</leafValues></_>
    <_>
      <internalNodes>
        0 -1 57403 -8.6471028625965118e-03</internalNodes>
      <leafValues>
        -3.0858463048934937e-01 3.1510874629020691e-02</leafValues></_>
    <_>
      <internalNodes>
        0 -1 74245 -7.4329879134893417e-04</internalNodes>
      <leafValues>
        -1.3406461477279663e-01 7.3669694364070892e-02</leafValues></_>
    <_>
      <internalNodes>
        0 -1 77950 1.1482054833322763e-03</internalNodes>
      <leafValues>
        -7.4849165976047516e-02 1.3622809946537018e-01</leafValues></_>
    <_>
      <internalNodes>
        0 -1 76620 1.6019025351852179e-03</internalNodes>
      <leafValues>
        -4.8426732420921326e-02 2.1632789075374603e-01</leafValues></_>
    <_>
      <internalNodes>
        0 -1 44669 -1.0996075347065926e-02</internalNodes>
      <leafValues>
        3.8438639044761658e-01 -2.6196740567684174e-02</leafValues></_>
    <_>
      <internalNodes>
        0 -1 61285 -1.0302511975169182e-02</internalNodes>
      <leafValues>
        7.1231055259704590e-01 -1.2809785082936287e-02</leafValues></_>
    <_>
      <internalNodes>
        0 -1 54193 -3.7607150152325630e-03</internalNodes>
      <leafValues>
        -3.6298945546150208e-01 3.0671244487166405e-02</leafValues></_>
    <_>
      <internalNodes>
        0 -1 71898 -7.6204631477594376e-03</internalNodes>
      <leafValues>
        5.9113818407058716e-01 -1.5702337026596069e-02</leafValues></_>
    <_>
      <internalNodes>
        0 -1 60549 -2.3481391370296478e-02</internalNodes>
      <leafValues>
        -9.1545897722244263e-01 1.3447651639580727e-02</leafValues></_>
    <_>
      <internalNodes>
        0 -1 76961 -1.8801128491759300e-02</internalNodes>
      <leafValues>
        5.1457536220550537e-01 -2.0376257598400116e-02</leafValues></_>
    <_>
      <internalNodes>
        0 -1 77172 -1.2619294226169586e-02</internalNodes>
      <leafValues>
        -6.1282575130462646e-01 2.1654615178704262e-02</leafValues></_>
    <_>
      <internalNodes>
        0 -1 70391 -7.2710372507572174e-02</internalNodes>
      <leafValues>
        6.4595848321914673e-01 -1.5860823914408684e-02</leafValues></_>
    <_>
      <internalNodes>
        0 -1 45150 7.2172055952250957e-03</internalNodes>
      <leafValues>
        1.7153121531009674e-02 -6.7581975460052490e-01</leafValues></_>
    <_>
      <internalNodes>
        0 -1 10179 4.6922685578465462e-03</internalNodes>
      <leafValues>
        1.7066292464733124e-02 -5.5565369129180908e-01</leafValues></_>
    <_>
      <internalNodes>
        0 -1 61932 -2.3734336718916893e-04</internalNodes>
      <leafValues>
        1.2670089304447174e-01 -7.5483024120330811e-02</leafValues></_>
    <_>
      <internalNodes>
        0 -1 67810 1.6060096677392721e-03</internalNodes>
      <leafValues>
        -4.2371314018964767e-02 2.4969448149204254e-01</leafValues></_>
    <_>
      <internalNodes>
        0 -1 32933 2.5413895491510630e-04</internalNodes>
      <leafValues>
        8.1182576715946198e-02 -1.1810626834630966e-01</leafValues></_>
    <_>
      <internalNodes>
        0 -1 6508 -2.1694466471672058e-02</internalNodes>
      <leafValues>
        -1.5041217207908630e-01 7.3723882436752319e-02</leafValues></_>
    <_>
      <internalNodes>
        0 -1 2739 5.3078141063451767e-03</internalNodes>
      <leafValues>
        -4.1412197053432465e-02 2.3414005339145660e-01</leafValues></_>
    <_>
      <internalNodes>
        0 -1 2751 -3.5272296518087387e-03</internalNodes>
      <leafValues>
        1.3984455168247223e-01 -8.5711568593978882e-02</leafValues></_>
    <_>
      <internalNodes>
        0 -1 40376 -1.0341527871787548e-02</internalNodes>
      <leafValues>
        -4.3247517943382263e-01 2.6255317032337189e-02</leafValues></_>
    <_>
      <internalNodes>
        0 -1 11260 -2.7539259754121304e-03</internalNodes>
      <leafValues>
        1.9707746803760529e-01 -5.4096836596727371e-02</leafValues></_>
    <_>
      <internalNodes>
        0 -1 8371 -2.7121739462018013e-02</internalNodes>
      <leafValues>
        -3.1112629175186157e-01 3.7870343774557114e-02</leafValues></_>
    <_>
      <internalNodes>
        0 -1 22941 -4.0312516503036022e-03</internalNodes>
      <leafValues>
        -5.4579138755798340e-01 1.8390744924545288e-02</leafValues></_>
    <_>
      <internalNodes>
        0 -1 5942 8.0639883875846863e-02</internalNodes>
      <leafValues>
        3.7196341902017593e-02 -2.8823211789131165e-01</leafValues></_>
    <_>
      <internalNodes>
        0 -1 10803 5.3678367286920547e-02</internalNodes>
      <leafValues>
        -1.2554704211652279e-02 8.0006754398345947e-01</leafValues></_>
    <_>
      <internalNodes>
        0 -1 5824 1.9113911315798759e-02</internalNodes>
      <leafValues>
        5.2343640476465225e-02 -2.0697791874408722e-01</leafValues></_>
    <_>
      <internalNodes>
        0 -1 26797 1.5320289880037308e-02</internalNodes>
      <leafValues>
        -2.6199815794825554e-02 4.3291449546813965e-01</leafValues></_>
    <_>
      <internalNodes>
        0 -1 17458 -1.5550644695758820e-01</internalNodes>
      <leafValues>
        6.6505306959152222e-01 -1.2731146067380905e-02</leafValues></_>
    <_>
      <internalNodes>
        0 -1 7608 4.5964764431118965e-03</internalNodes>
      <leafValues>
        6.1489734798669815e-02 -1.8259418010711670e-01</leafValues></_>
    <_>
      <internalNodes>
        0 -1 59034 -2.0054236054420471e-02</internalNodes>
      <leafValues>
        -3.7031316757202148e-01 2.9229236766695976e-02</leafValues></_>
    <_>
      <internalNodes>
        0 -1 48980 1.7298809252679348e-03</internalNodes>
      <leafValues>
        -4.3964482843875885e-02 2.3651100695133209e-01</leafValues></_>
    <_>
      <internalNodes>
        0 -1 43842 1.7007716000080109e-02</internalNodes>
      <leafValues>
        1.8418559804558754e-02 -5.2469158172607422e-01</leafValues></_>
    <_>
      <internalNodes>
        0 -1 52745 -8.6685791611671448e-02</internalNodes>
      <leafValues>
        6.9355213642120361e-01 -1.5452196821570396e-02</leafValues></_>
    <_>
      <internalNodes>
        0 -1 44694 -5.8338709175586700e-02</internalNodes>
      <leafValues>
        5.8917087316513062e-01 -1.5188070014119148e-02</leafValues></_>
    <_>
      <internalNodes>
        0 -1 21581 -1.7071075737476349e-02</internalNodes>
      <leafValues>
        2.7135464549064636e-01 -3.3573433756828308e-02</leafValues></_>
    <_>
      <internalNodes>
        0 -1 54258 6.3111400231719017e-03</internalNodes>
      <leafValues>
        -6.9538943469524384e-02 1.5656548738479614e-01</leafValues></_>
    <_>
      <internalNodes>
        0 -1 58424 1.4027791097760201e-02</internalNodes>
      <leafValues>
        3.6417771130800247e-02 -2.8461396694183350e-01</leafValues></_>
    <_>
      <internalNodes>
        0 -1 60634 6.2471859157085419e-02</internalNodes>
      <leafValues>
        -1.7494538798928261e-02 5.2944129705429077e-01</leafValues></_>
    <_>
      <internalNodes>
        0 -1 15960 -3.9837265014648438e-01</internalNodes>
      <leafValues>
        7.4985098838806152e-01 -1.1942964978516102e-02</leafValues></_>
    <_>
      <internalNodes>
        0 -1 45230 1.4191639609634876e-02</internalNodes>
      <leafValues>
        -4.7345928847789764e-02 2.0402638614177704e-01</leafValues></_>
    <_>
      <internalNodes>
        0 -1 7461 -1.3964859768748283e-02</internalNodes>
      <leafValues>
        2.2503274679183960e-01 -4.7043345868587494e-02</leafValues></_>
    <_>
      <internalNodes>
        0 -1 7548 -3.8004457019269466e-03</internalNodes>
      <leafValues>
        -2.4098171293735504e-01 4.6207673847675323e-02</leafValues></_>
    <_>
      <internalNodes>
        0 -1 44929 -2.7900021523237228e-03</internalNodes>
      <leafValues>
        -3.5476970672607422e-01 3.0532306060194969e-02</leafValues></_>
    <_>
      <internalNodes>
        0 -1 52025 -3.4470282495021820e-02</internalNodes>
      <leafValues>
        7.0723128318786621e-01 -1.6357976943254471e-02</leafValues></_>
    <_>
      <internalNodes>
        0 -1 50076 9.6229769289493561e-02</internalNodes>
      <leafValues>
        2.4759680032730103e-02 -5.1799452304840088e-01</leafValues></_>
    <_>
      <internalNodes>
        0 -1 51375 -3.2226733863353729e-02</internalNodes>
      <leafValues>
        8.8162726163864136e-01 -1.3257727026939392e-02</leafValues></_>
    <_>
      <internalNodes>
        0 -1 74944 -4.0632415562868118e-02</internalNodes>
      <leafValues>
        7.3182320594787598e-01 -1.1045437306165695e-02</leafValues></_>
    <_>
      <internalNodes>
        0 -1 65792 -2.6305425912141800e-02</internalNodes>
      <leafValues>
        4.2230692505836487e-01 -2.2090170532464981e-02</leafValues></_>
    <_>
      <internalNodes>
        0 -1 53525 4.6591859310865402e-02</internalNodes>
      <leafValues>
        4.4086813926696777e-02 -2.4306944012641907e-01</leafValues></_>
    <_>
      <internalNodes>
        0 -1 38137 5.1874825730919838e-03</internalNodes>
      <leafValues>
        1.9300047308206558e-02 -5.6457799673080444e-01</leafValues></_>
    <_>
      <internalNodes>
        0 -1 62144 9.8880729638040066e-04</internalNodes>
      <leafValues>
        9.8674103617668152e-02 -1.0707169026136398e-01</leafValues></_>
    <_>
      <internalNodes>
        0 -1 57171 -3.2359652221202850e-02</internalNodes>
      <leafValues>
        5.9441858530044556e-01 -1.7253953963518143e-02</leafValues></_>
    <_>
      <internalNodes>
        0 -1 54584 7.0817405357956886e-03</internalNodes>
      <leafValues>
        -4.0703382343053818e-02 2.4456399679183960e-01</leafValues></_>
    <_>
      <internalNodes>
        0 -1 61147 5.5177777539938688e-04</internalNodes>
      <leafValues>
        -9.8203673958778381e-02 1.0224100947380066e-01</leafValues></_>
    <_>
      <internalNodes>
        0 -1 29762 3.3980431035161018e-03</internalNodes>
      <leafValues>
        -4.3792422860860825e-02 2.4274365603923798e-01</leafValues></_>
    <_>
      <internalNodes>
        0 -1 12940 5.1388647407293320e-02</internalNodes>
      <leafValues>
        -7.9477854073047638e-02 1.4505694806575775e-01</leafValues></_>
    <_>
      <internalNodes>
        0 -1 13931 -3.4783798037096858e-04</internalNodes>
      <leafValues>
        1.0469389706850052e-01 -1.0120141506195068e-01</leafValues></_>
    <_>
      <internalNodes>
        0 -1 33951 8.9712012559175491e-03</internalNodes>
      <leafValues>
        3.8049083203077316e-02 -2.8523617982864380e-01</leafValues></_>
    <_>
      <internalNodes>
        0 -1 4757 1.0049678385257721e-01</internalNodes>
      <leafValues>
        -2.6120807975530624e-02 3.6852163076400757e-01</leafValues></_>
    <_>
      <internalNodes>
        0 -1 38977 -2.7674349024891853e-02</internalNodes>
      <leafValues>
        -3.0258497595787048e-01 3.4923758357763290e-02</leafValues></_>
    <_>
      <internalNodes>
        0 -1 44860 2.1587587980320677e-05</internalNodes>
      <leafValues>
        9.3067325651645660e-02 -1.0941681265830994e-01</leafValues></_>
    <_>
      <internalNodes>
        0 -1 54099 6.1970627866685390e-03</internalNodes>
      <leafValues>
        8.0664314329624176e-02 -1.4962714910507202e-01</leafValues></_>
    <_>
      <internalNodes>
        0 -1 72685 6.5347272902727127e-03</internalNodes>
      <leafValues>
        3.3372491598129272e-02 -3.2110550999641418e-01</leafValues></_>
    <_>
      <internalNodes>
        0 -1 74644 1.7039356753230095e-02</internalNodes>
      <leafValues>
        -3.1642403453588486e-02 3.8000947237014771e-01</leafValues></_>
    <_>
      <internalNodes>
        0 -1 78388 -7.2197951376438141e-03</internalNodes>
      <leafValues>
        1.5551406145095825e-01 -6.5124824643135071e-02</leafValues></_>
    <_>
      <internalNodes>
        0 -1 74684 -5.6134657934308052e-03</internalNodes>
      <leafValues>
        2.3440882563591003e-01 -4.4075127691030502e-02</leafValues></_></weakClassifiers></stage11>
</opencv_storage>
