<?xml version="1.0"?>
<opencv_storage>
<stage7>
  <maxWeakCount>100</maxWeakCount>
  <stageThreshold>-6.5732395648956299e-01</stageThreshold>
  <weakClassifiers>
    <_>
      <internalNodes>
        0 -1 42597 1.4178117737174034e-02</internalNodes>
      <leafValues>
        2.9725229740142822e-01 6.2416106462478638e-01</leafValues></_>
    <_>
      <internalNodes>
        0 -1 64773 -2.5410946458578110e-02</internalNodes>
      <leafValues>
        5.7492733001708984e-01 -5.7494272477924824e-03</leafValues></_>
    <_>
      <internalNodes>
        0 -1 64773 -2.5185815989971161e-02</internalNodes>
      <leafValues>
        -1. 2.2145134862512350e-03</leafValues></_>
    <_>
      <internalNodes>
        0 -1 64773 -2.4798810482025146e-02</internalNodes>
      <leafValues>
        7.9533833265304565e-01 -5.4095983505249023e-02</leafValues></_>
    <_>
      <internalNodes>
        0 -1 64773 -2.4641107767820358e-02</internalNodes>
      <leafValues>
        -1. 5.3973674774169922e-02</leafValues></_>
    <_>
      <internalNodes>
        0 -1 64773 -2.4568580090999603e-02</internalNodes>
      <leafValues>
        8.5986584424972534e-01 -5.3549006581306458e-02</leafValues></_>
    <_>
      <internalNodes>
        0 -1 15474 4.9011334776878357e-03</internalNodes>
      <leafValues>
        -1.5422970987856388e-02 2.3662818968296051e-01</leafValues></_>
    <_>
      <internalNodes>
        0 -1 13318 2.1251253783702850e-03</internalNodes>
      <leafValues>
        -9.9260121583938599e-02 1.5469294786453247e-01</leafValues></_>
    <_>
      <internalNodes>
        0 -1 31313 -9.5566203817725182e-03</internalNodes>
      <leafValues>
        2.1140572428703308e-01 -7.6540648937225342e-02</leafValues></_>
    <_>
      <internalNodes>
        0 -1 52646 3.5666776821017265e-03</internalNodes>
      <leafValues>
        -4.3891791254281998e-02 3.2448515295982361e-01</leafValues></_>
    <_>
      <internalNodes>
        0 -1 53815 2.5084424763917923e-02</internalNodes>
      <leafValues>
        -6.2005318701267242e-02 2.0044212043285370e-01</leafValues></_>
    <_>
      <internalNodes>
        0 -1 54453 -5.3783040493726730e-04</internalNodes>
      <leafValues>
        1.4101378619670868e-01 -8.9481189846992493e-02</leafValues></_>
    <_>
      <internalNodes>
        0 -1 41426 -8.7921991944313049e-03</internalNodes>
      <leafValues>
        1.4721389114856720e-01 -8.7503656744956970e-02</leafValues></_>
    <_>
      <internalNodes>
        0 -1 49928 1.7273089615628123e-03</internalNodes>
      <leafValues>
        -8.6520642042160034e-02 1.4683274924755096e-01</leafValues></_>
    <_>
      <internalNodes>
        0 -1 64523 4.8156045377254486e-02</internalNodes>
      <leafValues>
        -3.0499100685119629e-02 4.2017298936843872e-01</leafValues></_>
    <_>
      <internalNodes>
        0 -1 35765 9.4437669031322002e-04</internalNodes>
      <leafValues>
        -7.2806492447853088e-02 1.6353245079517365e-01</leafValues></_>
    <_>
      <internalNodes>
        0 -1 46193 -5.6250434368848801e-02</internalNodes>
      <leafValues>
        6.6130518913269043e-01 -1.8244056031107903e-02</leafValues></_>
    <_>
      <internalNodes>
        0 -1 74847 -1.2869525700807571e-02</internalNodes>
      <leafValues>
        -3.7929353117942810e-01 3.1316462904214859e-02</leafValues></_>
    <_>
      <internalNodes>
        0 -1 77775 -7.0062860846519470e-02</internalNodes>
      <leafValues>
        4.8960945010185242e-01 -2.3206917569041252e-02</leafValues></_>
    <_>
      <internalNodes>
        0 -1 73144 -1.3375009410083294e-02</internalNodes>
      <leafValues>
        1.7091441154479980e-01 -6.3369557261466980e-02</leafValues></_>
    <_>
      <internalNodes>
        0 -1 38677 -8.1267468631267548e-02</internalNodes>
      <leafValues>
        -2.5308588147163391e-01 4.8444993793964386e-02</leafValues></_>
    <_>
      <internalNodes>
        0 -1 78286 4.8134671524167061e-03</internalNodes>
      <leafValues>
        1.8305126577615738e-02 -6.8206584453582764e-01</leafValues></_>
    <_>
      <internalNodes>
        0 -1 52096 5.8746538124978542e-03</internalNodes>
      <leafValues>
        -3.7146408110857010e-02 3.0640313029289246e-01</leafValues></_>
    <_>
      <internalNodes>
        0 -1 31978 2.7335807681083679e-02</internalNodes>
      <leafValues>
        -2.3339170962572098e-02 4.8081785440444946e-01</leafValues></_>
    <_>
      <internalNodes>
        0 -1 62523 -7.8761354088783264e-02</internalNodes>
      <leafValues>
        5.7185697555541992e-01 -1.8649343401193619e-02</leafValues></_>
    <_>
      <internalNodes>
        0 -1 19982 3.5995044745504856e-03</internalNodes>
      <leafValues>
        2.6403557509183884e-02 -4.7506609559059143e-01</leafValues></_>
    <_>
      <internalNodes>
        0 -1 51842 -2.8966967016458511e-02</internalNodes>
      <leafValues>
        -6.6826105117797852e-01 1.6472781077027321e-02</leafValues></_>
    <_>
      <internalNodes>
        0 -1 73148 1.7886958085000515e-04</internalNodes>
      <leafValues>
        8.7644860148429871e-02 -1.2769682705402374e-01</leafValues></_>
    <_>
      <internalNodes>
        0 -1 75117 3.7197277415543795e-03</internalNodes>
      <leafValues>
        -4.3194644153118134e-02 2.6293778419494629e-01</leafValues></_>
    <_>
      <internalNodes>
        0 -1 58558 -4.9159927293658257e-03</internalNodes>
      <leafValues>
        -6.1785846948623657e-01 2.1170185878872871e-02</leafValues></_>
    <_>
      <internalNodes>
        0 -1 72478 1.6776937991380692e-02</internalNodes>
      <leafValues>
        -3.2028894871473312e-02 3.6331900954246521e-01</leafValues></_>
    <_>
      <internalNodes>
        0 -1 5383 -3.4480998292565346e-03</internalNodes>
      <leafValues>
        1.4512217044830322e-01 -7.1790352463722229e-02</leafValues></_>
    <_>
      <internalNodes>
        0 -1 64995 5.9672579169273376e-02</internalNodes>
      <leafValues>
        -5.0981514155864716e-02 2.1154513955116272e-01</leafValues></_>
    <_>
      <internalNodes>
        0 -1 77642 4.7246278263628483e-03</internalNodes>
      <leafValues>
        1.6680663451552391e-02 -7.1536844968795776e-01</leafValues></_>
    <_>
      <internalNodes>
        0 -1 14842 -2.8085336089134216e-03</internalNodes>
      <leafValues>
        1.6187801957130432e-01 -7.1242079138755798e-02</leafValues></_>
    <_>
      <internalNodes>
        0 -1 75523 5.6870862841606140e-02</internalNodes>
      <leafValues>
        -1.5706464648246765e-02 5.7497638463973999e-01</leafValues></_>
    <_>
      <internalNodes>
        0 -1 68603 1.3004576787352562e-02</internalNodes>
      <leafValues>
        -2.4828257039189339e-02 4.2236387729644775e-01</leafValues></_>
    <_>
      <internalNodes>
        0 -1 62409 5.2693183533847332e-03</internalNodes>
      <leafValues>
        1.5067528933286667e-02 -7.8665059804916382e-01</leafValues></_>
    <_>
      <internalNodes>
        0 -1 4392 2.0290152169764042e-03</internalNodes>
      <leafValues>
        -7.0137836039066315e-02 1.5284121036529541e-01</leafValues></_>
    <_>
      <internalNodes>
        0 -1 5692 -7.1864183992147446e-03</internalNodes>
      <leafValues>
        -5.1620370149612427e-01 2.5325352326035500e-02</leafValues></_>
    <_>
      <internalNodes>
        0 -1 12595 7.1460730396211147e-04</internalNodes>
      <leafValues>
        -7.9433746635913849e-02 1.3885922729969025e-01</leafValues></_>
    <_>
      <internalNodes>
        0 -1 3535 -1.1323986947536469e-01</internalNodes>
      <leafValues>
        -8.2782417535781860e-01 1.5393600799143314e-02</leafValues></_>
    <_>
      <internalNodes>
        0 -1 3928 -5.0675547681748867e-03</internalNodes>
      <leafValues>
        1.4506705105304718e-01 -8.9683733880519867e-02</leafValues></_>
    <_>
      <internalNodes>
        0 -1 45645 9.2214643955230713e-03</internalNodes>
      <leafValues>
        -3.8977503776550293e-02 2.6281750202178955e-01</leafValues></_>
    <_>
      <internalNodes>
        0 -1 7303 -1.3791188830509782e-03</internalNodes>
      <leafValues>
        2.2719046473503113e-01 -4.5527581125497818e-02</leafValues></_>
    <_>
      <internalNodes>
        0 -1 19629 -5.7585109025239944e-03</internalNodes>
      <leafValues>
        -4.2916443943977356e-01 2.7169063687324524e-02</leafValues></_>
    <_>
      <internalNodes>
        0 -1 47285 -4.7789122909307480e-03</internalNodes>
      <leafValues>
        1.5969613194465637e-01 -6.9773323833942413e-02</leafValues></_>
    <_>
      <internalNodes>
        0 -1 47597 -7.2190603241324425e-03</internalNodes>
      <leafValues>
        -6.9540333747863770e-01 1.9689738750457764e-02</leafValues></_>
    <_>
      <internalNodes>
        0 -1 49374 6.4790751785039902e-03</internalNodes>
      <leafValues>
        -3.8302257657051086e-02 3.3050501346588135e-01</leafValues></_>
    <_>
      <internalNodes>
        0 -1 73367 -4.5403338968753815e-02</internalNodes>
      <leafValues>
        5.8278596401214600e-01 -1.9288495182991028e-02</leafValues></_>
    <_>
      <internalNodes>
        0 -1 74555 1.6588535159826279e-02</internalNodes>
      <leafValues>
        -1.3250041753053665e-02 6.8647897243499756e-01</leafValues></_>
    <_>
      <internalNodes>
        0 -1 47593 3.2147073745727539e-01</internalNodes>
      <leafValues>
        -1.1159950867295265e-02 7.8267323970794678e-01</leafValues></_>
    <_>
      <internalNodes>
        0 -1 3379 7.4585448019206524e-03</internalNodes>
      <leafValues>
        -5.8127716183662415e-02 1.7251414060592651e-01</leafValues></_>
    <_>
      <internalNodes>
        0 -1 126 5.0167538225650787e-02</internalNodes>
      <leafValues>
        4.8995736986398697e-02 -2.4307626485824585e-01</leafValues></_>
    <_>
      <internalNodes>
        0 -1 27387 -9.5884464681148529e-02</internalNodes>
      <leafValues>
        7.2560024261474609e-01 -1.4362170360982418e-02</leafValues></_>
    <_>
      <internalNodes>
        0 -1 76024 -5.7145524770021439e-03</internalNodes>
      <leafValues>
        -8.4191220998764038e-01 1.4473244547843933e-02</leafValues></_>
    <_>
      <internalNodes>
        0 -1 30750 2.0834015682339668e-02</internalNodes>
      <leafValues>
        1.4432117342948914e-02 -6.2589985132217407e-01</leafValues></_>
    <_>
      <internalNodes>
        0 -1 35934 2.5556359440088272e-02</internalNodes>
      <leafValues>
        -2.5341870263218880e-02 4.3159294128417969e-01</leafValues></_>
    <_>
      <internalNodes>
        0 -1 78221 9.2777982354164124e-03</internalNodes>
      <leafValues>
        1.3740999624133110e-02 -9.1402345895767212e-01</leafValues></_>
    <_>
      <internalNodes>
        0 -1 52933 -3.2629016786813736e-03</internalNodes>
      <leafValues>
        3.1317964196205139e-01 -3.3886253833770752e-02</leafValues></_>
    <_>
      <internalNodes>
        0 -1 5726 8.1789717078208923e-03</internalNodes>
      <leafValues>
        2.5298552587628365e-02 -4.3432769179344177e-01</leafValues></_>
    <_>
      <internalNodes>
        0 -1 6124 -7.6026059687137604e-03</internalNodes>
      <leafValues>
        2.4219936132431030e-01 -4.3770749121904373e-02</leafValues></_>
    <_>
      <internalNodes>
        0 -1 4908 -1.2308251461945474e-04</internalNodes>
      <leafValues>
        -1.0717493295669556e-01 1.0065926611423492e-01</leafValues></_>
    <_>
      <internalNodes>
        0 -1 12474 3.0086636543273926e-02</internalNodes>
      <leafValues>
        -4.0301036089658737e-02 2.7002921700477600e-01</leafValues></_>
    <_>
      <internalNodes>
        0 -1 57521 1.2263609096407890e-02</internalNodes>
      <leafValues>
        3.0117472633719444e-02 -4.1575211286544800e-01</leafValues></_>
    <_>
      <internalNodes>
        0 -1 77687 -4.5310333371162415e-02</internalNodes>
      <leafValues>
        -9.2534470558166504e-01 1.0835652239620686e-02</leafValues></_>
    <_>
      <internalNodes>
        0 -1 52946 1.6650043427944183e-02</internalNodes>
      <leafValues>
        2.4981318041682243e-02 -3.6452603340148926e-01</leafValues></_>
    <_>
      <internalNodes>
        0 -1 33262 -2.3951523005962372e-02</internalNodes>
      <leafValues>
        -1.9084358215332031e-01 6.8119630217552185e-02</leafValues></_>
    <_>
      <internalNodes>
        0 -1 38485 -9.2278391122817993e-02</internalNodes>
      <leafValues>
        6.0887134075164795e-01 -2.2493639960885048e-02</leafValues></_>
    <_>
      <internalNodes>
        0 -1 11269 6.1921938322484493e-03</internalNodes>
      <leafValues>
        -4.1577249765396118e-02 2.5835627317428589e-01</leafValues></_>
    <_>
      <internalNodes>
        0 -1 12172 -3.6755097098648548e-03</internalNodes>
      <leafValues>
        -5.4074507951736450e-01 2.1224917843937874e-02</leafValues></_>
    <_>
      <internalNodes>
        0 -1 49767 2.4499227292835712e-03</internalNodes>
      <leafValues>
        -4.0091499686241150e-02 2.8013244271278381e-01</leafValues></_>
    <_>
      <internalNodes>
        0 -1 6080 -2.8315721079707146e-02</internalNodes>
      <leafValues>
        -5.9122288227081299e-01 2.0921679213643074e-02</leafValues></_>
    <_>
      <internalNodes>
        0 -1 7636 1.9369784742593765e-02</internalNodes>
      <leafValues>
        1.9377216696739197e-02 -5.4547399282455444e-01</leafValues></_>
    <_>
      <internalNodes>
        0 -1 33801 1.2734577059745789e-01</internalNodes>
      <leafValues>
        1.0664539411664009e-02 -8.9357912540435791e-01</leafValues></_>
    <_>
      <internalNodes>
        0 -1 6717 -6.8062124773859978e-04</internalNodes>
      <leafValues>
        1.4228102564811707e-01 -7.7075168490409851e-02</leafValues></_>
    <_>
      <internalNodes>
        0 -1 2838 -2.2191444411873817e-02</internalNodes>
      <leafValues>
        -3.4841611981391907e-01 3.0976498499512672e-02</leafValues></_>
    <_>
      <internalNodes>
        0 -1 15987 -3.5675549507141113e-01</internalNodes>
      <leafValues>
        4.7876259684562683e-01 -2.2791443392634392e-02</leafValues></_>
    <_>
      <internalNodes>
        0 -1 36913 5.8247879147529602e-02</internalNodes>
      <leafValues>
        -3.2421812415122986e-02 3.4845414757728577e-01</leafValues></_>
    <_>
      <internalNodes>
        0 -1 11251 -4.7604693099856377e-03</internalNodes>
      <leafValues>
        -6.4697754383087158e-01 1.7878474667668343e-02</leafValues></_>
    <_>
      <internalNodes>
        0 -1 11688 1.5535010024905205e-03</internalNodes>
      <leafValues>
        9.7851879894733429e-02 -1.1703048646450043e-01</leafValues></_>
    <_>
      <internalNodes>
        0 -1 27881 -5.5324915592791513e-05</internalNodes>
      <leafValues>
        1.1138463020324707e-01 -1.0228679329156876e-01</leafValues></_>
    <_>
      <internalNodes>
        0 -1 52114 3.0096378177404404e-02</internalNodes>
      <leafValues>
        -5.9090249240398407e-02 1.9747599959373474e-01</leafValues></_>
    <_>
      <internalNodes>
        0 -1 17591 -9.2976413667201996e-02</internalNodes>
      <leafValues>
        -5.0122582912445068e-01 2.5632698088884354e-02</leafValues></_>
    <_>
      <internalNodes>
        0 -1 41863 2.3312896490097046e-02</internalNodes>
      <leafValues>
        3.9156187325716019e-02 -2.7123925089836121e-01</leafValues></_>
    <_>
      <internalNodes>
        0 -1 15197 -1.8074059486389160e-01</internalNodes>
      <leafValues>
        -2.5157305598258972e-01 5.0845652818679810e-02</leafValues></_>
    <_>
      <internalNodes>
        0 -1 74849 9.7483396530151367e-03</internalNodes>
      <leafValues>
        3.3799856901168823e-02 -3.9119330048561096e-01</leafValues></_>
    <_>
      <internalNodes>
        0 -1 3883 -2.3394385352730751e-02</internalNodes>
      <leafValues>
        -7.8541535139083862e-01 1.3942057266831398e-02</leafValues></_>
    <_>
      <internalNodes>
        0 -1 26682 -8.6163908243179321e-02</internalNodes>
      <leafValues>
        -3.1095311045646667e-01 3.5697676241397858e-02</leafValues></_>
    <_>
      <internalNodes>
        0 -1 32503 -4.2898416519165039e-02</internalNodes>
      <leafValues>
        -3.5280346870422363e-01 3.1443979591131210e-02</leafValues></_>
    <_>
      <internalNodes>
        0 -1 60010 -2.0307314116507769e-03</internalNodes>
      <leafValues>
        1.7929509282112122e-01 -6.4622916281223297e-02</leafValues></_>
    <_>
      <internalNodes>
        0 -1 15540 4.4949281960725784e-02</internalNodes>
      <leafValues>
        -2.7990488335490227e-02 4.0723153948783875e-01</leafValues></_>
    <_>
      <internalNodes>
        0 -1 77612 3.1604208052158356e-02</internalNodes>
      <leafValues>
        1.6301706433296204e-02 -7.4743258953094482e-01</leafValues></_>
    <_>
      <internalNodes>
        0 -1 7175 -3.7043966352939606e-02</internalNodes>
      <leafValues>
        8.1170809268951416e-01 -1.6226444393396378e-02</leafValues></_>
    <_>
      <internalNodes>
        0 -1 26351 -1.3615337014198303e-01</internalNodes>
      <leafValues>
        8.5859036445617676e-01 -9.9549898877739906e-03</leafValues></_>
    <_>
      <internalNodes>
        0 -1 4844 -7.1985602378845215e-02</internalNodes>
      <leafValues>
        5.0614047050476074e-01 -2.0455259829759598e-02</leafValues></_>
    <_>
      <internalNodes>
        0 -1 803 -2.7699498459696770e-03</internalNodes>
      <leafValues>
        2.6205432415008545e-01 -4.2466089129447937e-02</leafValues></_>
    <_>
      <internalNodes>
        0 -1 54518 -4.0652351453900337e-03</internalNodes>
      <leafValues>
        -6.0759711265563965e-01 2.0030189305543900e-02</leafValues></_>
    <_>
      <internalNodes>
        0 -1 57175 2.1609894931316376e-02</internalNodes>
      <leafValues>
        2.2353064268827438e-02 -4.7215053439140320e-01</leafValues></_>
    <_>
      <internalNodes>
        0 -1 44815 -9.1212615370750427e-04</internalNodes>
      <leafValues>
        2.0097023248672485e-01 -5.8083441108465195e-02</leafValues></_></weakClassifiers></stage7>
</opencv_storage>
