<?xml version="1.0"?>
<opencv_storage>
<stage6>
  <maxWeakCount>100</maxWeakCount>
  <stageThreshold>-5.4540801048278809e-01</stageThreshold>
  <weakClassifiers>
    <_>
      <internalNodes>
        0 -1 68917 1.9609985873103142e-02</internalNodes>
      <leafValues>
        2.8368487954139709e-01 6.3925731182098389e-01</leafValues></_>
    <_>
      <internalNodes>
        0 -1 15423 3.0674457550048828e-01</internalNodes>
      <leafValues>
        -4.1242172010242939e-03 6.6052299737930298e-01</leafValues></_>
    <_>
      <internalNodes>
        0 -1 15423 2.9607993364334106e-01</internalNodes>
      <leafValues>
        5.9118717908859253e-03 -8.3938860893249512e-01</leafValues></_>
    <_>
      <internalNodes>
        0 -1 15423 3.0210715532302856e-01</internalNodes>
      <leafValues>
        -1.6440396429970860e-03 7.3326987028121948e-01</leafValues></_>
    <_>
      <internalNodes>
        0 -1 17814 -6.9840822834521532e-04</internalNodes>
      <leafValues>
        1.4159514009952545e-01 -1.0368490219116211e-01</leafValues></_>
    <_>
      <internalNodes>
        0 -1 689 -4.2498087882995605e-01</internalNodes>
      <leafValues>
        4.3595388531684875e-01 -5.9751924127340317e-02</leafValues></_>
    <_>
      <internalNodes>
        0 -1 77027 -3.6178238224238157e-03</internalNodes>
      <leafValues>
        2.0038953423500061e-01 -7.8155346214771271e-02</leafValues></_>
    <_>
      <internalNodes>
        0 -1 74468 5.7606481015682220e-02</internalNodes>
      <leafValues>
        -2.5709832087159157e-02 4.0588012337684631e-01</leafValues></_>
    <_>
      <internalNodes>
        0 -1 65210 1.6977651976048946e-03</internalNodes>
      <leafValues>
        -7.4042797088623047e-02 1.6450862586498260e-01</leafValues></_>
    <_>
      <internalNodes>
        0 -1 36710 1.8201227067038417e-03</internalNodes>
      <leafValues>
        -6.2465246766805649e-02 1.7251439392566681e-01</leafValues></_>
    <_>
      <internalNodes>
        0 -1 9622 -2.4085924029350281e-02</internalNodes>
      <leafValues>
        -4.9594002962112427e-01 2.5487625971436501e-02</leafValues></_>
    <_>
      <internalNodes>
        0 -1 2726 1.7540182452648878e-03</internalNodes>
      <leafValues>
        -6.6286936402320862e-02 2.0526617765426636e-01</leafValues></_>
    <_>
      <internalNodes>
        0 -1 10178 -5.0611281767487526e-03</internalNodes>
      <leafValues>
        -5.1993572711944580e-01 2.8789494186639786e-02</leafValues></_>
    <_>
      <internalNodes>
        0 -1 75166 1.3612429611384869e-03</internalNodes>
      <leafValues>
        -8.5906416177749634e-02 1.4872124791145325e-01</leafValues></_>
    <_>
      <internalNodes>
        0 -1 73519 -5.4864170961081982e-03</internalNodes>
      <leafValues>
        3.0876886844635010e-01 -5.1978755742311478e-02</leafValues></_>
    <_>
      <internalNodes>
        0 -1 69010 -7.4526108801364899e-03</internalNodes>
      <leafValues>
        3.4705504775047302e-01 -3.5287141799926758e-02</leafValues></_>
    <_>
      <internalNodes>
        0 -1 1415 -6.1108505725860596e-01</internalNodes>
      <leafValues>
        8.2671666145324707e-01 -1.3162484392523766e-02</leafValues></_>
    <_>
      <internalNodes>
        0 -1 47710 -7.9626172780990601e-02</internalNodes>
      <leafValues>
        7.1898037195205688e-01 -1.1734516359865665e-02</leafValues></_>
    <_>
      <internalNodes>
        0 -1 892 9.3942493200302124e-02</internalNodes>
      <leafValues>
        -2.6333793997764587e-02 4.1112029552459717e-01</leafValues></_>
    <_>
      <internalNodes>
        0 -1 12595 3.5936810309067369e-04</internalNodes>
      <leafValues>
        -9.0722925961017609e-02 1.3195264339447021e-01</leafValues></_>
    <_>
      <internalNodes>
        0 -1 16097 1.3051525689661503e-02</internalNodes>
      <leafValues>
        3.6015704274177551e-02 -3.4794774651527405e-01</leafValues></_>
    <_>
      <internalNodes>
        0 -1 71166 -4.2700157500803471e-03</internalNodes>
      <leafValues>
        -2.4574142694473267e-01 5.0862200558185577e-02</leafValues></_>
    <_>
      <internalNodes>
        0 -1 68796 -8.7688621133565903e-03</internalNodes>
      <leafValues>
        1.5967497229576111e-01 -7.0931077003479004e-02</leafValues></_>
    <_>
      <internalNodes>
        0 -1 67497 -2.8396124020218849e-02</internalNodes>
      <leafValues>
        5.6318789720535278e-01 -2.0288979634642601e-02</leafValues></_>
    <_>
      <internalNodes>
        0 -1 19006 1.5934301912784576e-01</internalNodes>
      <leafValues>
        2.0369347184896469e-02 -6.3205081224441528e-01</leafValues></_>
    <_>
      <internalNodes>
        0 -1 24309 1.9285002723336220e-02</internalNodes>
      <leafValues>
        2.4684775620698929e-02 -4.6717581152915955e-01</leafValues></_>
    <_>
      <internalNodes>
        0 -1 77877 -1.9304779125377536e-03</internalNodes>
      <leafValues>
        1.5749843418598175e-01 -7.7165037393569946e-02</leafValues></_>
    <_>
      <internalNodes>
        0 -1 77890 -1.3216816587373614e-03</internalNodes>
      <leafValues>
        2.1035940945148468e-01 -6.0092527419328690e-02</leafValues></_>
    <_>
      <internalNodes>
        0 -1 27412 -8.9071076363325119e-03</internalNodes>
      <leafValues>
        -2.1205747127532959e-01 5.7027183473110199e-02</leafValues></_>
    <_>
      <internalNodes>
        0 -1 73948 5.4543834179639816e-02</internalNodes>
      <leafValues>
        -4.7806654125452042e-02 2.3935094475746155e-01</leafValues></_>
    <_>
      <internalNodes>
        0 -1 76927 3.2268907874822617e-02</internalNodes>
      <leafValues>
        4.8983722925186157e-02 -2.3978291451931000e-01</leafValues></_>
    <_>
      <internalNodes>
        0 -1 64748 -1.2489804998040199e-02</internalNodes>
      <leafValues>
        -2.1979314088821411e-01 5.8162603527307510e-02</leafValues></_>
    <_>
      <internalNodes>
        0 -1 16473 -2.0774796605110168e-01</internalNodes>
      <leafValues>
        3.8397604227066040e-01 -3.1296502798795700e-02</leafValues></_>
    <_>
      <internalNodes>
        0 -1 19339 -3.5988129675388336e-02</internalNodes>
      <leafValues>
        9.3340241909027100e-01 -9.6311541274189949e-03</leafValues></_>
    <_>
      <internalNodes>
        0 -1 33081 -8.0625442788004875e-03</internalNodes>
      <leafValues>
        -2.1495656669139862e-01 5.5451858788728714e-02</leafValues></_>
    <_>
      <internalNodes>
        0 -1 68130 -1.3071645516902208e-03</internalNodes>
      <leafValues>
        1.6322162747383118e-01 -6.7957766354084015e-02</leafValues></_>
    <_>
      <internalNodes>
        0 -1 58599 6.4517473801970482e-03</internalNodes>
      <leafValues>
        1.5260889194905758e-02 -7.2710782289505005e-01</leafValues></_>
    <_>
      <internalNodes>
        0 -1 78312 -6.4543753862380981e-02</internalNodes>
      <leafValues>
        -5.8451312780380249e-01 1.7043037340044975e-02</leafValues></_>
    <_>
      <internalNodes>
        0 -1 15448 5.1909051835536957e-03</internalNodes>
      <leafValues>
        2.4575546383857727e-02 -4.0622276067733765e-01</leafValues></_>
    <_>
      <internalNodes>
        0 -1 65118 2.9030302539467812e-04</internalNodes>
      <leafValues>
        -9.2770449817180634e-02 1.2113751471042633e-01</leafValues></_>
    <_>
      <internalNodes>
        0 -1 7389 -2.4315114133059978e-03</internalNodes>
      <leafValues>
        1.4205186069011688e-01 -8.0795355141162872e-02</leafValues></_>
    <_>
      <internalNodes>
        0 -1 36715 2.1488443017005920e-02</internalNodes>
      <leafValues>
        -2.2586220875382423e-02 4.7436541318893433e-01</leafValues></_>
    <_>
      <internalNodes>
        0 -1 45032 9.2719052918255329e-04</internalNodes>
      <leafValues>
        8.4675326943397522e-02 -1.3823089003562927e-01</leafValues></_>
    <_>
      <internalNodes>
        0 -1 5960 -3.5277068614959717e-02</internalNodes>
      <leafValues>
        -8.1105828285217285e-01 1.4707083813846111e-02</leafValues></_>
    <_>
      <internalNodes>
        0 -1 61440 -2.3985051666386425e-04</internalNodes>
      <leafValues>
        -1.3671159744262695e-01 8.3964094519615173e-02</leafValues></_>
    <_>
      <internalNodes>
        0 -1 7710 -3.0576765537261963e-02</internalNodes>
      <leafValues>
        3.5643711686134338e-01 -3.1189650297164917e-02</leafValues></_>
    <_>
      <internalNodes>
        0 -1 75281 -1.2542152404785156e-01</internalNodes>
      <leafValues>
        -7.4082356691360474e-01 1.6343023627996445e-02</leafValues></_>
    <_>
      <internalNodes>
        0 -1 33435 -8.8107801275327802e-04</internalNodes>
      <leafValues>
        1.3191719353199005e-01 -8.0202132463455200e-02</leafValues></_>
    <_>
      <internalNodes>
        0 -1 76027 -1.8987679504789412e-04</internalNodes>
      <leafValues>
        -1.1800878494977951e-01 9.3537412583827972e-02</leafValues></_>
    <_>
      <internalNodes>
        0 -1 73494 -3.2973382622003555e-03</internalNodes>
      <leafValues>
        1.3207849860191345e-01 -8.8707178831100464e-02</leafValues></_>
    <_>
      <internalNodes>
        0 -1 65982 1.3632467016577721e-03</internalNodes>
      <leafValues>
        -1.0272596031427383e-01 1.1589258164167404e-01</leafValues></_>
    <_>
      <internalNodes>
        0 -1 66750 -3.6130174994468689e-03</internalNodes>
      <leafValues>
        -1.7498983442783356e-01 6.1514433473348618e-02</leafValues></_>
    <_>
      <internalNodes>
        0 -1 71395 -2.8193627949804068e-03</internalNodes>
      <leafValues>
        1.1766424030065536e-01 -1.0918897390365601e-01</leafValues></_>
    <_>
      <internalNodes>
        0 -1 24018 3.1895902939140797e-03</internalNodes>
      <leafValues>
        -6.5081894397735596e-02 1.7166003584861755e-01</leafValues></_>
    <_>
      <internalNodes>
        0 -1 10832 -1.6420492902398109e-02</internalNodes>
      <leafValues>
        -5.6576716899871826e-01 2.2272842004895210e-02</leafValues></_>
    <_>
      <internalNodes>
        0 -1 46871 1.2449997011572123e-03</internalNodes>
      <leafValues>
        4.9242820590734482e-02 -2.1439406275749207e-01</leafValues></_>
    <_>
      <internalNodes>
        0 -1 72681 -7.3027787730097771e-03</internalNodes>
      <leafValues>
        -5.4509031772613525e-01 2.1896636113524437e-02</leafValues></_>
    <_>
      <internalNodes>
        0 -1 49863 -2.9446352273225784e-03</internalNodes>
      <leafValues>
        -1.7939703166484833e-01 6.3022769987583160e-02</leafValues></_>
    <_>
      <internalNodes>
        0 -1 73502 7.6616054866462946e-04</internalNodes>
      <leafValues>
        -6.3222356140613556e-02 1.8709743022918701e-01</leafValues></_>
    <_>
      <internalNodes>
        0 -1 9028 3.0050135683268309e-03</internalNodes>
      <leafValues>
        -5.1186162978410721e-02 2.3346096277236938e-01</leafValues></_>
    <_>
      <internalNodes>
        0 -1 46039 -4.4945858418941498e-02</internalNodes>
      <leafValues>
        -7.9591578245162964e-01 1.4222180470824242e-02</leafValues></_>
    <_>
      <internalNodes>
        0 -1 11742 -9.4782263040542603e-03</internalNodes>
      <leafValues>
        -4.6466016769409180e-01 2.1685440093278885e-02</leafValues></_>
    <_>
      <internalNodes>
        0 -1 71201 6.6083110868930817e-03</internalNodes>
      <leafValues>
        1.1018968187272549e-02 -9.3727976083755493e-01</leafValues></_>
    <_>
      <internalNodes>
        0 -1 70856 5.1999032497406006e-02</internalNodes>
      <leafValues>
        1.3758425600826740e-02 -7.5302183628082275e-01</leafValues></_>
    <_>
      <internalNodes>
        0 -1 43642 -2.5859046727418900e-02</internalNodes>
      <leafValues>
        -1.5615268051624298e-01 6.9141618907451630e-02</leafValues></_>
    <_>
      <internalNodes>
        0 -1 62249 -4.1123111732304096e-03</internalNodes>
      <leafValues>
        -5.4137325286865234e-01 2.1755523979663849e-02</leafValues></_>
    <_>
      <internalNodes>
        0 -1 68687 -1.4719723723828793e-02</internalNodes>
      <leafValues>
        2.7666848897933960e-01 -4.3574925512075424e-02</leafValues></_>
    <_>
      <internalNodes>
        0 -1 46123 -2.1080637350678444e-02</internalNodes>
      <leafValues>
        7.1886336803436279e-01 -1.2687845155596733e-02</leafValues></_>
    <_>
      <internalNodes>
        0 -1 43876 -1.2137668207287788e-02</internalNodes>
      <leafValues>
        -4.6474859118461609e-01 2.8075462207198143e-02</leafValues></_>
    <_>
      <internalNodes>
        0 -1 14613 1.5182310715317726e-02</internalNodes>
      <leafValues>
        -2.2275660187005997e-02 5.9117817878723145e-01</leafValues></_>
    <_>
      <internalNodes>
        0 -1 44500 -1.6739219427108765e-02</internalNodes>
      <leafValues>
        6.1713701486587524e-01 -1.4087376184761524e-02</leafValues></_>
    <_>
      <internalNodes>
        0 -1 21099 3.3378750085830688e-02</internalNodes>
      <leafValues>
        2.9143810272216797e-02 -4.2302525043487549e-01</leafValues></_>
    <_>
      <internalNodes>
        0 -1 78163 -6.7589115351438522e-03</internalNodes>
      <leafValues>
        1.8772521615028381e-01 -6.1994716525077820e-02</leafValues></_>
    <_>
      <internalNodes>
        0 -1 76490 -9.9493172019720078e-03</internalNodes>
      <leafValues>
        -5.3010505437850952e-01 2.5895960628986359e-02</leafValues></_>
    <_>
      <internalNodes>
        0 -1 49010 1.0996835771948099e-03</internalNodes>
      <leafValues>
        -7.1512237191200256e-02 1.5886324644088745e-01</leafValues></_>
    <_>
      <internalNodes>
        0 -1 48981 -5.3218199172988534e-04</internalNodes>
      <leafValues>
        1.5429913997650146e-01 -8.1464782357215881e-02</leafValues></_>
    <_>
      <internalNodes>
        0 -1 70162 2.1552231162786484e-02</internalNodes>
      <leafValues>
        -2.0669022575020790e-02 4.8546677827835083e-01</leafValues></_>
    <_>
      <internalNodes>
        0 -1 27272 -6.3488874584436417e-03</internalNodes>
      <leafValues>
        -7.5036001205444336e-01 1.6810286790132523e-02</leafValues></_>
    <_>
      <internalNodes>
        0 -1 75104 -8.3768498152494431e-03</internalNodes>
      <leafValues>
        -7.2332972288131714e-01 1.3078375719487667e-02</leafValues></_>
    <_>
      <internalNodes>
        0 -1 29447 2.7669318951666355e-03</internalNodes>
      <leafValues>
        8.8828451931476593e-02 -1.1813624203205109e-01</leafValues></_>
    <_>
      <internalNodes>
        0 -1 16141 -1.0487219551578164e-03</internalNodes>
      <leafValues>
        1.4925387501716614e-01 -8.1087857484817505e-02</leafValues></_>
    <_>
      <internalNodes>
        0 -1 16151 2.6770415715873241e-03</internalNodes>
      <leafValues>
        -9.3546546995639801e-02 1.3148236274719238e-01</leafValues></_>
    <_>
      <internalNodes>
        0 -1 65876 9.3925809487700462e-03</internalNodes>
      <leafValues>
        -4.2663700878620148e-02 2.6934456825256348e-01</leafValues></_>
    <_>
      <internalNodes>
        0 -1 2282 3.0231626704335213e-02</internalNodes>
      <leafValues>
        3.5241059958934784e-02 -3.2953563332557678e-01</leafValues></_>
    <_>
      <internalNodes>
        0 -1 77726 -2.1118051372468472e-03</internalNodes>
      <leafValues>
        -2.7428281307220459e-01 3.8658920675516129e-02</leafValues></_>
    <_>
      <internalNodes>
        0 -1 68543 6.7953765392303467e-04</internalNodes>
      <leafValues>
        -9.8173655569553375e-02 1.2051435559988022e-01</leafValues></_>
    <_>
      <internalNodes>
        0 -1 76423 -4.1287355124950409e-03</internalNodes>
      <leafValues>
        1.9363915920257568e-01 -5.8774415403604507e-02</leafValues></_>
    <_>
      <internalNodes>
        0 -1 13924 -2.2696761414408684e-02</internalNodes>
      <leafValues>
        5.9448617696762085e-01 -1.8996328115463257e-02</leafValues></_>
    <_>
      <internalNodes>
        0 -1 44333 1.3429152779281139e-02</internalNodes>
      <leafValues>
        6.4493857324123383e-02 -2.3425585031509399e-01</leafValues></_>
    <_>
      <internalNodes>
        0 -1 49188 -5.8570979163050652e-03</internalNodes>
      <leafValues>
        -5.1651006937026978e-01 2.2265441715717316e-02</leafValues></_>
    <_>
      <internalNodes>
        0 -1 49016 1.0571625083684921e-02</internalNodes>
      <leafValues>
        -5.1001157611608505e-02 2.2705541551113129e-01</leafValues></_>
    <_>
      <internalNodes>
        0 -1 50038 1.7597775906324387e-02</internalNodes>
      <leafValues>
        -2.1053545176982880e-02 5.0344330072402954e-01</leafValues></_>
    <_>
      <internalNodes>
        0 -1 28318 -8.1137903034687042e-03</internalNodes>
      <leafValues>
        -1.6281944513320923e-01 7.7570267021656036e-02</leafValues></_>
    <_>
      <internalNodes>
        0 -1 67957 1.1096571106463671e-03</internalNodes>
      <leafValues>
        5.7305518537759781e-02 -2.1008417010307312e-01</leafValues></_>
    <_>
      <internalNodes>
        0 -1 77892 4.3880157172679901e-03</internalNodes>
      <leafValues>
        -2.2294884547591209e-02 5.0712156295776367e-01</leafValues></_>
    <_>
      <internalNodes>
        0 -1 72590 1.4450857415795326e-02</internalNodes>
      <leafValues>
        -4.9358669668436050e-02 2.3395696282386780e-01</leafValues></_>
    <_>
      <internalNodes>
        0 -1 75337 -1.7073303461074829e-02</internalNodes>
      <leafValues>
        2.1810203790664673e-01 -5.3830541670322418e-02</leafValues></_>
    <_>
      <internalNodes>
        0 -1 10710 -1.3263843953609467e-02</internalNodes>
      <leafValues>
        -1.4231055974960327e-01 8.0614611506462097e-02</leafValues></_>
    <_>
      <internalNodes>
        0 -1 52229 -8.0201243981719017e-03</internalNodes>
      <leafValues>
        1.6825816035270691e-01 -7.6735168695449829e-02</leafValues></_>
    <_>
      <internalNodes>
        0 -1 66680 3.4165900200605392e-02</internalNodes>
      <leafValues>
        2.8562912717461586e-02 -5.0293141603469849e-01</leafValues></_></weakClassifiers></stage6>
</opencv_storage>
