<?xml version="1.0"?>
<opencv_storage>
<stage5>
  <maxWeakCount>68</maxWeakCount>
  <stageThreshold>-6.1156159639358521e-01</stageThreshold>
  <weakClassifiers>
    <_>
      <internalNodes>
        0 -1 15382 1.2571176514029503e-02</internalNodes>
      <leafValues>
        2.0783847570419312e-01 5.4133856296539307e-01</leafValues></_>
    <_>
      <internalNodes>
        0 -1 69019 -1.7079077661037445e-02</internalNodes>
      <leafValues>
        6.1186218261718750e-01 -2.6314061135053635e-02</leafValues></_>
    <_>
      <internalNodes>
        0 -1 66204 2.0491173490881920e-02</internalNodes>
      <leafValues>
        -1.4110669493675232e-01 2.6043242216110229e-01</leafValues></_>
    <_>
      <internalNodes>
        0 -1 76963 1.7467025667428970e-02</internalNodes>
      <leafValues>
        -6.7333772778511047e-02 3.1777191162109375e-01</leafValues></_>
    <_>
      <internalNodes>
        0 -1 76904 -3.0262717045843601e-03</internalNodes>
      <leafValues>
        1.9525861740112305e-01 -1.5861324965953827e-01</leafValues></_>
    <_>
      <internalNodes>
        0 -1 77881 4.5150965452194214e-02</internalNodes>
      <leafValues>
        -5.9738267213106155e-02 5.0213122367858887e-01</leafValues></_>
    <_>
      <internalNodes>
        0 -1 32715 -5.1146131008863449e-03</internalNodes>
      <leafValues>
        1.7814879119396210e-01 -1.3325892388820648e-01</leafValues></_>
    <_>
      <internalNodes>
        0 -1 27035 -9.6689350903034210e-04</internalNodes>
      <leafValues>
        2.2550962865352631e-01 -1.0431130230426788e-01</leafValues></_>
    <_>
      <internalNodes>
        0 -1 20621 -6.7886692704632878e-04</internalNodes>
      <leafValues>
        1.9557806849479675e-01 -1.3091276586055756e-01</leafValues></_>
    <_>
      <internalNodes>
        0 -1 54758 9.0825334191322327e-03</internalNodes>
      <leafValues>
        -6.8456031382083893e-02 3.9449176192283630e-01</leafValues></_>
    <_>
      <internalNodes>
        0 -1 77141 -9.0196891687810421e-04</internalNodes>
      <leafValues>
        1.6444951295852661e-01 -1.4823244512081146e-01</leafValues></_>
    <_>
      <internalNodes>
        0 -1 61788 3.7798366975039244e-04</internalNodes>
      <leafValues>
        -1.1786571890115738e-01 1.8474712967872620e-01</leafValues></_>
    <_>
      <internalNodes>
        0 -1 61069 5.2844509482383728e-03</internalNodes>
      <leafValues>
        -1.0398274660110474e-01 2.2415985167026520e-01</leafValues></_>
    <_>
      <internalNodes>
        0 -1 53096 -1.7751011997461319e-02</internalNodes>
      <leafValues>
        2.9250836372375488e-01 -7.8285433351993561e-02</leafValues></_>
    <_>
      <internalNodes>
        0 -1 736 -5.6128209829330444e-01</internalNodes>
      <leafValues>
        8.1927633285522461e-01 -2.2597296163439751e-02</leafValues></_>
    <_>
      <internalNodes>
        0 -1 13392 1.1421800591051579e-02</internalNodes>
      <leafValues>
        3.3253226429224014e-02 -7.1284437179565430e-01</leafValues></_>
    <_>
      <internalNodes>
        0 -1 77494 3.6774813197553158e-03</internalNodes>
      <leafValues>
        -1.1584834754467010e-01 1.6473051905632019e-01</leafValues></_>
    <_>
      <internalNodes>
        0 -1 61932 6.2215561047196388e-04</internalNodes>
      <leafValues>
        -1.0673988610506058e-01 1.8411545455455780e-01</leafValues></_>
    <_>
      <internalNodes>
        0 -1 61935 -4.9334438517689705e-03</internalNodes>
      <leafValues>
        -8.9038932323455811e-01 2.4201851338148117e-02</leafValues></_>
    <_>
      <internalNodes>
        0 -1 37452 -1.0996307246387005e-03</internalNodes>
      <leafValues>
        1.9973208010196686e-01 -1.0693325847387314e-01</leafValues></_>
    <_>
      <internalNodes>
        0 -1 31712 6.2340358272194862e-03</internalNodes>
      <leafValues>
        -7.6264038681983948e-02 3.1103649735450745e-01</leafValues></_>
    <_>
      <internalNodes>
        0 -1 65669 5.0686635076999664e-03</internalNodes>
      <leafValues>
        3.0870296061038971e-02 -8.0882900953292847e-01</leafValues></_>
    <_>
      <internalNodes>
        0 -1 54691 4.5591192319989204e-03</internalNodes>
      <leafValues>
        5.8576457202434540e-02 -3.3130800724029541e-01</leafValues></_>
    <_>
      <internalNodes>
        0 -1 77095 -5.5626044049859047e-03</internalNodes>
      <leafValues>
        -5.9013241529464722e-01 3.0302945524454117e-02</leafValues></_>
    <_>
      <internalNodes>
        0 -1 58491 8.6936820298433304e-03</internalNodes>
      <leafValues>
        -1.1565723270177841e-01 1.7016646265983582e-01</leafValues></_>
    <_>
      <internalNodes>
        0 -1 58396 -3.9490829221904278e-03</internalNodes>
      <leafValues>
        1.9337317347526550e-01 -1.0873784124851227e-01</leafValues></_>
    <_>
      <internalNodes>
        0 -1 20836 5.5796422064304352e-02</internalNodes>
      <leafValues>
        5.0315950065851212e-02 -5.2625417709350586e-01</leafValues></_>
    <_>
      <internalNodes>
        0 -1 27294 1.7719446914270520e-03</internalNodes>
      <leafValues>
        -1.1226333677768707e-01 1.9208867847919464e-01</leafValues></_>
    <_>
      <internalNodes>
        0 -1 2193 3.7432998418807983e-02</internalNodes>
      <leafValues>
        -5.0255473703145981e-02 4.1359779238700867e-01</leafValues></_>
    <_>
      <internalNodes>
        0 -1 43389 3.8308329880237579e-02</internalNodes>
      <leafValues>
        -3.0623352155089378e-02 6.0037767887115479e-01</leafValues></_>
    <_>
      <internalNodes>
        0 -1 33807 -8.4505521226674318e-04</internalNodes>
      <leafValues>
        1.9738927483558655e-01 -9.3754366040229797e-02</leafValues></_>
    <_>
      <internalNodes>
        0 -1 44664 -6.5120486542582512e-03</internalNodes>
      <leafValues>
        -3.5902813076972961e-01 5.4005939513444901e-02</leafValues></_>
    <_>
      <internalNodes>
        0 -1 55727 1.3170292368158698e-03</internalNodes>
      <leafValues>
        -8.3027601242065430e-02 2.3364956676959991e-01</leafValues></_>
    <_>
      <internalNodes>
        0 -1 47477 1.7230324447154999e-02</internalNodes>
      <leafValues>
        6.5699540078639984e-02 -3.1323975324630737e-01</leafValues></_>
    <_>
      <internalNodes>
        0 -1 76920 4.5501913875341415e-02</internalNodes>
      <leafValues>
        -2.9514202848076820e-02 6.9317948818206787e-01</leafValues></_>
    <_>
      <internalNodes>
        0 -1 69604 1.3657927047461271e-03</internalNodes>
      <leafValues>
        -1.1180343478918076e-01 1.8050286173820496e-01</leafValues></_>
    <_>
      <internalNodes>
        0 -1 68980 2.2534579038619995e-02</internalNodes>
      <leafValues>
        4.1094388812780380e-02 -5.2455997467041016e-01</leafValues></_>
    <_>
      <internalNodes>
        0 -1 77740 2.7169363573193550e-02</internalNodes>
      <leafValues>
        -3.4287013113498688e-02 6.4335364103317261e-01</leafValues></_>
    <_>
      <internalNodes>
        0 -1 71558 -3.0301166698336601e-02</internalNodes>
      <leafValues>
        4.5319887995719910e-01 -3.8912717252969742e-02</leafValues></_>
    <_>
      <internalNodes>
        0 -1 66035 1.3158556539565325e-03</internalNodes>
      <leafValues>
        -1.1315943300724030e-01 1.9323863089084625e-01</leafValues></_>
    <_>
      <internalNodes>
        0 -1 6089 2.5167325511574745e-03</internalNodes>
      <leafValues>
        -8.6298279464244843e-02 2.3172971606254578e-01</leafValues></_>
    <_>
      <internalNodes>
        0 -1 77988 -5.0113620236515999e-03</internalNodes>
      <leafValues>
        -6.8248605728149414e-01 3.1644277274608612e-02</leafValues></_>
    <_>
      <internalNodes>
        0 -1 77988 2.9728352092206478e-03</internalNodes>
      <leafValues>
        4.8459380865097046e-02 -3.8894081115722656e-01</leafValues></_>
    <_>
      <internalNodes>
        0 -1 44538 -2.0555846393108368e-02</internalNodes>
      <leafValues>
        -5.4698538780212402e-01 3.3605292439460754e-02</leafValues></_>
    <_>
      <internalNodes>
        0 -1 43656 -7.4770756065845490e-02</internalNodes>
      <leafValues>
        6.5736609697341919e-01 -3.6181900650262833e-02</leafValues></_>
    <_>
      <internalNodes>
        0 -1 11759 5.8331801556050777e-03</internalNodes>
      <leafValues>
        -1.0462795197963715e-01 2.0918291807174683e-01</leafValues></_>
    <_>
      <internalNodes>
        0 -1 27034 -4.1696988046169281e-03</internalNodes>
      <leafValues>
        -5.1390308141708374e-01 4.4731032103300095e-02</leafValues></_>
    <_>
      <internalNodes>
        0 -1 27273 -1.2818265240639448e-03</internalNodes>
      <leafValues>
        2.5543743371963501e-01 -8.6832202970981598e-02</leafValues></_>
    <_>
      <internalNodes>
        0 -1 66158 -1.7609193921089172e-02</internalNodes>
      <leafValues>
        3.6802592873573303e-01 -5.5856414139270782e-02</leafValues></_>
    <_>
      <internalNodes>
        0 -1 10285 8.6002293974161148e-03</internalNodes>
      <leafValues>
        4.3205738067626953e-02 -5.1643961668014526e-01</leafValues></_>
    <_>
      <internalNodes>
        0 -1 26471 1.2308568693697453e-03</internalNodes>
      <leafValues>
        -1.2351436167955399e-01 1.7878270149230957e-01</leafValues></_>
    <_>
      <internalNodes>
        0 -1 69017 3.4974671900272369e-02</internalNodes>
      <leafValues>
        -2.9841030016541481e-02 6.9600468873977661e-01</leafValues></_>
    <_>
      <internalNodes>
        0 -1 71582 2.1832518279552460e-02</internalNodes>
      <leafValues>
        -1.4558011293411255e-01 1.6808751225471497e-01</leafValues></_>
    <_>
      <internalNodes>
        0 -1 56598 3.7322457879781723e-02</internalNodes>
      <leafValues>
        -9.7704067826271057e-02 2.5803714990615845e-01</leafValues></_>
    <_>
      <internalNodes>
        0 -1 77698 2.9043015092611313e-02</internalNodes>
      <leafValues>
        3.4930478781461716e-02 -6.6769301891326904e-01</leafValues></_>
    <_>
      <internalNodes>
        0 -1 75717 -2.4444530718028545e-03</internalNodes>
      <leafValues>
        1.4814202487468719e-01 -1.4498929679393768e-01</leafValues></_>
    <_>
      <internalNodes>
        0 -1 78255 3.7059127353131771e-03</internalNodes>
      <leafValues>
        -9.9707141518592834e-02 2.3470610380172729e-01</leafValues></_>
    <_>
      <internalNodes>
        0 -1 71091 -2.6221245061606169e-03</internalNodes>
      <leafValues>
        1.7372135818004608e-01 -1.2363757938146591e-01</leafValues></_>
    <_>
      <internalNodes>
        0 -1 766 -2.4952534586191177e-02</internalNodes>
      <leafValues>
        4.7928458452224731e-01 -4.6166330575942993e-02</leafValues></_>
    <_>
      <internalNodes>
        0 -1 12174 3.3328610006719828e-03</internalNodes>
      <leafValues>
        5.4284997284412384e-02 -3.9767426252365112e-01</leafValues></_>
    <_>
      <internalNodes>
        0 -1 2131 -4.6393047086894512e-03</internalNodes>
      <leafValues>
        2.4653087556362152e-01 -9.2291139066219330e-02</leafValues></_>
    <_>
      <internalNodes>
        0 -1 3280 2.8753590583801270e-01</internalNodes>
      <leafValues>
        -4.5062333345413208e-02 4.6210944652557373e-01</leafValues></_>
    <_>
      <internalNodes>
        0 -1 26772 -2.7063656598329544e-03</internalNodes>
      <leafValues>
        2.5970226526260376e-01 -8.0246105790138245e-02</leafValues></_>
    <_>
      <internalNodes>
        0 -1 68340 6.2122046947479248e-03</internalNodes>
      <leafValues>
        3.6962296813726425e-02 -6.5341252088546753e-01</leafValues></_>
    <_>
      <internalNodes>
        0 -1 61505 2.8530538082122803e-02</internalNodes>
      <leafValues>
        -8.2824483513832092e-02 2.5207734107971191e-01</leafValues></_>
    <_>
      <internalNodes>
        0 -1 57980 1.1474829167127609e-02</internalNodes>
      <leafValues>
        4.8381537199020386e-02 -4.7057124972343445e-01</leafValues></_>
    <_>
      <internalNodes>
        0 -1 77895 1.5857700258493423e-02</internalNodes>
      <leafValues>
        -4.5924391597509384e-02 5.0519424676895142e-01</leafValues></_>
    <_>
      <internalNodes>
        0 -1 54979 3.0017450451850891e-02</internalNodes>
      <leafValues>
        -9.1117903590202332e-02 2.3574639856815338e-01</leafValues></_></weakClassifiers></stage5>
</opencv_storage>
