<?xml version="1.0"?>
<opencv_storage>
<stage5>
  <maxWeakCount>52</maxWeakCount>
  <stageThreshold>-7.4705690145492554e-01</stageThreshold>
  <weakClassifiers>
    <_>
      <internalNodes>
        0 -1 66208 3.8617245852947235e-02</internalNodes>
      <leafValues>
        1.7324560880661011e-01 6.6666668653488159e-01</leafValues></_>
    <_>
      <internalNodes>
        0 -1 63452 2.6189465075731277e-02</internalNodes>
      <leafValues>
        -1.3766956329345703e-01 3.1415706872940063e-01</leafValues></_>
    <_>
      <internalNodes>
        0 -1 59152 1.0251453146338463e-02</internalNodes>
      <leafValues>
        -1.1851696670055389e-01 4.2311042547225952e-01</leafValues></_>
    <_>
      <internalNodes>
        0 -1 14514 -6.8139890208840370e-03</internalNodes>
      <leafValues>
        2.0590835809707642e-01 -1.8692930042743683e-01</leafValues></_>
    <_>
      <internalNodes>
        0 -1 29556 3.8654647767543793e-02</internalNodes>
      <leafValues>
        -7.5684592127799988e-02 4.2253249883651733e-01</leafValues></_>
    <_>
      <internalNodes>
        0 -1 10734 -1.3202532427385449e-03</internalNodes>
      <leafValues>
        2.9580298066139221e-01 -1.1850047111511230e-01</leafValues></_>
    <_>
      <internalNodes>
        0 -1 3884 -5.4530421039089561e-04</internalNodes>
      <leafValues>
        1.5936072170734406e-01 -2.1367539465427399e-01</leafValues></_>
    <_>
      <internalNodes>
        0 -1 66302 5.1785823889076710e-03</internalNodes>
      <leafValues>
        4.6579930931329727e-02 -5.9571033716201782e-01</leafValues></_>
    <_>
      <internalNodes>
        0 -1 35765 -1.6670862678438425e-03</internalNodes>
      <leafValues>
        2.3348411917686462e-01 -1.2540131807327271e-01</leafValues></_>
    <_>
      <internalNodes>
        0 -1 49771 -8.3677675575017929e-03</internalNodes>
      <leafValues>
        -5.8916366100311279e-01 5.0877809524536133e-02</leafValues></_>
    <_>
      <internalNodes>
        0 -1 21393 2.1397840231657028e-02</internalNodes>
      <leafValues>
        -9.4778269529342651e-02 3.1489169597625732e-01</leafValues></_>
    <_>
      <internalNodes>
        0 -1 64008 1.3490699231624603e-02</internalNodes>
      <leafValues>
        4.3000504374504089e-02 -6.4196628332138062e-01</leafValues></_>
    <_>
      <internalNodes>
        0 -1 74043 2.8044909238815308e-02</internalNodes>
      <leafValues>
        -5.4670497775077820e-02 5.5315184593200684e-01</leafValues></_>
    <_>
      <internalNodes>
        0 -1 63574 -1.0669691488146782e-02</internalNodes>
      <leafValues>
        1.8820370733737946e-01 -1.9894662499427795e-01</leafValues></_>
    <_>
      <internalNodes>
        0 -1 76027 3.8011264987289906e-03</internalNodes>
      <leafValues>
        4.8850495368242264e-02 -6.3172775506973267e-01</leafValues></_>
    <_>
      <internalNodes>
        0 -1 77223 -3.3838392700999975e-03</internalNodes>
      <leafValues>
        2.7104055881500244e-01 -1.2922340631484985e-01</leafValues></_>
    <_>
      <internalNodes>
        0 -1 78038 -7.6329456642270088e-03</internalNodes>
      <leafValues>
        2.8392961621284485e-01 -1.0900876671075821e-01</leafValues></_>
    <_>
      <internalNodes>
        0 -1 59437 -1.2801736593246460e-02</internalNodes>
      <leafValues>
        3.6221992969512939e-01 -7.8176535665988922e-02</leafValues></_>
    <_>
      <internalNodes>
        0 -1 66423 9.7972610965371132e-03</internalNodes>
      <leafValues>
        -6.6686451435089111e-02 4.0594017505645752e-01</leafValues></_>
    <_>
      <internalNodes>
        0 -1 78075 -6.0191117227077484e-03</internalNodes>
      <leafValues>
        3.6905536055564880e-01 -8.2761548459529877e-02</leafValues></_>
    <_>
      <internalNodes>
        0 -1 12094 2.7543041855096817e-02</internalNodes>
      <leafValues>
        -9.9367603659629822e-02 2.9519098997116089e-01</leafValues></_>
    <_>
      <internalNodes>
        0 -1 57787 5.1241619512438774e-03</internalNodes>
      <leafValues>
        3.7378545850515366e-02 -8.2777094841003418e-01</leafValues></_>
    <_>
      <internalNodes>
        0 -1 56362 7.5577269308269024e-04</internalNodes>
      <leafValues>
        -1.6009856760501862e-01 1.5655715763568878e-01</leafValues></_>
    <_>
      <internalNodes>
        0 -1 52334 3.7618782371282578e-03</internalNodes>
      <leafValues>
        4.1190240532159805e-02 -6.3268178701400757e-01</leafValues></_>
    <_>
      <internalNodes>
        0 -1 78007 6.9937906228005886e-03</internalNodes>
      <leafValues>
        -1.0362093895673752e-01 2.4941323697566986e-01</leafValues></_>
    <_>
      <internalNodes>
        0 -1 11793 1.0800199583172798e-02</internalNodes>
      <leafValues>
        -1.1204270273447037e-01 2.1390636265277863e-01</leafValues></_>
    <_>
      <internalNodes>
        0 -1 44821 -8.2123409956693649e-03</internalNodes>
      <leafValues>
        -6.1653667688369751e-01 4.1036050766706467e-02</leafValues></_>
    <_>
      <internalNodes>
        0 -1 39331 8.6816027760505676e-04</internalNodes>
      <leafValues>
        -1.1113088577985764e-01 2.3655638098716736e-01</leafValues></_>
    <_>
      <internalNodes>
        0 -1 38696 8.9360133279114962e-04</internalNodes>
      <leafValues>
        -1.0911831259727478e-01 2.5567835569381714e-01</leafValues></_>
    <_>
      <internalNodes>
        0 -1 6745 6.8071737885475159e-02</internalNodes>
      <leafValues>
        3.8521125912666321e-02 -7.3818099498748779e-01</leafValues></_>
    <_>
      <internalNodes>
        0 -1 44815 -1.8749363953247666e-03</internalNodes>
      <leafValues>
        3.6284974217414856e-01 -8.0755218863487244e-02</leafValues></_>
    <_>
      <internalNodes>
        0 -1 35819 1.1845184490084648e-03</internalNodes>
      <leafValues>
        -1.2778627872467041e-01 2.0516024529933929e-01</leafValues></_>
    <_>
      <internalNodes>
        0 -1 71952 -7.4153570458292961e-03</internalNodes>
      <leafValues>
        2.3229099810123444e-01 -1.1921474337577820e-01</leafValues></_>
    <_>
      <internalNodes>
        0 -1 75601 -1.6136866062879562e-02</internalNodes>
      <leafValues>
        -6.9221109151840210e-01 3.6036744713783264e-02</leafValues></_>
    <_>
      <internalNodes>
        0 -1 40780 3.7545166909694672e-02</internalNodes>
      <leafValues>
        5.9389710426330566e-02 -4.3934124708175659e-01</leafValues></_>
    <_>
      <internalNodes>
        0 -1 76029 -2.3910363670438528e-03</internalNodes>
      <leafValues>
        2.2169655561447144e-01 -1.3124926388263702e-01</leafValues></_>
    <_>
      <internalNodes>
        0 -1 12960 -1.9412735709920526e-03</internalNodes>
      <leafValues>
        -3.0268314480781555e-01 9.2171207070350647e-02</leafValues></_>
    <_>
      <internalNodes>
        0 -1 58235 -8.4952579345554113e-04</internalNodes>
      <leafValues>
        1.7437779903411865e-01 -1.5433870255947113e-01</leafValues></_>
    <_>
      <internalNodes>
        0 -1 54439 -9.0942438691854477e-03</internalNodes>
      <leafValues>
        -6.4254188537597656e-01 4.4822990894317627e-02</leafValues></_>
    <_>
      <internalNodes>
        0 -1 69177 6.7459964193403721e-03</internalNodes>
      <leafValues>
        3.5258211195468903e-02 -6.9929409027099609e-01</leafValues></_>
    <_>
      <internalNodes>
        0 -1 70578 -7.9380162060260773e-04</internalNodes>
      <leafValues>
        1.3236939907073975e-01 -2.0545837283134460e-01</leafValues></_>
    <_>
      <internalNodes>
        0 -1 77664 -3.5264454782009125e-03</internalNodes>
      <leafValues>
        -5.3904420137405396e-01 5.4359644651412964e-02</leafValues></_>
    <_>
      <internalNodes>
        0 -1 44378 7.1643711999058723e-03</internalNodes>
      <leafValues>
        -1.5520052611827850e-01 1.7947109043598175e-01</leafValues></_>
    <_>
      <internalNodes>
        0 -1 27396 -1.2663586065173149e-02</internalNodes>
      <leafValues>
        -5.3646886348724365e-01 5.3021799772977829e-02</leafValues></_>
    <_>
      <internalNodes>
        0 -1 71846 1.2757447548210621e-03</internalNodes>
      <leafValues>
        -1.2806330621242523e-01 2.1847186982631683e-01</leafValues></_>
    <_>
      <internalNodes>
        0 -1 70042 3.3903688192367554e-02</internalNodes>
      <leafValues>
        -5.0549123436212540e-02 5.4076832532882690e-01</leafValues></_>
    <_>
      <internalNodes>
        0 -1 24833 -1.9350245594978333e-01</internalNodes>
      <leafValues>
        8.3035486936569214e-01 -2.5567119941115379e-02</leafValues></_>
    <_>
      <internalNodes>
        0 -1 9573 -1.0095639526844025e-01</internalNodes>
      <leafValues>
        -6.7872446775436401e-01 4.5219410210847855e-02</leafValues></_>
    <_>
      <internalNodes>
        0 -1 9624 -3.1671270728111267e-02</internalNodes>
      <leafValues>
        5.4304969310760498e-01 -5.0015240907669067e-02</leafValues></_>
    <_>
      <internalNodes>
        0 -1 54453 -6.7997053265571594e-03</internalNodes>
      <leafValues>
        4.3465945124626160e-01 -5.5333778262138367e-02</leafValues></_>
    <_>
      <internalNodes>
        0 -1 70294 7.1054033469408751e-04</internalNodes>
      <leafValues>
        -1.1636922508478165e-01 2.2653634846210480e-01</leafValues></_>
    <_>
      <internalNodes>
        0 -1 63160 4.0059417486190796e-02</internalNodes>
      <leafValues>
        -6.2859162688255310e-02 4.2966693639755249e-01</leafValues></_></weakClassifiers></stage5>
</opencv_storage>
