<?xml version="1.0"?>
<opencv_storage>
<stage6>
  <maxWeakCount>57</maxWeakCount>
  <stageThreshold>-7.5095289945602417e-01</stageThreshold>
  <weakClassifiers>
    <_>
      <internalNodes>
        0 -1 62652 4.9745414406061172e-02</internalNodes>
      <leafValues>
        1.8064847588539124e-01 7.2523117065429688e-01</leafValues></_>
    <_>
      <internalNodes>
        0 -1 66423 1.0382222011685371e-02</internalNodes>
      <leafValues>
        -4.5352701097726822e-02 4.7736054658889771e-01</leafValues></_>
    <_>
      <internalNodes>
        0 -1 78071 -7.0162964984774590e-03</internalNodes>
      <leafValues>
        4.8860609531402588e-01 -1.1571413278579712e-01</leafValues></_>
    <_>
      <internalNodes>
        0 -1 40559 -8.7327547371387482e-03</internalNodes>
      <leafValues>
        3.8948294520378113e-01 -8.5961483418941498e-02</leafValues></_>
    <_>
      <internalNodes>
        0 -1 69740 -4.0382752195000648e-03</internalNodes>
      <leafValues>
        2.6355421543121338e-01 -1.5230055153369904e-01</leafValues></_>
    <_>
      <internalNodes>
        0 -1 77022 -3.0531480442732573e-03</internalNodes>
      <leafValues>
        3.0597183108329773e-01 -1.0929684340953827e-01</leafValues></_>
    <_>
      <internalNodes>
        0 -1 49696 5.4742312058806419e-03</internalNodes>
      <leafValues>
        -1.1997392773628235e-01 2.8961619734764099e-01</leafValues></_>
    <_>
      <internalNodes>
        0 -1 23061 4.9084126949310303e-03</internalNodes>
      <leafValues>
        -8.7185248732566833e-02 3.7048721313476562e-01</leafValues></_>
    <_>
      <internalNodes>
        0 -1 58430 6.3575210515409708e-04</internalNodes>
      <leafValues>
        -1.2862557172775269e-01 2.5266131758689880e-01</leafValues></_>
    <_>
      <internalNodes>
        0 -1 15578 -4.1367402300238609e-03</internalNodes>
      <leafValues>
        2.0027801394462585e-01 -1.5589304268360138e-01</leafValues></_>
    <_>
      <internalNodes>
        0 -1 77020 -3.0770958401262760e-03</internalNodes>
      <leafValues>
        2.1875613927841187e-01 -1.3273295760154724e-01</leafValues></_>
    <_>
      <internalNodes>
        0 -1 74299 -1.4417866244912148e-02</internalNodes>
      <leafValues>
        5.0809484720230103e-01 -5.2274934947490692e-02</leafValues></_>
    <_>
      <internalNodes>
        0 -1 56782 -1.1755739978980273e-04</internalNodes>
      <leafValues>
        1.6270200908184052e-01 -2.0788207650184631e-01</leafValues></_>
    <_>
      <internalNodes>
        0 -1 66302 -5.8271167799830437e-03</internalNodes>
      <leafValues>
        -6.6299426555633545e-01 4.0605112910270691e-02</leafValues></_>
    <_>
      <internalNodes>
        0 -1 54822 -1.8553918926045299e-03</internalNodes>
      <leafValues>
        1.6532319784164429e-01 -1.6592487692832947e-01</leafValues></_>
    <_>
      <internalNodes>
        0 -1 77033 -1.5151269733905792e-02</internalNodes>
      <leafValues>
        -6.1310219764709473e-01 4.8178128898143768e-02</leafValues></_>
    <_>
      <internalNodes>
        0 -1 58106 4.2628003284335136e-03</internalNodes>
      <leafValues>
        2.6098173111677170e-02 -8.2788896560668945e-01</leafValues></_>
    <_>
      <internalNodes>
        0 -1 50545 -4.9789035692811012e-03</internalNodes>
      <leafValues>
        2.6329085230827332e-01 -9.9895313382148743e-02</leafValues></_>
    <_>
      <internalNodes>
        0 -1 69843 2.2257473319768906e-02</internalNodes>
      <leafValues>
        -2.7731528505682945e-02 7.4756819009780884e-01</leafValues></_>
    <_>
      <internalNodes>
        0 -1 60837 -9.9982535466551781e-03</internalNodes>
      <leafValues>
        3.2488626241683960e-01 -7.2710596024990082e-02</leafValues></_>
    <_>
      <internalNodes>
        0 -1 3885 9.2244036495685577e-03</internalNodes>
      <leafValues>
        -7.5618095695972443e-02 3.6106014251708984e-01</leafValues></_>
    <_>
      <internalNodes>
        0 -1 27306 -2.5278285145759583e-02</internalNodes>
      <leafValues>
        -5.0443416833877563e-01 5.4688543081283569e-02</leafValues></_>
    <_>
      <internalNodes>
        0 -1 74037 -3.4207589924335480e-03</internalNodes>
      <leafValues>
        1.9212564826011658e-01 -1.3924892246723175e-01</leafValues></_>
    <_>
      <internalNodes>
        0 -1 706 -5.5741357803344727e-01</internalNodes>
      <leafValues>
        6.1784547567367554e-01 -4.5227989554405212e-02</leafValues></_>
    <_>
      <internalNodes>
        0 -1 10746 -1.3360956218093634e-03</internalNodes>
      <leafValues>
        1.7620925605297089e-01 -1.4698325097560883e-01</leafValues></_>
    <_>
      <internalNodes>
        0 -1 7656 -2.9555136337876320e-02</internalNodes>
      <leafValues>
        -6.6583108901977539e-01 4.3209411203861237e-02</leafValues></_>
    <_>
      <internalNodes>
        0 -1 63444 1.0195447131991386e-02</internalNodes>
      <leafValues>
        -7.5773082673549652e-02 3.5280776023864746e-01</leafValues></_>
    <_>
      <internalNodes>
        0 -1 71900 -2.7103831525892019e-03</internalNodes>
      <leafValues>
        2.7012366056442261e-01 -9.8598808050155640e-02</leafValues></_>
    <_>
      <internalNodes>
        0 -1 32941 5.2302628755569458e-03</internalNodes>
      <leafValues>
        -8.8391080498695374e-02 2.9924333095550537e-01</leafValues></_>
    <_>
      <internalNodes>
        0 -1 4 2.7106129564344883e-03</internalNodes>
      <leafValues>
        5.5897951126098633e-02 -4.6880960464477539e-01</leafValues></_>
    <_>
      <internalNodes>
        0 -1 58231 -4.8209694214165211e-03</internalNodes>
      <leafValues>
        -5.5810022354125977e-01 4.0839713066816330e-02</leafValues></_>
    <_>
      <internalNodes>
        0 -1 71057 2.0952476188540459e-03</internalNodes>
      <leafValues>
        -9.4109974801540375e-02 2.7367797493934631e-01</leafValues></_>
    <_>
      <internalNodes>
        0 -1 48264 8.5903424769639969e-03</internalNodes>
      <leafValues>
        -8.4368258714675903e-02 2.7508643269538879e-01</leafValues></_>
    <_>
      <internalNodes>
        0 -1 24343 -1.7483437433838844e-02</internalNodes>
      <leafValues>
        -4.1412028670310974e-01 6.0310531407594681e-02</leafValues></_>
    <_>
      <internalNodes>
        0 -1 49818 -5.2519487217068672e-03</internalNodes>
      <leafValues>
        2.4636177718639374e-01 -1.0090547800064087e-01</leafValues></_>
    <_>
      <internalNodes>
        0 -1 54515 -1.2026289477944374e-03</internalNodes>
      <leafValues>
        2.6911351084709167e-01 -1.0606323182582855e-01</leafValues></_>
    <_>
      <internalNodes>
        0 -1 58234 -3.8003856316208839e-03</internalNodes>
      <leafValues>
        -3.7291124463081360e-01 7.0680357515811920e-02</leafValues></_>
    <_>
      <internalNodes>
        0 -1 49679 -2.0248361397534609e-03</internalNodes>
      <leafValues>
        3.1283360719680786e-01 -9.6097946166992188e-02</leafValues></_>
    <_>
      <internalNodes>
        0 -1 44680 -1.8359047826379538e-03</internalNodes>
      <leafValues>
        2.2769077122211456e-01 -1.1767768114805222e-01</leafValues></_>
    <_>
      <internalNodes>
        0 -1 77174 7.7515044249594212e-03</internalNodes>
      <leafValues>
        -5.7834565639495850e-02 3.9959308505058289e-01</leafValues></_>
    <_>
      <internalNodes>
        0 -1 58599 -2.8626299463212490e-03</internalNodes>
      <leafValues>
        -4.5176404714584351e-01 5.6526172906160355e-02</leafValues></_>
    <_>
      <internalNodes>
        0 -1 70141 4.3227570131421089e-04</internalNodes>
      <leafValues>
        -1.3332059979438782e-01 1.8445810675621033e-01</leafValues></_>
    <_>
      <internalNodes>
        0 -1 71847 9.0701710432767868e-03</internalNodes>
      <leafValues>
        4.3553005903959274e-02 -6.3296377658843994e-01</leafValues></_>
    <_>
      <internalNodes>
        0 -1 76516 3.0965654877945781e-04</internalNodes>
      <leafValues>
        -1.3687497377395630e-01 1.7283254861831665e-01</leafValues></_>
    <_>
      <internalNodes>
        0 -1 19230 -3.5908948630094528e-03</internalNodes>
      <leafValues>
        2.0718172192573547e-01 -1.1353848874568939e-01</leafValues></_>
    <_>
      <internalNodes>
        0 -1 70699 -1.1989112244918942e-03</internalNodes>
      <leafValues>
        1.4968393743038177e-01 -1.6682288050651550e-01</leafValues></_>
    <_>
      <internalNodes>
        0 -1 15152 -3.1102758646011353e-01</internalNodes>
      <leafValues>
        4.8655715584754944e-01 -5.2647955715656281e-02</leafValues></_>
    <_>
      <internalNodes>
        0 -1 46176 1.7335377633571625e-02</internalNodes>
      <leafValues>
        -6.5016210079193115e-02 3.4896770119667053e-01</leafValues></_>
    <_>
      <internalNodes>
        0 -1 28317 4.7433013096451759e-03</internalNodes>
      <leafValues>
        -9.6992783248424530e-02 2.8628572821617126e-01</leafValues></_>
    <_>
      <internalNodes>
        0 -1 28187 -2.9220371507108212e-03</internalNodes>
      <leafValues>
        2.1668420732021332e-01 -1.2329506129026413e-01</leafValues></_>
    <_>
      <internalNodes>
        0 -1 40369 4.4562155380845070e-03</internalNodes>
      <leafValues>
        3.9339251816272736e-02 -6.7727196216583252e-01</leafValues></_>
    <_>
      <internalNodes>
        0 -1 10198 -1.5048733912408352e-02</internalNodes>
      <leafValues>
        2.4162752926349640e-01 -1.0636447370052338e-01</leafValues></_>
    <_>
      <internalNodes>
        0 -1 59153 -4.4374447315931320e-03</internalNodes>
      <leafValues>
        2.5834095478057861e-01 -9.4277262687683105e-02</leafValues></_>
    <_>
      <internalNodes>
        0 -1 19216 -3.4487405791878700e-03</internalNodes>
      <leafValues>
        -4.4901239871978760e-01 6.0140304267406464e-02</leafValues></_>
    <_>
      <internalNodes>
        0 -1 58111 -1.1525754816830158e-03</internalNodes>
      <leafValues>
        1.8475657701492310e-01 -1.3056579232215881e-01</leafValues></_>
    <_>
      <internalNodes>
        0 -1 46237 -6.8132095038890839e-03</internalNodes>
      <leafValues>
        2.9333463311195374e-01 -8.3166189491748810e-02</leafValues></_>
    <_>
      <internalNodes>
        0 -1 1963 -1.7392938956618309e-02</internalNodes>
      <leafValues>
        -4.4396525621414185e-01 6.3434369862079620e-02</leafValues></_></weakClassifiers></stage6>
</opencv_storage>
