<?xml version="1.0"?>
<opencv_storage>
<stage4>
  <maxWeakCount>64</maxWeakCount>
  <stageThreshold>-6.3695478439331055e-01</stageThreshold>
  <weakClassifiers>
    <_>
      <internalNodes>
        0 -1 65998 1.2771826237440109e-02</internalNodes>
      <leafValues>
        2.2400000691413879e-01 6.4571428298950195e-01</leafValues></_>
    <_>
      <internalNodes>
        0 -1 71340 2.4353099986910820e-02</internalNodes>
      <leafValues>
        -7.9273842275142670e-02 3.2059386372566223e-01</leafValues></_>
    <_>
      <internalNodes>
        0 -1 78381 -1.4669795054942369e-03</internalNodes>
      <leafValues>
        2.4315182864665985e-01 -1.4980213344097137e-01</leafValues></_>
    <_>
      <internalNodes>
        0 -1 57961 9.1033201897516847e-04</internalNodes>
      <leafValues>
        -1.4547325670719147e-01 1.8992638587951660e-01</leafValues></_>
    <_>
      <internalNodes>
        0 -1 21147 1.8510941881686449e-03</internalNodes>
      <leafValues>
        -1.4359050989151001e-01 1.9710534811019897e-01</leafValues></_>
    <_>
      <internalNodes>
        0 -1 77180 6.6049760207533836e-03</internalNodes>
      <leafValues>
        -1.0994203388690948e-01 2.2516781091690063e-01</leafValues></_>
    <_>
      <internalNodes>
        0 -1 66549 -6.0387561097741127e-03</internalNodes>
      <leafValues>
        2.1110264956951141e-01 -1.5206296741962433e-01</leafValues></_>
    <_>
      <internalNodes>
        0 -1 11754 -2.7083083987236023e-03</internalNodes>
      <leafValues>
        1.7684535682201385e-01 -1.4070309698581696e-01</leafValues></_>
    <_>
      <internalNodes>
        0 -1 5742 1.0426234453916550e-02</internalNodes>
      <leafValues>
        -9.3351505696773529e-02 2.5209748744964600e-01</leafValues></_>
    <_>
      <internalNodes>
        0 -1 20654 6.2509598210453987e-03</internalNodes>
      <leafValues>
        -9.5558278262615204e-02 2.4234379827976227e-01</leafValues></_>
    <_>
      <internalNodes>
        0 -1 47596 6.1490799998864532e-04</internalNodes>
      <leafValues>
        -1.1007516086101532e-01 2.1515095233917236e-01</leafValues></_>
    <_>
      <internalNodes>
        0 -1 66423 -7.9962564632296562e-03</internalNodes>
      <leafValues>
        3.9384818077087402e-01 -5.7934798300266266e-02</leafValues></_>
    <_>
      <internalNodes>
        0 -1 66101 1.4443999156355858e-02</internalNodes>
      <leafValues>
        -5.0058797001838684e-02 4.7564300894737244e-01</leafValues></_>
    <_>
      <internalNodes>
        0 -1 20622 -2.0129061304032803e-03</internalNodes>
      <leafValues>
        2.6389351487159729e-01 -8.2907877862453461e-02</leafValues></_>
    <_>
      <internalNodes>
        0 -1 60789 -5.2533922716975212e-03</internalNodes>
      <leafValues>
        -5.4350215196609497e-01 4.2096544057130814e-02</leafValues></_>
    <_>
      <internalNodes>
        0 -1 77356 3.9845509454607964e-03</internalNodes>
      <leafValues>
        3.2381858676671982e-02 -6.4856570959091187e-01</leafValues></_>
    <_>
      <internalNodes>
        0 -1 71002 1.5501171350479126e-02</internalNodes>
      <leafValues>
        -7.9521521925926208e-02 2.8536996245384216e-01</leafValues></_>
    <_>
      <internalNodes>
        0 -1 77898 -8.0584716051816940e-03</internalNodes>
      <leafValues>
        2.5553706288337708e-01 -9.6467316150665283e-02</leafValues></_>
    <_>
      <internalNodes>
        0 -1 74233 4.9160696566104889e-02</internalNodes>
      <leafValues>
        -4.4332347810268402e-02 5.5647969245910645e-01</leafValues></_>
    <_>
      <internalNodes>
        0 -1 75717 -2.1553171798586845e-02</internalNodes>
      <leafValues>
        -6.3284409046173096e-01 4.5046608895063400e-02</leafValues></_>
    <_>
      <internalNodes>
        0 -1 78123 3.0404748395085335e-03</internalNodes>
      <leafValues>
        -1.3176871836185455e-01 1.9576840102672577e-01</leafValues></_>
    <_>
      <internalNodes>
        0 -1 75581 4.6863812021911144e-03</internalNodes>
      <leafValues>
        4.5878000557422638e-02 -5.6936323642730713e-01</leafValues></_>
    <_>
      <internalNodes>
        0 -1 54331 -4.0052570402622223e-03</internalNodes>
      <leafValues>
        -5.5732637643814087e-01 4.3500091880559921e-02</leafValues></_>
    <_>
      <internalNodes>
        0 -1 27474 1.2176111340522766e-03</internalNodes>
      <leafValues>
        -1.1362297087907791e-01 2.0789749920368195e-01</leafValues></_>
    <_>
      <internalNodes>
        0 -1 27040 -2.2925925441086292e-03</internalNodes>
      <leafValues>
        2.9642063379287720e-01 -8.7756827473640442e-02</leafValues></_>
    <_>
      <internalNodes>
        0 -1 27031 -5.8418244589120150e-04</internalNodes>
      <leafValues>
        2.0020639896392822e-01 -1.6096952557563782e-01</leafValues></_>
    <_>
      <internalNodes>
        0 -1 22618 -1.7874991521239281e-02</internalNodes>
      <leafValues>
        2.1715295314788818e-01 -1.1014041304588318e-01</leafValues></_>
    <_>
      <internalNodes>
        0 -1 70970 4.4603573041968048e-04</internalNodes>
      <leafValues>
        -1.4797073602676392e-01 1.7637017369270325e-01</leafValues></_>
    <_>
      <internalNodes>
        0 -1 33850 -2.0311616361141205e-02</internalNodes>
      <leafValues>
        -4.4531667232513428e-01 5.3174808621406555e-02</leafValues></_>
    <_>
      <internalNodes>
        0 -1 57041 2.0868385210633278e-02</internalNodes>
      <leafValues>
        -7.2217099368572235e-02 3.1653386354446411e-01</leafValues></_>
    <_>
      <internalNodes>
        0 -1 64618 -4.2709708213806152e-03</internalNodes>
      <leafValues>
        1.9316639006137848e-01 -1.1536736041307449e-01</leafValues></_>
    <_>
      <internalNodes>
        0 -1 44493 3.4521142952144146e-03</internalNodes>
      <leafValues>
        4.2577594518661499e-02 -5.5722761154174805e-01</leafValues></_>
    <_>
      <internalNodes>
        0 -1 31584 -6.6345528466627002e-04</internalNodes>
      <leafValues>
        2.1253815293312073e-01 -1.0860913246870041e-01</leafValues></_>
    <_>
      <internalNodes>
        0 -1 34045 1.5699937939643860e-02</internalNodes>
      <leafValues>
        -5.1963288336992264e-02 4.1719815135002136e-01</leafValues></_>
    <_>
      <internalNodes>
        0 -1 54043 -9.5548445824533701e-04</internalNodes>
      <leafValues>
        2.3327474296092987e-01 -8.9454352855682373e-02</leafValues></_>
    <_>
      <internalNodes>
        0 -1 32446 -6.2187295407056808e-02</internalNodes>
      <leafValues>
        4.3456077575683594e-01 -5.4045781493186951e-02</leafValues></_>
    <_>
      <internalNodes>
        0 -1 62167 -6.5217926166951656e-03</internalNodes>
      <leafValues>
        -7.7046507596969604e-01 3.3745937049388885e-02</leafValues></_>
    <_>
      <internalNodes>
        0 -1 69295 -1.3466203585267067e-02</internalNodes>
      <leafValues>
        4.3046849966049194e-01 -5.7027369737625122e-02</leafValues></_>
    <_>
      <internalNodes>
        0 -1 41747 5.8603205252438784e-04</internalNodes>
      <leafValues>
        -1.0637718439102173e-01 2.0295453071594238e-01</leafValues></_>
    <_>
      <internalNodes>
        0 -1 68733 2.3159530013799667e-02</internalNodes>
      <leafValues>
        4.0693286806344986e-02 -5.6335645914077759e-01</leafValues></_>
    <_>
      <internalNodes>
        0 -1 65604 -6.9027207791805267e-03</internalNodes>
      <leafValues>
        -7.7639460563659668e-01 2.4608377367258072e-02</leafValues></_>
    <_>
      <internalNodes>
        0 -1 58348 -3.3875275403261185e-03</internalNodes>
      <leafValues>
        -3.9975705742835999e-01 4.8539210110902786e-02</leafValues></_>
    <_>
      <internalNodes>
        0 -1 75953 -8.4980186074972153e-03</internalNodes>
      <leafValues>
        2.0960773527622223e-01 -1.0407218337059021e-01</leafValues></_>
    <_>
      <internalNodes>
        0 -1 75892 6.6905379295349121e-02</internalNodes>
      <leafValues>
        3.9399165660142899e-02 -5.9062600135803223e-01</leafValues></_>
    <_>
      <internalNodes>
        0 -1 72151 2.8092429041862488e-02</internalNodes>
      <leafValues>
        -1.0772872716188431e-01 2.1511314809322357e-01</leafValues></_>
    <_>
      <internalNodes>
        0 -1 77848 -5.1573486998677254e-03</internalNodes>
      <leafValues>
        2.2317585349082947e-01 -1.1867906898260117e-01</leafValues></_>
    <_>
      <internalNodes>
        0 -1 27889 -1.1064414866268635e-02</internalNodes>
      <leafValues>
        3.5278636217117310e-01 -6.7081637680530548e-02</leafValues></_>
    <_>
      <internalNodes>
        0 -1 58429 -4.9310538452118635e-04</internalNodes>
      <leafValues>
        2.0257447659969330e-01 -1.1832976341247559e-01</leafValues></_>
    <_>
      <internalNodes>
        0 -1 58350 -3.3297073096036911e-03</internalNodes>
      <leafValues>
        -5.8437842130661011e-01 4.3225660920143127e-02</leafValues></_>
    <_>
      <internalNodes>
        0 -1 74615 -3.1735589727759361e-03</internalNodes>
      <leafValues>
        3.2460859417915344e-01 -7.0501051843166351e-02</leafValues></_>
    <_>
      <internalNodes>
        0 -1 75431 -1.0802765190601349e-01</internalNodes>
      <leafValues>
        -6.1195403337478638e-01 4.0799941867589951e-02</leafValues></_>
    <_>
      <internalNodes>
        0 -1 54757 1.3694971799850464e-02</internalNodes>
      <leafValues>
        2.8747648000717163e-02 -6.5174221992492676e-01</leafValues></_>
    <_>
      <internalNodes>
        0 -1 55611 -1.6129784286022186e-02</internalNodes>
      <leafValues>
        1.5276587009429932e-01 -1.4639535546302795e-01</leafValues></_>
    <_>
      <internalNodes>
        0 -1 65876 1.9947711378335953e-02</internalNodes>
      <leafValues>
        -3.7947170436382294e-02 5.9212625026702881e-01</leafValues></_>
    <_>
      <internalNodes>
        0 -1 40617 -4.3992344290018082e-03</internalNodes>
      <leafValues>
        2.4294610321521759e-01 -9.2086926102638245e-02</leafValues></_>
    <_>
      <internalNodes>
        0 -1 13632 -3.3433339558541775e-04</internalNodes>
      <leafValues>
        -1.5745504200458527e-01 1.4536829292774200e-01</leafValues></_>
    <_>
      <internalNodes>
        0 -1 9621 -1.1036469368264079e-03</internalNodes>
      <leafValues>
        1.6826342046260834e-01 -1.3207906484603882e-01</leafValues></_>
    <_>
      <internalNodes>
        0 -1 40928 -1.4322496950626373e-02</internalNodes>
      <leafValues>
        2.5709766149520874e-01 -8.3538264036178589e-02</leafValues></_>
    <_>
      <internalNodes>
        0 -1 26460 -4.6503674238920212e-03</internalNodes>
      <leafValues>
        -5.3606462478637695e-01 4.1298445314168930e-02</leafValues></_>
    <_>
      <internalNodes>
        0 -1 52644 5.3175580687820911e-03</internalNodes>
      <leafValues>
        2.2807503119111061e-02 -8.2846432924270630e-01</leafValues></_>
    <_>
      <internalNodes>
        0 -1 64329 4.1667008772492409e-03</internalNodes>
      <leafValues>
        2.8368214145302773e-02 -6.5805572271347046e-01</leafValues></_>
    <_>
      <internalNodes>
        0 -1 49188 -1.1986729223281145e-03</internalNodes>
      <leafValues>
        2.1378342807292938e-01 -1.0290672630071640e-01</leafValues></_>
    <_>
      <internalNodes>
        0 -1 11014 2.1028736233711243e-01</internalNodes>
      <leafValues>
        -2.7447035536170006e-02 8.3371829986572266e-01</leafValues></_>
    <_>
      <internalNodes>
        0 -1 78439 3.4556444734334946e-03</internalNodes>
      <leafValues>
        -9.0487681329250336e-02 2.4410295486450195e-01</leafValues></_></weakClassifiers></stage4>
</opencv_storage>
