<?xml version="1.0"?>
<opencv_storage>
<stage3>
  <maxWeakCount>100</maxWeakCount>
  <stageThreshold>-7.0726913213729858e-01</stageThreshold>
  <weakClassifiers>
    <_>
      <internalNodes>
        0 -1 11260 2.5928246323019266e-03</internalNodes>
      <leafValues>
        2.5241675972938538e-01 5.1312649250030518e-01</leafValues></_>
    <_>
      <internalNodes>
        0 -1 5704 8.4563123527914286e-04</internalNodes>
      <leafValues>
        -8.8051646947860718e-02 1.5616713464260101e-01</leafValues></_>
    <_>
      <internalNodes>
        0 -1 23920 8.0914169549942017e-02</internalNodes>
      <leafValues>
        -5.8282300829887390e-02 2.2552965581417084e-01</leafValues></_>
    <_>
      <internalNodes>
        0 -1 22323 -1.5208435058593750e-01</internalNodes>
      <leafValues>
        2.8077629208564758e-01 -8.9169800281524658e-02</leafValues></_>
    <_>
      <internalNodes>
        0 -1 78451 3.8235499523580074e-03</internalNodes>
      <leafValues>
        3.6332514137029648e-02 -4.4582325220108032e-01</leafValues></_>
    <_>
      <internalNodes>
        0 -1 43732 4.6759486198425293e-02</internalNodes>
      <leafValues>
        -1.5606443397700787e-02 8.0432331562042236e-01</leafValues></_>
    <_>
      <internalNodes>
        0 -1 24507 3.8728313520550728e-03</internalNodes>
      <leafValues>
        -5.7166125625371933e-02 2.2367215156555176e-01</leafValues></_>
    <_>
      <internalNodes>
        0 -1 10335 -3.3067516051232815e-03</internalNodes>
      <leafValues>
        -2.1284140646457672e-01 5.3731117397546768e-02</leafValues></_>
    <_>
      <internalNodes>
        0 -1 41914 -2.4503536522388458e-02</internalNodes>
      <leafValues>
        3.3780702948570251e-01 -3.5087846219539642e-02</leafValues></_>
    <_>
      <internalNodes>
        0 -1 33492 -1.8389213830232620e-02</internalNodes>
      <leafValues>
        4.5703640580177307e-01 -2.7412408962845802e-02</leafValues></_>
    <_>
      <internalNodes>
        0 -1 32013 -4.8453919589519501e-02</internalNodes>
      <leafValues>
        1. -6.3604386523365974e-03</leafValues></_>
    <_>
      <internalNodes>
        0 -1 73479 -4.3563460931181908e-03</internalNodes>
      <leafValues>
        -1.9750881195068359e-01 6.2242593616247177e-02</leafValues></_>
    <_>
      <internalNodes>
        0 -1 6388 5.6027295067906380e-03</internalNodes>
      <leafValues>
        1.5152944251894951e-02 -7.3041814565658569e-01</leafValues></_>
    <_>
      <internalNodes>
        0 -1 51133 -4.4814184308052063e-02</internalNodes>
      <leafValues>
        -3.0600222945213318e-01 3.6569852381944656e-02</leafValues></_>
    <_>
      <internalNodes>
        0 -1 65536 -4.6468232758343220e-03</internalNodes>
      <leafValues>
        -5.9844809770584106e-01 1.8579985946416855e-02</leafValues></_>
    <_>
      <internalNodes>
        0 -1 44275 1.5650423243641853e-02</internalNodes>
      <leafValues>
        -3.2922152429819107e-02 3.6793735623359680e-01</leafValues></_>
    <_>
      <internalNodes>
        0 -1 54063 1.8066706834360957e-03</internalNodes>
      <leafValues>
        9.6750952303409576e-02 -1.2294930219650269e-01</leafValues></_>
    <_>
      <internalNodes>
        0 -1 38561 1.2698502279818058e-02</internalNodes>
      <leafValues>
        6.0942895710468292e-02 -2.0131324231624603e-01</leafValues></_>
    <_>
      <internalNodes>
        0 -1 5306 -6.0432306490838528e-03</internalNodes>
      <leafValues>
        -3.8238877058029175e-01 2.8452567756175995e-02</leafValues></_>
    <_>
      <internalNodes>
        0 -1 62224 5.9915155172348022e-02</internalNodes>
      <leafValues>
        1.7718859016895294e-02 -5.6254500150680542e-01</leafValues></_>
    <_>
      <internalNodes>
        0 -1 49954 -1.1356593109667301e-02</internalNodes>
      <leafValues>
        2.8869271278381348e-01 -3.6183957010507584e-02</leafValues></_>
    <_>
      <internalNodes>
        0 -1 62169 -3.5925635602325201e-03</internalNodes>
      <leafValues>
        -4.0349465608596802e-01 2.6550391688942909e-02</leafValues></_>
    <_>
      <internalNodes>
        0 -1 77059 -7.3274383321404457e-03</internalNodes>
      <leafValues>
        -1.4201615750789642e-01 6.9721378386020660e-02</leafValues></_>
    <_>
      <internalNodes>
        0 -1 44578 -9.6883885562419891e-03</internalNodes>
      <leafValues>
        4.1871276497840881e-01 -2.5264432653784752e-02</leafValues></_>
    <_>
      <internalNodes>
        0 -1 32806 5.0739571452140808e-02</internalNodes>
      <leafValues>
        2.3603603243827820e-02 -5.5925166606903076e-01</leafValues></_>
    <_>
      <internalNodes>
        0 -1 13613 2.3002470843493938e-03</internalNodes>
      <leafValues>
        -5.2800148725509644e-02 1.9594822824001312e-01</leafValues></_>
    <_>
      <internalNodes>
        0 -1 11269 -2.7785482816398144e-03</internalNodes>
      <leafValues>
        1.6464185714721680e-01 -8.3121299743652344e-02</leafValues></_>
    <_>
      <internalNodes>
        0 -1 2129 1.5437710098922253e-03</internalNodes>
      <leafValues>
        -8.4173478186130524e-02 1.5249620378017426e-01</leafValues></_>
    <_>
      <internalNodes>
        0 -1 3353 -1.4730188995599747e-03</internalNodes>
      <leafValues>
        1.3404224812984467e-01 -1.0544944554567337e-01</leafValues></_>
    <_>
      <internalNodes>
        0 -1 19630 -3.2915358897298574e-03</internalNodes>
      <leafValues>
        -3.5475584864616394e-01 3.5571452230215073e-02</leafValues></_>
    <_>
      <internalNodes>
        0 -1 8189 -6.1063420027494431e-02</internalNodes>
      <leafValues>
        4.4554755091667175e-01 -2.3623729124665260e-02</leafValues></_>
    <_>
      <internalNodes>
        0 -1 14697 2.4278308264911175e-03</internalNodes>
      <leafValues>
        3.5453677177429199e-02 -3.2416749000549316e-01</leafValues></_>
    <_>
      <internalNodes>
        0 -1 61791 5.6366398930549622e-03</internalNodes>
      <leafValues>
        1.4119637198746204e-02 -7.2530359029769897e-01</leafValues></_>
    <_>
      <internalNodes>
        0 -1 62211 -4.3984903022646904e-03</internalNodes>
      <leafValues>
        2.8441283106803894e-01 -3.9775721728801727e-02</leafValues></_>
    <_>
      <internalNodes>
        0 -1 16935 8.3840608596801758e-02</internalNodes>
      <leafValues>
        2.1531797945499420e-02 -5.4834032058715820e-01</leafValues></_>
    <_>
      <internalNodes>
        0 -1 12148 -8.3947807550430298e-02</internalNodes>
      <leafValues>
        1.7320244014263153e-01 -6.5253451466560364e-02</leafValues></_>
    <_>
      <internalNodes>
        0 -1 20291 4.9576479941606522e-02</internalNodes>
      <leafValues>
        -3.8079869002103806e-02 3.1982213258743286e-01</leafValues></_>
    <_>
      <internalNodes>
        0 -1 70691 2.5506997480988503e-03</internalNodes>
      <leafValues>
        4.3683513998985291e-02 -2.7545401453971863e-01</leafValues></_>
    <_>
      <internalNodes>
        0 -1 3053 -5.8445900678634644e-02</internalNodes>
      <leafValues>
        3.8288995623588562e-01 -3.1158860772848129e-02</leafValues></_>
    <_>
      <internalNodes>
        0 -1 38134 -5.7569686323404312e-03</internalNodes>
      <leafValues>
        -8.8985896110534668e-01 1.5899145975708961e-02</leafValues></_>
    <_>
      <internalNodes>
        0 -1 53727 -8.7917428463697433e-03</internalNodes>
      <leafValues>
        5.7228839397430420e-01 -2.1933427080512047e-02</leafValues></_>
    <_>
      <internalNodes>
        0 -1 63497 -1.0312470607459545e-02</internalNodes>
      <leafValues>
        3.8933882117271423e-01 -2.4051789194345474e-02</leafValues></_>
    <_>
      <internalNodes>
        0 -1 62054 -9.8897051066160202e-03</internalNodes>
      <leafValues>
        -8.5603833198547363e-01 1.3286690227687359e-02</leafValues></_>
    <_>
      <internalNodes>
        0 -1 78198 -5.2279885858297348e-03</internalNodes>
      <leafValues>
        -6.5329694747924805e-01 1.3509170152246952e-02</leafValues></_>
    <_>
      <internalNodes>
        0 -1 43956 1.1007457971572876e-01</internalNodes>
      <leafValues>
        -2.3343168199062347e-02 4.8174595832824707e-01</leafValues></_>
    <_>
      <internalNodes>
        0 -1 52848 5.1481172442436218e-02</internalNodes>
      <leafValues>
        -1.1367806233465672e-02 7.1450215578079224e-01</leafValues></_>
    <_>
      <internalNodes>
        0 -1 60314 -2.1537587046623230e-02</internalNodes>
      <leafValues>
        -3.7735888361930847e-01 3.0789285898208618e-02</leafValues></_>
    <_>
      <internalNodes>
        0 -1 74246 -7.1213999763131142e-03</internalNodes>
      <leafValues>
        -7.1418190002441406e-01 1.3927480205893517e-02</leafValues></_>
    <_>
      <internalNodes>
        0 -1 9626 6.0175103135406971e-03</internalNodes>
      <leafValues>
        -5.3867768496274948e-02 1.9463142752647400e-01</leafValues></_>
    <_>
      <internalNodes>
        0 -1 32328 4.7057941555976868e-03</internalNodes>
      <leafValues>
        1.7170773819088936e-02 -6.4450913667678833e-01</leafValues></_>
    <_>
      <internalNodes>
        0 -1 32360 -3.8290508091449738e-03</internalNodes>
      <leafValues>
        3.2603484392166138e-01 -3.5079330205917358e-02</leafValues></_>
    <_>
      <internalNodes>
        0 -1 72825 1.9341606646776199e-02</internalNodes>
      <leafValues>
        1.1869651265442371e-02 -9.2961102724075317e-01</leafValues></_>
    <_>
      <internalNodes>
        0 -1 74584 -2.2295067901723087e-04</internalNodes>
      <leafValues>
        1.1682642251253128e-01 -9.4174139201641083e-02</leafValues></_>
    <_>
      <internalNodes>
        0 -1 64654 3.5642027854919434e-02</internalNodes>
      <leafValues>
        -2.7745701372623444e-02 4.2911541461944580e-01</leafValues></_>
    <_>
      <internalNodes>
        0 -1 66593 -7.4225002899765968e-03</internalNodes>
      <leafValues>
        2.1582059562206268e-01 -4.6902738511562347e-02</leafValues></_>
    <_>
      <internalNodes>
        0 -1 38940 -3.5492412280291319e-03</internalNodes>
      <leafValues>
        -4.0733736753463745e-01 2.5827363133430481e-02</leafValues></_>
    <_>
      <internalNodes>
        0 -1 45630 -1.1546296998858452e-02</internalNodes>
      <leafValues>
        5.5819028615951538e-01 -1.9388902932405472e-02</leafValues></_>
    <_>
      <internalNodes>
        0 -1 39857 4.3100463226437569e-03</internalNodes>
      <leafValues>
        3.5566873848438263e-02 -3.4296140074729919e-01</leafValues></_>
    <_>
      <internalNodes>
        0 -1 9086 -6.5162479877471924e-03</internalNodes>
      <leafValues>
        4.1283822059631348e-01 -2.7148395776748657e-02</leafValues></_>
    <_>
      <internalNodes>
        0 -1 60973 4.2934887111186981e-02</internalNodes>
      <leafValues>
        -1.1639398522675037e-02 8.0768120288848877e-01</leafValues></_>
    <_>
      <internalNodes>
        0 -1 1436 -6.2723737210035324e-03</internalNodes>
      <leafValues>
        -5.0223100185394287e-01 2.6140308007597923e-02</leafValues></_>
    <_>
      <internalNodes>
        0 -1 43832 -1.5028178691864014e-02</internalNodes>
      <leafValues>
        4.0750944614410400e-01 -2.8863666579127312e-02</leafValues></_>
    <_>
      <internalNodes>
        0 -1 11774 5.9723611921072006e-03</internalNodes>
      <leafValues>
        4.3347485363483429e-02 -2.6920634508132935e-01</leafValues></_>
    <_>
      <internalNodes>
        0 -1 7962 1.4390242099761963e-01</internalNodes>
      <leafValues>
        -1.9886886700987816e-02 5.8707231283187866e-01</leafValues></_>
    <_>
      <internalNodes>
        0 -1 35463 1.4106625318527222e-01</internalNodes>
      <leafValues>
        3.0210684984922409e-02 -4.5019832253456116e-01</leafValues></_>
    <_>
      <internalNodes>
        0 -1 37484 -1.9399907439947128e-02</internalNodes>
      <leafValues>
        3.0506545305252075e-01 -4.2359810322523117e-02</leafValues></_>
    <_>
      <internalNodes>
        0 -1 38697 -4.0930546820163727e-03</internalNodes>
      <leafValues>
        -2.8904619812965393e-01 3.9759635925292969e-02</leafValues></_>
    <_>
      <internalNodes>
        0 -1 50060 -8.2609310746192932e-02</internalNodes>
      <leafValues>
        -4.5450180768966675e-01 2.2668376564979553e-02</leafValues></_>
    <_>
      <internalNodes>
        0 -1 72060 3.6302443593740463e-02</internalNodes>
      <leafValues>
        1.6864694654941559e-02 -6.2997710704803467e-01</leafValues></_>
    <_>
      <internalNodes>
        0 -1 72630 -4.9313966184854507e-02</internalNodes>
      <leafValues>
        4.7913581132888794e-01 -2.4076774716377258e-02</leafValues></_>
    <_>
      <internalNodes>
        0 -1 28193 -3.2149257604032755e-03</internalNodes>
      <leafValues>
        -1.4325018227100372e-01 7.8565388917922974e-02</leafValues></_>
    <_>
      <internalNodes>
        0 -1 35762 1.4328565448522568e-03</internalNodes>
      <leafValues>
        -6.0096353292465210e-02 2.0274583995342255e-01</leafValues></_>
    <_>
      <internalNodes>
        0 -1 61458 -6.1234971508383751e-04</internalNodes>
      <leafValues>
        1.1973329633474350e-01 -9.2712089419364929e-02</leafValues></_>
    <_>
      <internalNodes>
        0 -1 65028 1.4368902891874313e-02</internalNodes>
      <leafValues>
        -2.3462237790226936e-02 4.2086568474769592e-01</leafValues></_>
    <_>
      <internalNodes>
        0 -1 72939 -5.2612023428082466e-03</internalNodes>
      <leafValues>
        -7.3744064569473267e-01 1.8180834129452705e-02</leafValues></_>
    <_>
      <internalNodes>
        0 -1 6064 -4.3549938127398491e-03</internalNodes>
      <leafValues>
        -5.9466689825057983e-01 1.6221296042203903e-02</leafValues></_>
    <_>
      <internalNodes>
        0 -1 4193 1.5092065930366516e-01</internalNodes>
      <leafValues>
        1.1936631985008717e-02 -8.0106097459793091e-01</leafValues></_>
    <_>
      <internalNodes>
        0 -1 49379 7.3225740343332291e-03</internalNodes>
      <leafValues>
        -4.4730316847562790e-02 2.6221427321434021e-01</leafValues></_>
    <_>
      <internalNodes>
        0 -1 14396 -1.7026245594024658e-02</internalNodes>
      <leafValues>
        -5.4870331287384033e-01 2.3865018039941788e-02</leafValues></_>
    <_>
      <internalNodes>
        0 -1 13619 1.8800066318362951e-03</internalNodes>
      <leafValues>
        -7.8070305287837982e-02 1.4561489224433899e-01</leafValues></_>
    <_>
      <internalNodes>
        0 -1 25507 4.0660928934812546e-03</internalNodes>
      <leafValues>
        -5.7288322597742081e-02 1.9830113649368286e-01</leafValues></_>
    <_>
      <internalNodes>
        0 -1 13880 -3.7970528937876225e-03</internalNodes>
      <leafValues>
        -2.7339211106300354e-01 3.9784476161003113e-02</leafValues></_>
    <_>
      <internalNodes>
        0 -1 6386 2.4541090242564678e-03</internalNodes>
      <leafValues>
        -4.9820490181446075e-02 2.4396032094955444e-01</leafValues></_>
    <_>
      <internalNodes>
        0 -1 73686 -5.0334946718066931e-04</internalNodes>
      <leafValues>
        1.8039222061634064e-01 -6.2324482947587967e-02</leafValues></_>
    <_>
      <internalNodes>
        0 -1 76136 -5.7036289945244789e-03</internalNodes>
      <leafValues>
        -1.9235050678253174e-01 6.2363449484109879e-02</leafValues></_>
    <_>
      <internalNodes>
        0 -1 3373 -3.2638371922075748e-03</internalNodes>
      <leafValues>
        -2.6311448216438293e-01 4.2528282850980759e-02</leafValues></_>
    <_>
      <internalNodes>
        0 -1 53845 1.6495924443006516e-02</internalNodes>
      <leafValues>
        -1.9313139840960503e-02 5.0611174106597900e-01</leafValues></_>
    <_>
      <internalNodes>
        0 -1 67223 -1.6187965869903564e-01</internalNodes>
      <leafValues>
        5.3255242109298706e-01 -2.1818542852997780e-02</leafValues></_>
    <_>
      <internalNodes>
        0 -1 72653 -4.5435909181833267e-02</internalNodes>
      <leafValues>
        -5.3038036823272705e-01 2.4889566004276276e-02</leafValues></_>
    <_>
      <internalNodes>
        0 -1 24009 -1.6938059125095606e-03</internalNodes>
      <leafValues>
        1.9389370083808899e-01 -5.8186292648315430e-02</leafValues></_>
    <_>
      <internalNodes>
        0 -1 12261 3.0992731917649508e-03</internalNodes>
      <leafValues>
        -1.0188651829957962e-01 1.1749763041734695e-01</leafValues></_>
    <_>
      <internalNodes>
        0 -1 68257 2.7385246008634567e-02</internalNodes>
      <leafValues>
        -9.5161860808730125e-03 9.5556777715682983e-01</leafValues></_>
    <_>
      <internalNodes>
        0 -1 16486 -2.8652876615524292e-02</internalNodes>
      <leafValues>
        -6.6708070039749146e-01 1.8420992419123650e-02</leafValues></_>
    <_>
      <internalNodes>
        0 -1 76588 1.6165793640539050e-03</internalNodes>
      <leafValues>
        7.8474469482898712e-02 -1.4102329313755035e-01</leafValues></_>
    <_>
      <internalNodes>
        0 -1 17266 4.6085078793112189e-05</internalNodes>
      <leafValues>
        -9.4586171209812164e-02 1.1700946837663651e-01</leafValues></_>
    <_>
      <internalNodes>
        0 -1 15458 1.6421116888523102e-02</internalNodes>
      <leafValues>
        3.1878776848316193e-02 -3.5961520671844482e-01</leafValues></_>
    <_>
      <internalNodes>
        0 -1 29007 4.2173348367214203e-02</internalNodes>
      <leafValues>
        -3.0172858387231827e-02 3.8502317667007446e-01</leafValues></_>
    <_>
      <internalNodes>
        0 -1 35986 1.8014671280980110e-02</internalNodes>
      <leafValues>
        -3.8448359817266464e-02 3.0566191673278809e-01</leafValues></_>
    <_>
      <internalNodes>
        0 -1 25068 1.4016086235642433e-02</internalNodes>
      <leafValues>
        8.0700568854808807e-02 -1.4122572541236877e-01</leafValues></_>
    <_>
      <internalNodes>
        0 -1 1834 9.8381042480468750e-02</internalNodes>
      <leafValues>
        -8.3217680454254150e-02 1.4436432719230652e-01</leafValues></_></weakClassifiers></stage3>
</opencv_storage>
