<?xml version="1.0"?>
<opencv_storage>
<stage9>
  <maxWeakCount>100</maxWeakCount>
  <stageThreshold>-5.2644771337509155e-01</stageThreshold>
  <weakClassifiers>
    <_>
      <internalNodes>
        0 -1 66620 -1.9594994373619556e-03</internalNodes>
      <leafValues>
        5.3159850835800171e-01 2.8399631381034851e-01</leafValues></_>
    <_>
      <internalNodes>
        0 -1 8966 -2.3688937653787434e-04</internalNodes>
      <leafValues>
        1.6101667284965515e-01 -6.3527040183544159e-02</leafValues></_>
    <_>
      <internalNodes>
        0 -1 1555 3.3939047716557980e-03</internalNodes>
      <leafValues>
        -8.6545109748840332e-02 2.4730348587036133e-01</leafValues></_>
    <_>
      <internalNodes>
        0 -1 11732 6.5570708829909563e-04</internalNodes>
      <leafValues>
        -5.1110006868839264e-02 1.6824871301651001e-01</leafValues></_>
    <_>
      <internalNodes>
        0 -1 1555 3.0400254763662815e-03</internalNodes>
      <leafValues>
        8.2297297194600105e-03 -3.3583825826644897e-01</leafValues></_>
    <_>
      <internalNodes>
        0 -1 1555 3.2925622072070837e-03</internalNodes>
      <leafValues>
        -3.0401049181818962e-02 3.0833756923675537e-01</leafValues></_>
    <_>
      <internalNodes>
        0 -1 12180 1.2143481289967895e-03</internalNodes>
      <leafValues>
        -8.1011220812797546e-02 1.6665053367614746e-01</leafValues></_>
    <_>
      <internalNodes>
        0 -1 75027 4.0967720560729504e-03</internalNodes>
      <leafValues>
        -4.8766043037176132e-02 2.2167076170444489e-01</leafValues></_>
    <_>
      <internalNodes>
        0 -1 77725 5.8378856629133224e-03</internalNodes>
      <leafValues>
        2.5670239701867104e-02 -4.9714395403862000e-01</leafValues></_>
    <_>
      <internalNodes>
        0 -1 6661 2.8471976518630981e-02</internalNodes>
      <leafValues>
        -3.2479166984558105e-02 4.4810563325881958e-01</leafValues></_>
    <_>
      <internalNodes>
        0 -1 6006 -4.2065471410751343e-02</internalNodes>
      <leafValues>
        3.4736692905426025e-01 -3.0472675338387489e-02</leafValues></_>
    <_>
      <internalNodes>
        0 -1 12019 -1.5800742432475090e-02</internalNodes>
      <leafValues>
        1.7742335796356201e-01 -6.0810960829257965e-02</leafValues></_>
    <_>
      <internalNodes>
        0 -1 65722 3.7069038953632116e-03</internalNodes>
      <leafValues>
        8.1329673528671265e-02 -1.4099965989589691e-01</leafValues></_>
    <_>
      <internalNodes>
        0 -1 539 1.1806017719209194e-02</internalNodes>
      <leafValues>
        6.5791130065917969e-02 -1.7471452057361603e-01</leafValues></_>
    <_>
      <internalNodes>
        0 -1 6084 -2.9643105342984200e-02</internalNodes>
      <leafValues>
        -4.9682042002677917e-01 2.2446021437644958e-02</leafValues></_>
    <_>
      <internalNodes>
        0 -1 7519 1.5141536481678486e-02</internalNodes>
      <leafValues>
        -3.2083697617053986e-02 3.3002454042434692e-01</leafValues></_>
    <_>
      <internalNodes>
        0 -1 58434 -7.3337117210030556e-03</internalNodes>
      <leafValues>
        -4.0188080072402954e-01 2.6642631739377975e-02</leafValues></_>
    <_>
      <internalNodes>
        0 -1 17871 -4.0476087480783463e-02</internalNodes>
      <leafValues>
        7.7163541316986084e-01 -1.5456208959221840e-02</leafValues></_>
    <_>
      <internalNodes>
        0 -1 68708 8.5002873092889786e-03</internalNodes>
      <leafValues>
        1.7071982845664024e-02 -6.7148619890213013e-01</leafValues></_>
    <_>
      <internalNodes>
        0 -1 23517 -9.4479070976376534e-03</internalNodes>
      <leafValues>
        2.7849149703979492e-01 -3.3922694623470306e-02</leafValues></_>
    <_>
      <internalNodes>
        0 -1 12990 9.7395351622253656e-04</internalNodes>
      <leafValues>
        -9.0891100466251373e-02 1.1456575244665146e-01</leafValues></_>
    <_>
      <internalNodes>
        0 -1 5413 -1.2325089424848557e-02</internalNodes>
      <leafValues>
        5.4951065778732300e-01 -1.8041856586933136e-02</leafValues></_>
    <_>
      <internalNodes>
        0 -1 12216 1.3029737398028374e-02</internalNodes>
      <leafValues>
        4.3211821466684341e-02 -2.8429234027862549e-01</leafValues></_>
    <_>
      <internalNodes>
        0 -1 72760 -1.8122864421457052e-03</internalNodes>
      <leafValues>
        1.6874314844608307e-01 -5.9600722044706345e-02</leafValues></_>
    <_>
      <internalNodes>
        0 -1 37049 -2.2274079918861389e-01</internalNodes>
      <leafValues>
        -7.9209673404693604e-01 1.5980936586856842e-02</leafValues></_>
    <_>
      <internalNodes>
        0 -1 74445 5.5573899298906326e-02</internalNodes>
      <leafValues>
        -1.8231458961963654e-02 5.9507191181182861e-01</leafValues></_>
    <_>
      <internalNodes>
        0 -1 55728 5.0562079995870590e-03</internalNodes>
      <leafValues>
        2.2832999005913734e-02 -5.3544253110885620e-01</leafValues></_>
    <_>
      <internalNodes>
        0 -1 73127 1.2313779443502426e-02</internalNodes>
      <leafValues>
        2.5038141757249832e-02 -3.9774689078330994e-01</leafValues></_>
    <_>
      <internalNodes>
        0 -1 51465 -2.3259576410055161e-02</internalNodes>
      <leafValues>
        -1.1843169480562210e-01 9.5337517559528351e-02</leafValues></_>
    <_>
      <internalNodes>
        0 -1 76133 -9.4750728458166122e-03</internalNodes>
      <leafValues>
        3.0204260349273682e-01 -3.7934929132461548e-02</leafValues></_>
    <_>
      <internalNodes>
        0 -1 2726 -5.8837495744228363e-03</internalNodes>
      <leafValues>
        -3.7488883733749390e-01 3.1399212777614594e-02</leafValues></_>
    <_>
      <internalNodes>
        0 -1 24023 4.9169221892952919e-03</internalNodes>
      <leafValues>
        -5.2804581820964813e-02 1.8979717791080475e-01</leafValues></_>
    <_>
      <internalNodes>
        0 -1 25002 9.3510956503450871e-05</internalNodes>
      <leafValues>
        1.0014578700065613e-01 -1.1070656776428223e-01</leafValues></_>
    <_>
      <internalNodes>
        0 -1 3670 2.0425742864608765e-01</internalNodes>
      <leafValues>
        2.0489787682890892e-02 -5.6829708814620972e-01</leafValues></_>
    <_>
      <internalNodes>
        0 -1 64734 1.0266539640724659e-02</internalNodes>
      <leafValues>
        -1.8150201067328453e-02 7.2616267204284668e-01</leafValues></_>
    <_>
      <internalNodes>
        0 -1 38871 -1.0147351771593094e-02</internalNodes>
      <leafValues>
        -1.2798818945884705e-01 8.7668158113956451e-02</leafValues></_>
    <_>
      <internalNodes>
        0 -1 31722 -2.8818730264902115e-02</internalNodes>
      <leafValues>
        2.2839982807636261e-01 -5.3743496537208557e-02</leafValues></_>
    <_>
      <internalNodes>
        0 -1 21117 -4.6680745435878634e-04</internalNodes>
      <leafValues>
        1.2599025666713715e-01 -8.6645662784576416e-02</leafValues></_>
    <_>
      <internalNodes>
        0 -1 53734 3.3788219094276428e-02</internalNodes>
      <leafValues>
        1.8469184637069702e-02 -5.8585375547409058e-01</leafValues></_>
    <_>
      <internalNodes>
        0 -1 50625 -7.1459136903285980e-02</internalNodes>
      <leafValues>
        3.5376840829849243e-01 -2.7767691761255264e-02</leafValues></_>
    <_>
      <internalNodes>
        0 -1 40481 -5.6424453854560852e-02</internalNodes>
      <leafValues>
        3.3049207925796509e-01 -3.0268594622612000e-02</leafValues></_>
    <_>
      <internalNodes>
        0 -1 39201 4.3793447315692902e-02</internalNodes>
      <leafValues>
        -1.9576380029320717e-02 5.1554888486862183e-01</leafValues></_>
    <_>
      <internalNodes>
        0 -1 57284 7.7434731647372246e-03</internalNodes>
      <leafValues>
        -7.7465072274208069e-02 1.3578535616397858e-01</leafValues></_>
    <_>
      <internalNodes>
        0 -1 75946 -6.3225678168237209e-03</internalNodes>
      <leafValues>
        -1.9614879786968231e-01 5.5405817925930023e-02</leafValues></_>
    <_>
      <internalNodes>
        0 -1 43849 -8.7138693779706955e-03</internalNodes>
      <leafValues>
        -2.4410219490528107e-01 4.7511603683233261e-02</leafValues></_>
    <_>
      <internalNodes>
        0 -1 12176 1.7726145451888442e-03</internalNodes>
      <leafValues>
        -7.3613606393337250e-02 1.5195675194263458e-01</leafValues></_>
    <_>
      <internalNodes>
        0 -1 11742 -2.3775904264766723e-04</internalNodes>
      <leafValues>
        1.2503509223461151e-01 -8.6923994123935699e-02</leafValues></_>
    <_>
      <internalNodes>
        0 -1 52331 1.6324727330356836e-03</internalNodes>
      <leafValues>
        -4.1192360222339630e-02 2.5208428502082825e-01</leafValues></_>
    <_>
      <internalNodes>
        0 -1 7446 4.9939034506678581e-03</internalNodes>
      <leafValues>
        2.5265047326683998e-02 -3.8968461751937866e-01</leafValues></_>
    <_>
      <internalNodes>
        0 -1 48546 -1.7824331298470497e-02</internalNodes>
      <leafValues>
        5.5317783355712891e-01 -1.8597315996885300e-02</leafValues></_>
    <_>
      <internalNodes>
        0 -1 64041 -1.7430739477276802e-02</internalNodes>
      <leafValues>
        -5.1338368654251099e-01 2.3064304143190384e-02</leafValues></_>
    <_>
      <internalNodes>
        0 -1 45135 -7.4361888691782951e-03</internalNodes>
      <leafValues>
        2.0978495478630066e-01 -5.0403367727994919e-02</leafValues></_>
    <_>
      <internalNodes>
        0 -1 63334 -3.2031917944550514e-03</internalNodes>
      <leafValues>
        4.5999521017074585e-01 -2.3371614515781403e-02</leafValues></_>
    <_>
      <internalNodes>
        0 -1 38479 1.1271924711763859e-02</internalNodes>
      <leafValues>
        8.5455834865570068e-02 -1.3739033043384552e-01</leafValues></_>
    <_>
      <internalNodes>
        0 -1 77620 4.2097468394786119e-05</internalNodes>
      <leafValues>
        9.6329852938652039e-02 -1.1242306232452393e-01</leafValues></_>
    <_>
      <internalNodes>
        0 -1 33759 5.6068934500217438e-02</internalNodes>
      <leafValues>
        -3.7615194916725159e-02 3.0622756481170654e-01</leafValues></_>
    <_>
      <internalNodes>
        0 -1 69014 7.1182288229465485e-03</internalNodes>
      <leafValues>
        2.1848075091838837e-02 -4.6841940283775330e-01</leafValues></_>
    <_>
      <internalNodes>
        0 -1 46512 2.1102279424667358e-02</internalNodes>
      <leafValues>
        2.1811632439494133e-02 -4.6494433283805847e-01</leafValues></_>
    <_>
      <internalNodes>
        0 -1 39878 -8.5097141563892365e-03</internalNodes>
      <leafValues>
        1.4994925260543823e-01 -7.2205953299999237e-02</leafValues></_>
    <_>
      <internalNodes>
        0 -1 25837 -5.1495555788278580e-02</internalNodes>
      <leafValues>
        2.6969799399375916e-01 -3.5308316349983215e-02</leafValues></_>
    <_>
      <internalNodes>
        0 -1 25819 -2.3418417200446129e-02</internalNodes>
      <leafValues>
        -3.3659470081329346e-01 3.4571349620819092e-02</leafValues></_>
    <_>
      <internalNodes>
        0 -1 24973 -2.9566507786512375e-02</internalNodes>
      <leafValues>
        7.4410450458526611e-01 -1.4380549080669880e-02</leafValues></_>
    <_>
      <internalNodes>
        0 -1 34165 3.5744592547416687e-02</internalNodes>
      <leafValues>
        3.0045518651604652e-02 -3.8883370161056519e-01</leafValues></_>
    <_>
      <internalNodes>
        0 -1 41343 2.3093912750482559e-02</internalNodes>
      <leafValues>
        2.4950575083494186e-02 -3.9693215489387512e-01</leafValues></_>
    <_>
      <internalNodes>
        0 -1 35318 -1.4731592498719692e-02</internalNodes>
      <leafValues>
        6.5723639726638794e-01 -1.5274404548108578e-02</leafValues></_>
    <_>
      <internalNodes>
        0 -1 35264 -1.5489300712943077e-02</internalNodes>
      <leafValues>
        7.6836621761322021e-01 -1.0282509028911591e-02</leafValues></_>
    <_>
      <internalNodes>
        0 -1 63758 -9.1947037726640701e-03</internalNodes>
      <leafValues>
        -4.5808577537536621e-01 2.6056582108139992e-02</leafValues></_>
    <_>
      <internalNodes>
        0 -1 10163 8.8830254971981049e-03</internalNodes>
      <leafValues>
        -6.1366841197013855e-02 1.8653857707977295e-01</leafValues></_>
    <_>
      <internalNodes>
        0 -1 9542 -4.1766889393329620e-02</internalNodes>
      <leafValues>
        -6.3112330436706543e-01 2.0520295947790146e-02</leafValues></_>
    <_>
      <internalNodes>
        0 -1 630 -3.9427883923053741e-02</internalNodes>
      <leafValues>
        3.3173483610153198e-01 -4.3449174612760544e-02</leafValues></_>
    <_>
      <internalNodes>
        0 -1 35094 -1.0543334297835827e-02</internalNodes>
      <leafValues>
        -3.4328633546829224e-01 3.2590836286544800e-02</leafValues></_>
    <_>
      <internalNodes>
        0 -1 49667 3.1787883490324020e-03</internalNodes>
      <leafValues>
        2.5214459747076035e-02 -4.1233015060424805e-01</leafValues></_>
    <_>
      <internalNodes>
        0 -1 74463 1.5368290245532990e-02</internalNodes>
      <leafValues>
        -1.9023416563868523e-02 5.9155249595642090e-01</leafValues></_>
    <_>
      <internalNodes>
        0 -1 68361 -4.8556989058852196e-03</internalNodes>
      <leafValues>
        4.7447898983955383e-01 -2.1484067663550377e-02</leafValues></_>
    <_>
      <internalNodes>
        0 -1 11268 3.2290372997522354e-02</internalNodes>
      <leafValues>
        2.0494364202022552e-02 -5.5008721351623535e-01</leafValues></_>
    <_>
      <internalNodes>
        0 -1 2125 8.4020523354411125e-03</internalNodes>
      <leafValues>
        4.3539647012948990e-02 -2.3552575707435608e-01</leafValues></_>
    <_>
      <internalNodes>
        0 -1 72720 2.7502891607582569e-03</internalNodes>
      <leafValues>
        -4.1123796254396439e-02 2.4395538866519928e-01</leafValues></_>
    <_>
      <internalNodes>
        0 -1 35112 7.5034454464912415e-02</internalNodes>
      <leafValues>
        4.3153420090675354e-02 -2.4689017236232758e-01</leafValues></_>
    <_>
      <internalNodes>
        0 -1 63228 7.2478055953979492e-02</internalNodes>
      <leafValues>
        -1.6905242577195168e-02 6.5003085136413574e-01</leafValues></_>
    <_>
      <internalNodes>
        0 -1 1683 4.9637317657470703e-02</internalNodes>
      <leafValues>
        -8.6696622893214226e-03 9.4503968954086304e-01</leafValues></_>
    <_>
      <internalNodes>
        0 -1 62165 -1.5016179531812668e-04</internalNodes>
      <leafValues>
        -1.1594864726066589e-01 8.9938990771770477e-02</leafValues></_>
    <_>
      <internalNodes>
        0 -1 38456 -3.2889191061258316e-03</internalNodes>
      <leafValues>
        -2.1117544174194336e-01 5.1452871412038803e-02</leafValues></_>
    <_>
      <internalNodes>
        0 -1 32472 -5.3724057972431183e-02</internalNodes>
      <leafValues>
        7.4786663055419922e-01 -1.3652065768837929e-02</leafValues></_>
    <_>
      <internalNodes>
        0 -1 45132 -1.9554995000362396e-02</internalNodes>
      <leafValues>
        -5.0381362438201904e-01 2.4195481091737747e-02</leafValues></_>
    <_>
      <internalNodes>
        0 -1 62368 7.9049468040466309e-03</internalNodes>
      <leafValues>
        1.5069651417434216e-02 -6.2492418289184570e-01</leafValues></_>
    <_>
      <internalNodes>
        0 -1 32962 -5.1196762360632420e-03</internalNodes>
      <leafValues>
        2.7075058221817017e-01 -4.0742538869380951e-02</leafValues></_>
    <_>
      <internalNodes>
        0 -1 24958 8.1035364419221878e-03</internalNodes>
      <leafValues>
        2.9639279469847679e-02 -4.0117424726486206e-01</leafValues></_>
    <_>
      <internalNodes>
        0 -1 49015 -2.0383419468998909e-02</internalNodes>
      <leafValues>
        7.4924552440643311e-01 -1.5902770683169365e-02</leafValues></_>
    <_>
      <internalNodes>
        0 -1 75485 -3.8594714715145528e-04</internalNodes>
      <leafValues>
        -1.0268406569957733e-01 1.0318944603204727e-01</leafValues></_>
    <_>
      <internalNodes>
        0 -1 65859 -9.7862973809242249e-02</internalNodes>
      <leafValues>
        -4.4340676069259644e-01 2.4324908852577209e-02</leafValues></_>
    <_>
      <internalNodes>
        0 -1 38462 3.3814525231719017e-03</internalNodes>
      <leafValues>
        6.6836841404438019e-02 -1.6517344117164612e-01</leafValues></_>
    <_>
      <internalNodes>
        0 -1 76361 9.1471131891012192e-03</internalNodes>
      <leafValues>
        -3.3973336219787598e-02 3.2803705334663391e-01</leafValues></_>
    <_>
      <internalNodes>
        0 -1 13849 -4.9689948558807373e-02</internalNodes>
      <leafValues>
        -8.3100879192352295e-01 1.4829681254923344e-02</leafValues></_>
    <_>
      <internalNodes>
        0 -1 11734 3.4193406463600695e-04</internalNodes>
      <leafValues>
        -9.6610479056835175e-02 1.2492287904024124e-01</leafValues></_>
    <_>
      <internalNodes>
        0 -1 60935 -1.1135258525609970e-01</internalNodes>
      <leafValues>
        4.5761701464653015e-01 -2.1650349721312523e-02</leafValues></_>
    <_>
      <internalNodes>
        0 -1 18373 -3.5046967677772045e-03</internalNodes>
      <leafValues>
        1.4678220450878143e-01 -7.7724277973175049e-02</leafValues></_>
    <_>
      <internalNodes>
        0 -1 5416 -1.6643404960632324e-02</internalNodes>
      <leafValues>
        -1.8135286867618561e-01 6.1585005372762680e-02</leafValues></_>
    <_>
      <internalNodes>
        0 -1 2953 8.6636781692504883e-02</internalNodes>
      <leafValues>
        4.9317892640829086e-02 -2.7674570679664612e-01</leafValues></_>
    <_>
      <internalNodes>
        0 -1 30074 -1.0252086818218231e-01</internalNodes>
      <leafValues>
        6.4542096853256226e-01 -1.8528055399656296e-02</leafValues></_>
    <_>
      <internalNodes>
        0 -1 74247 -5.0190603360533714e-03</internalNodes>
      <leafValues>
        -6.1315304040908813e-01 1.9885210320353508e-02</leafValues></_></weakClassifiers></stage9>
</opencv_storage>
