<?xml version="1.0"?>
<opencv_storage>
<stage10>
  <maxWeakCount>80</maxWeakCount>
  <stageThreshold>-6.3277822732925415e-01</stageThreshold>
  <weakClassifiers>
    <_>
      <internalNodes>
        0 -1 66568 6.0419351793825626e-03</internalNodes>
      <leafValues>
        3.5269710421562195e-01 -7.1428573131561279e-01</leafValues></_>
    <_>
      <internalNodes>
        0 -1 66014 1.6417287290096283e-02</internalNodes>
      <leafValues>
        -6.4233884215354919e-02 3.5633215308189392e-01</leafValues></_>
    <_>
      <internalNodes>
        0 -1 77023 4.1005979292094707e-03</internalNodes>
      <leafValues>
        -1.3021141290664673e-01 1.8281270563602448e-01</leafValues></_>
    <_>
      <internalNodes>
        0 -1 54346 1.1232509277760983e-03</internalNodes>
      <leafValues>
        -1.5836159884929657e-01 1.4052203297615051e-01</leafValues></_>
    <_>
      <internalNodes>
        0 -1 54517 5.6005585938692093e-03</internalNodes>
      <leafValues>
        3.3871073275804520e-02 -5.8332568407058716e-01</leafValues></_>
    <_>
      <internalNodes>
        0 -1 74838 -8.1232143566012383e-04</internalNodes>
      <leafValues>
        1.8192495405673981e-01 -1.0709185898303986e-01</leafValues></_>
    <_>
      <internalNodes>
        0 -1 75818 -6.0884808190166950e-03</internalNodes>
      <leafValues>
        -4.7684225440025330e-01 4.2331449687480927e-02</leafValues></_>
    <_>
      <internalNodes>
        0 -1 42164 -1.9913457799702883e-03</internalNodes>
      <leafValues>
        2.0435479283332825e-01 -1.0308813303709030e-01</leafValues></_>
    <_>
      <internalNodes>
        0 -1 25002 -1.0935475584119558e-03</internalNodes>
      <leafValues>
        1.9058901071548462e-01 -9.3047276139259338e-02</leafValues></_>
    <_>
      <internalNodes>
        0 -1 68432 4.4065127149224281e-03</internalNodes>
      <leafValues>
        3.1481560319662094e-02 -6.9560182094573975e-01</leafValues></_>
    <_>
      <internalNodes>
        0 -1 23611 4.1997926309704781e-03</internalNodes>
      <leafValues>
        7.7342487871646881e-02 -2.4905732274055481e-01</leafValues></_>
    <_>
      <internalNodes>
        0 -1 18787 -7.0639927871525288e-03</internalNodes>
      <leafValues>
        -7.3952561616897583e-01 1.6543662175536156e-02</leafValues></_>
    <_>
      <internalNodes>
        0 -1 24510 1.6958152875304222e-02</internalNodes>
      <leafValues>
        3.2881125807762146e-02 -4.8714506626129150e-01</leafValues></_>
    <_>
      <internalNodes>
        0 -1 42901 -8.0023147165775299e-04</internalNodes>
      <leafValues>
        2.0724596083164215e-01 -8.8271386921405792e-02</leafValues></_>
    <_>
      <internalNodes>
        0 -1 47924 3.7214756011962891e-03</internalNodes>
      <leafValues>
        3.4376498311758041e-02 -5.3341901302337646e-01</leafValues></_>
    <_>
      <internalNodes>
        0 -1 35495 -2.3457202315330505e-01</internalNodes>
      <leafValues>
        5.8030325174331665e-01 -3.0671427026391029e-02</leafValues></_>
    <_>
      <internalNodes>
        0 -1 27145 -4.2104020714759827e-02</internalNodes>
      <leafValues>
        -4.5543655753135681e-01 4.1066586971282959e-02</leafValues></_>
    <_>
      <internalNodes>
        0 -1 38421 6.8678834941238165e-04</internalNodes>
      <leafValues>
        -9.1356523334980011e-02 2.3002324998378754e-01</leafValues></_>
    <_>
      <internalNodes>
        0 -1 26461 -6.8753777304664254e-04</internalNodes>
      <leafValues>
        1.8160986900329590e-01 -1.1769635230302811e-01</leafValues></_>
    <_>
      <internalNodes>
        0 -1 67634 -2.6175715029239655e-03</internalNodes>
      <leafValues>
        -3.4727025032043457e-01 5.8148864656686783e-02</leafValues></_>
    <_>
      <internalNodes>
        0 -1 78456 -5.6515131145715714e-03</internalNodes>
      <leafValues>
        3.6706846952438354e-01 -5.1393743604421616e-02</leafValues></_>
    <_>
      <internalNodes>
        0 -1 21601 -5.2133146673440933e-03</internalNodes>
      <leafValues>
        -3.4342154860496521e-01 5.5044397711753845e-02</leafValues></_>
    <_>
      <internalNodes>
        0 -1 44991 1.0389069095253944e-02</internalNodes>
      <leafValues>
        -8.9964240789413452e-02 2.0433776080608368e-01</leafValues></_>
    <_>
      <internalNodes>
        0 -1 74174 1.6480285674333572e-02</internalNodes>
      <leafValues>
        -3.6970831453800201e-02 4.9498665332794189e-01</leafValues></_>
    <_>
      <internalNodes>
        0 -1 59509 9.8667830228805542e-02</internalNodes>
      <leafValues>
        -1.9208008423447609e-02 7.8916031122207642e-01</leafValues></_>
    <_>
      <internalNodes>
        0 -1 70972 -4.6109882532618940e-04</internalNodes>
      <leafValues>
        1.6056182980537415e-01 -1.1291480064392090e-01</leafValues></_>
    <_>
      <internalNodes>
        0 -1 54620 5.6865595979616046e-04</internalNodes>
      <leafValues>
        -1.3868272304534912e-01 1.3161864876747131e-01</leafValues></_>
    <_>
      <internalNodes>
        0 -1 74767 1.7265169881284237e-03</internalNodes>
      <leafValues>
        -9.6868388354778290e-02 1.7828822135925293e-01</leafValues></_>
    <_>
      <internalNodes>
        0 -1 76204 -8.4048863500356674e-03</internalNodes>
      <leafValues>
        -6.5683007240295410e-01 2.9885586351156235e-02</leafValues></_>
    <_>
      <internalNodes>
        0 -1 23530 -1.6920804977416992e-02</internalNodes>
      <leafValues>
        -3.7506595253944397e-01 4.5058377087116241e-02</leafValues></_>
    <_>
      <internalNodes>
        0 -1 20181 -7.0696738548576832e-03</internalNodes>
      <leafValues>
        2.2973302006721497e-01 -8.1068657338619232e-02</leafValues></_>
    <_>
      <internalNodes>
        0 -1 6093 8.1713721156120300e-03</internalNodes>
      <leafValues>
        3.3101871609687805e-02 -6.2367850542068481e-01</leafValues></_>
    <_>
      <internalNodes>
        0 -1 68948 -2.4606264196336269e-03</internalNodes>
      <leafValues>
        3.4077656269073486e-01 -5.9564448893070221e-02</leafValues></_>
    <_>
      <internalNodes>
        0 -1 77879 3.9429247379302979e-02</internalNodes>
      <leafValues>
        -2.6174850761890411e-02 5.8256536722183228e-01</leafValues></_>
    <_>
      <internalNodes>
        0 -1 68948 1.1613396927714348e-03</internalNodes>
      <leafValues>
        -9.5490105450153351e-02 2.1089057624340057e-01</leafValues></_>
    <_>
      <internalNodes>
        0 -1 77236 -5.3436197340488434e-03</internalNodes>
      <leafValues>
        -5.6481432914733887e-01 3.4249816089868546e-02</leafValues></_>
    <_>
      <internalNodes>
        0 -1 75005 -1.2386098504066467e-02</internalNodes>
      <leafValues>
        -6.5084671974182129e-01 2.4033542722463608e-02</leafValues></_>
    <_>
      <internalNodes>
        0 -1 74970 6.1154775321483612e-03</internalNodes>
      <leafValues>
        2.9082218185067177e-02 -6.1353147029876709e-01</leafValues></_>
    <_>
      <internalNodes>
        0 -1 5704 -1.6121836379170418e-03</internalNodes>
      <leafValues>
        1.8668004870414734e-01 -1.0533200949430466e-01</leafValues></_>
    <_>
      <internalNodes>
        0 -1 20325 1.9413210684433579e-03</internalNodes>
      <leafValues>
        -8.6186558008193970e-02 2.0711500942707062e-01</leafValues></_>
    <_>
      <internalNodes>
        0 -1 16752 5.3914293646812439e-02</internalNodes>
      <leafValues>
        2.4131640791893005e-02 -7.4042797088623047e-01</leafValues></_>
    <_>
      <internalNodes>
        0 -1 39333 2.3631788790225983e-03</internalNodes>
      <leafValues>
        -7.2619944810867310e-02 2.4730636179447174e-01</leafValues></_>
    <_>
      <internalNodes>
        0 -1 39499 8.4462779341265559e-04</internalNodes>
      <leafValues>
        -9.4707712531089783e-02 2.1776179969310760e-01</leafValues></_>
    <_>
      <internalNodes>
        0 -1 76622 3.5924324765801430e-03</internalNodes>
      <leafValues>
        4.3247595429420471e-02 -4.5416390895843506e-01</leafValues></_>
    <_>
      <internalNodes>
        0 -1 53892 -1.1732921702787280e-03</internalNodes>
      <leafValues>
        1.5443091094493866e-01 -1.2831842899322510e-01</leafValues></_>
    <_>
      <internalNodes>
        0 -1 52646 -3.9474451914429665e-03</internalNodes>
      <leafValues>
        -3.8095930218696594e-01 4.4666342437267303e-02</leafValues></_>
    <_>
      <internalNodes>
        0 -1 13968 2.6733487844467163e-02</internalNodes>
      <leafValues>
        3.8773067295551300e-02 -4.5727142691612244e-01</leafValues></_>
    <_>
      <internalNodes>
        0 -1 55423 1.5589348971843719e-02</internalNodes>
      <leafValues>
        -6.7588336765766144e-02 2.5495308637619019e-01</leafValues></_>
    <_>
      <internalNodes>
        0 -1 54428 -3.7117125466465950e-03</internalNodes>
      <leafValues>
        -3.9460784196853638e-01 4.5135952532291412e-02</leafValues></_>
    <_>
      <internalNodes>
        0 -1 32965 -2.7720690704882145e-03</internalNodes>
      <leafValues>
        2.1280720829963684e-01 -8.4968127310276031e-02</leafValues></_>
    <_>
      <internalNodes>
        0 -1 26281 -7.1957730688154697e-03</internalNodes>
      <leafValues>
        2.7959698438644409e-01 -6.4721591770648956e-02</leafValues></_>
    <_>
      <internalNodes>
        0 -1 27032 -4.0405932813882828e-03</internalNodes>
      <leafValues>
        -6.6074150800704956e-01 3.0106751248240471e-02</leafValues></_>
    <_>
      <internalNodes>
        0 -1 68488 2.4211574345827103e-03</internalNodes>
      <leafValues>
        -1.1730158329010010e-01 1.5023677051067352e-01</leafValues></_>
    <_>
      <internalNodes>
        0 -1 68368 1.5033181756734848e-02</internalNodes>
      <leafValues>
        5.6252922862768173e-02 -4.7326084971427917e-01</leafValues></_>
    <_>
      <internalNodes>
        0 -1 37812 8.5424399003386497e-04</internalNodes>
      <leafValues>
        -1.3693137466907501e-01 1.3354428112506866e-01</leafValues></_>
    <_>
      <internalNodes>
        0 -1 49214 -1.2597131542861462e-02</internalNodes>
      <leafValues>
        -8.0753731727600098e-01 2.4962695315480232e-02</leafValues></_>
    <_>
      <internalNodes>
        0 -1 20696 8.2624647766351700e-03</internalNodes>
      <leafValues>
        3.7240989506244659e-02 -4.3583726882934570e-01</leafValues></_>
    <_>
      <internalNodes>
        0 -1 77236 4.4707716442644596e-03</internalNodes>
      <leafValues>
        4.1580986231565475e-02 -4.3743059039115906e-01</leafValues></_>
    <_>
      <internalNodes>
        0 -1 50233 -5.0419229082763195e-03</internalNodes>
      <leafValues>
        -2.4671912193298340e-01 7.2787538170814514e-02</leafValues></_>
    <_>
      <internalNodes>
        0 -1 60579 2.1012665238231421e-03</internalNodes>
      <leafValues>
        -1.0075240582227707e-01 1.7802411317825317e-01</leafValues></_>
    <_>
      <internalNodes>
        0 -1 69010 -1.2817118316888809e-02</internalNodes>
      <leafValues>
        6.8972367048263550e-01 -2.6611283421516418e-02</leafValues></_>
    <_>
      <internalNodes>
        0 -1 71491 4.2446255683898926e-03</internalNodes>
      <leafValues>
        -5.7659547775983810e-02 3.0320358276367188e-01</leafValues></_>
    <_>
      <internalNodes>
        0 -1 12602 -2.2185281850397587e-03</internalNodes>
      <leafValues>
        1.6874605417251587e-01 -1.0231727361679077e-01</leafValues></_>
    <_>
      <internalNodes>
        0 -1 61256 -6.6843181848526001e-03</internalNodes>
      <leafValues>
        5.2313685417175293e-01 -3.6226872354745865e-02</leafValues></_>
    <_>
      <internalNodes>
        0 -1 63033 5.8381967246532440e-03</internalNodes>
      <leafValues>
        2.8386544436216354e-02 -6.9321680068969727e-01</leafValues></_>
    <_>
      <internalNodes>
        0 -1 71143 6.0508735477924347e-03</internalNodes>
      <leafValues>
        2.7497928589582443e-02 -5.4209887981414795e-01</leafValues></_>
    <_>
      <internalNodes>
        0 -1 75583 -6.4174160361289978e-03</internalNodes>
      <leafValues>
        -5.0296264886856079e-01 3.1685952097177505e-02</leafValues></_>
    <_>
      <internalNodes>
        0 -1 51259 -4.6732164919376373e-03</internalNodes>
      <leafValues>
        -4.5788720250129700e-01 3.4048244357109070e-02</leafValues></_>
    <_>
      <internalNodes>
        0 -1 11239 1.8573040142655373e-02</internalNodes>
      <leafValues>
        -5.4266192018985748e-02 3.0685853958129883e-01</leafValues></_>
    <_>
      <internalNodes>
        0 -1 69411 -7.5614647939801216e-03</internalNodes>
      <leafValues>
        -3.1906148791313171e-01 5.5655241012573242e-02</leafValues></_>
    <_>
      <internalNodes>
        0 -1 20323 5.5967671796679497e-03</internalNodes>
      <leafValues>
        2.9261758551001549e-02 -5.5288416147232056e-01</leafValues></_>
    <_>
      <internalNodes>
        0 -1 75419 1.7336400225758553e-02</internalNodes>
      <leafValues>
        -2.4322159588336945e-02 7.9392898082733154e-01</leafValues></_>
    <_>
      <internalNodes>
        0 -1 44929 -5.6270521599799395e-04</internalNodes>
      <leafValues>
        1.7065244913101196e-01 -1.0091594606637955e-01</leafValues></_>
    <_>
      <internalNodes>
        0 -1 39631 -2.8362036682665348e-03</internalNodes>
      <leafValues>
        2.8047111630439758e-01 -6.1517689377069473e-02</leafValues></_>
    <_>
      <internalNodes>
        0 -1 13633 2.6404913514852524e-03</internalNodes>
      <leafValues>
        -1.1850421130657196e-01 1.5761318802833557e-01</leafValues></_>
    <_>
      <internalNodes>
        0 -1 49522 -7.9925265163183212e-03</internalNodes>
      <leafValues>
        -8.5487902164459229e-01 2.3461669683456421e-02</leafValues></_>
    <_>
      <internalNodes>
        0 -1 66567 -7.4233068153262138e-03</internalNodes>
      <leafValues>
        -7.5485569238662720e-01 1.8860969692468643e-02</leafValues></_>
    <_>
      <internalNodes>
        0 -1 45681 3.4873085096478462e-03</internalNodes>
      <leafValues>
        -7.0909708738327026e-02 2.6231601834297180e-01</leafValues></_>
    <_>
      <internalNodes>
        0 -1 10193 -2.9006082564592361e-02</internalNodes>
      <leafValues>
        6.0319823026657104e-01 -2.5959819555282593e-02</leafValues></_>
    <_>
      <internalNodes>
        0 -1 25388 9.6661373972892761e-03</internalNodes>
      <leafValues>
        4.5354500412940979e-02 -4.0822410583496094e-01</leafValues></_></weakClassifiers></stage10>
</opencv_storage>
